nep4 2 O H 
cutoff 6 4 119 42
n_max 9 7
basis_size 12 8
l_max 4 2 0
ANN 60 0
 -1.9159660e+00
 -1.2140233e-01
  2.5668426e+00
  1.0330791e+00
 -1.2051753e-01
  2.7333689e-01
 -1.7802769e+00
 -1.1498069e+00
  4.2731568e-05
 -3.3193279e-02
  1.1763062e+00
 -8.5732751e-02
  7.4287367e-01
 -3.7364982e-02
 -1.6362814e-02
  4.8688859e-01
 -9.4073391e-01
  9.5988894e-03
  5.9982628e-01
  2.2168131e-01
  4.6629724e-04
 -2.1041152e-01
  6.7530125e-01
  1.0181842e+00
  1.3228716e-01
  4.0648642e-01
  1.8989986e-01
 -1.1270320e-01
  1.1277518e+00
 -1.1175783e-01
 -5.0038529e-05
 -1.6842374e-01
 -7.1794647e-01
 -1.6932232e+00
  4.5355600e-01
  2.5293296e-02
  8.1099302e-01
 -9.0706110e-02
  2.3776556e-04
  9.2591703e-02
 -4.2610982e-01
 -1.4905976e+00
 -1.8726531e-04
  1.6714868e-05
 -1.0141565e-03
  9.1197074e-04
 -2.4013936e-05
  2.2139061e-02
 -8.4956213e-05
 -6.5163513e-05
 -1.8875816e-04
  1.0211441e-05
  4.1096862e-07
  4.4169854e-05
  3.4263910e-05
 -4.9251626e-05
 -8.2359775e-06
  1.0882746e-08
 -1.0305182e-04
 -1.9615324e-04
 -3.8226750e-05
  1.1901560e-05
 -1.0939308e-04
  4.6351534e-08
 -1.1984654e-04
 -1.6333211e-04
  1.1809354e-04
  3.1475800e-05
  1.0344865e-04
  8.3782412e-05
  1.0490930e-04
  2.5989088e-05
  2.2996417e-05
 -4.2657601e-05
  4.8715057e-05
 -7.0916722e-05
  5.4938580e-05
 -1.0025533e-04
  6.0494374e-05
  7.1693154e-05
  2.2332482e-05
 -4.1495168e-06
 -2.8253911e-05
 -4.8300972e-06
  1.1923982e-05
  5.1666790e-05
  2.0877646e-04
 -5.8020654e-05
 -5.5650318e-05
  5.8228488e-05
  8.0855243e-06
  1.4263083e-04
  4.0661171e-06
  1.5385855e-06
  3.8604480e-06
 -4.8222187e-06
 -2.3478757e-04
 -5.5558383e-05
  6.6197201e-05
 -1.3816278e-04
 -1.2261253e-04
  8.6226619e-06
 -7.6213772e-05
  1.9438357e-05
 -4.3248881e-05
  2.8935046e-05
  1.6843986e-04
 -9.5006646e-05
  2.8391718e-05
 -1.4991591e-05
 -5.4508029e-05
  1.3380210e-04
  5.1082308e-05
 -1.4224607e-05
  9.3161298e-06
  1.0227726e-04
 -1.6795624e-05
 -1.8934930e-05
  2.7939264e-05
 -2.9513470e-04
  4.0189054e-05
  4.7944286e-05
 -7.0087801e-05
 -9.7140146e-05
 -1.1975969e-04
 -2.7616275e-06
 -5.0212911e-05
 -1.2646115e-04
  3.5612211e-06
  5.1225528e-05
  2.6826510e-05
  1.5835492e-04
 -2.1877290e-04
 -3.0963583e-05
  1.1664041e-05
  1.1736645e-06
  4.7645990e-05
  1.7136933e-04
 -1.2586196e-04
 -1.5439371e-05
  2.4234535e-06
 -2.8255161e-05
 -1.7630435e-05
  2.9430061e-05
  4.1002007e-05
 -6.2482264e-05
  5.7704536e-05
  2.1672922e-05
  1.1040890e-04
  1.0565801e-04
 -7.4418072e-05
  4.2598276e-06
  1.9270826e-04
 -1.3622100e-04
 -6.0115653e-05
 -9.5110619e-05
  2.9636076e-05
  5.5215547e-05
  2.9372890e-05
  2.6342266e-05
 -3.5162017e-04
  2.4813987e-04
  5.6606597e-05
 -6.4317821e-05
  1.7312166e-05
 -4.0857438e-05
 -2.4056053e-05
 -2.9877971e-05
 -2.8802786e-05
 -5.8071575e-05
  9.1646680e-06
 -2.3949538e-05
  5.0803363e-05
  4.6049121e-05
 -8.8209948e-05
 -1.5791491e-05
  3.9300974e-04
 -7.5259726e-05
 -2.5266301e-05
 -2.2733429e-05
 -2.5312556e-05
 -5.6841836e-05
  4.1583284e-05
 -1.6660890e-05
 -3.7683010e-05
 -1.5710025e-04
 -1.1138704e-05
 -1.1771465e-05
 -8.2532672e-05
  7.8561585e-05
  4.6057277e-05
 -2.7149727e-04
  1.3780103e-05
  3.8801303e-05
  1.5428032e-04
  1.9960810e-04
  5.3954049e-05
  4.3211323e-05
 -1.1218397e-04
  6.6316757e-06
  7.1184033e-01
  9.5813707e-02
 -1.8670862e+00
 -1.3650832e-01
  3.1124011e-01
 -5.3876040e-05
  8.6478502e-01
  1.2251714e+00
 -5.7222283e-01
  3.0461419e-01
 -5.7540590e-05
 -1.3095678e-01
 -6.1026442e-01
  1.5544860e-01
 -5.9831608e-02
 -2.4449329e-01
  9.8531127e-01
 -9.7948499e-04
  3.7582908e-05
  5.5475703e-05
  1.5549153e-01
 -2.6426421e-04
 -1.5659143e-05
  6.2425461e-06
 -1.0444095e+00
  2.0975651e-01
  1.5089635e-03
 -2.5920008e-05
 -1.6101120e-01
  9.5886946e-01
 -1.2684177e-03
 -9.0266483e-05
 -3.9319682e-05
 -1.9638041e+00
  2.7831001e-04
  2.5008324e-01
  7.1364135e-05
  2.6748434e-01
 -6.3767560e-02
  1.3319090e-04
 -2.6358592e-03
 -7.1227223e-01
 -5.4151911e-05
 -6.2817185e-07
  1.1702985e-05
 -1.0577032e-04
  1.1875804e-04
 -6.1976607e-05
  7.4619606e-02
 -6.0973150e-01
 -6.2992185e-05
  5.4578901e-05
  2.1519644e-04
  3.7280042e-05
 -6.1814855e-05
  6.1703972e-06
  1.2521031e-04
  2.2685954e-04
 -4.5266683e-05
 -4.0600764e-05
 -1.5505428e-05
  3.1256059e-05
  6.1178660e-05
 -9.2468845e-06
  6.2314699e-05
  8.8836277e-05
  3.6316040e-05
  1.9316380e-04
  2.6557602e-05
  2.2028957e-05
 -4.1208321e-05
 -3.7753905e-06
  2.1510275e-05
  6.0357190e-05
 -5.5644387e-06
  1.6832068e-05
  8.2486615e-05
  1.0119650e-04
 -8.2312057e-05
 -1.1642548e-04
  7.3201751e-05
  5.1495215e-05
 -5.5691103e-06
 -2.3850815e-04
 -3.5844081e-05
 -6.6832421e-05
  6.3299500e-05
  4.5228306e-05
 -1.9273009e-06
 -7.2299379e-05
 -2.0794230e-06
 -5.3445307e-05
  1.1668153e-04
  1.1121085e-05
 -1.1531722e-04
  1.7777488e-04
 -3.6410605e-05
  7.9287725e-05
  2.7942642e-05
 -1.2583572e-05
 -1.0308604e-04
  1.1244491e-04
  6.7009118e-05
 -8.7217464e-05
 -2.4349363e-05
  1.3273262e-04
 -6.5108303e-05
 -4.6154950e-05
  2.5612107e-04
 -2.4245419e-05
 -6.5587439e-05
 -1.7114602e-05
  1.3563123e-04
  2.9688428e-05
  7.2597257e-05
  2.2059228e-05
 -5.1350562e-05
  1.7573932e-04
  3.3863124e-03
  1.3368488e-04
  1.8267758e-05
 -2.9386851e-04
 -7.8272154e-05
  1.6656835e-05
  1.5934002e-05
  3.6835427e-05
  1.6579961e-05
 -8.6685523e-06
 -2.4968364e-05
 -1.6016200e-05
  7.7594625e-05
 -9.6474490e-05
  2.0457586e-05
 -1.0518904e-05
  1.1118124e-05
 -3.7914103e-06
  1.3048588e-05
 -6.4079766e-05
  5.8109203e-05
  1.3794107e-05
  3.2925498e-05
 -1.3569877e-05
 -7.9501944e-05
  8.1213338e-06
 -5.1877701e-05
 -1.5032204e-05
  2.0774183e-05
 -1.1458256e-06
  4.2573938e-05
 -2.2349350e-05
  8.8052017e-05
  5.0921317e-05
 -4.1799926e-06
  1.6845892e-05
 -4.4436016e-05
 -7.9990543e-02
  8.9228983e-05
  1.8381694e-05
 -1.4883866e-04
  4.5131659e-05
  9.3871915e-01
  2.7266078e-06
 -4.7605627e-06
 -6.3697563e-04
  1.2904700e-04
 -3.4054683e-06
  6.7901725e-05
 -3.3982047e-05
  3.5370720e-04
 -6.8753354e-05
  7.1832542e-06
  1.5794410e-04
  3.3352399e-06
 -6.8772250e-05
 -1.9450494e-04
 -3.2669803e-04
  1.7309794e-04
 -1.2800534e-04
  1.4652919e-04
  1.6646138e-04
 -7.2052600e-05
  2.1292071e-03
 -6.6806475e-05
  6.9031819e-05
 -4.4214990e-05
  2.5701354e-06
  6.0638890e-06
 -1.1389924e-04
  3.7315192e-05
  6.4056556e-05
 -2.4164676e-05
 -8.2225242e-06
  4.1301504e-05
 -7.4334821e-05
  3.5246710e-05
  5.0241917e-05
  3.6464065e-05
  3.5016321e-05
  3.9990159e-04
 -4.7390244e-05
  8.9029651e-05
 -2.7618848e-03
 -3.0924678e-01
 -5.2909885e-02
 -1.1955500e-01
 -7.6741228e-05
  3.4454813e-05
  2.3141220e-01
  4.5667447e-02
  1.4861347e-01
 -2.1604537e-05
  6.8478340e-01
 -7.3523755e-04
 -1.5296683e-01
  2.0284586e-01
 -7.4489094e-06
  5.4180397e-05
 -3.0192385e+00
 -1.3833353e-04
 -1.1983223e-04
 -7.7769677e-05
 -2.5993299e-05
 -8.5638691e-05
 -9.2614144e-05
  2.3089927e-03
  2.2392735e-01
 -5.6626817e-04
 -2.3156271e-04
 -9.3624323e-05
  2.3053975e-05
  4.1131352e-04
  1.5376188e-04
  2.7101943e-01
  3.0157012e-01
 -1.1929456e-04
  1.0410660e-03
 -4.5798985e-05
  1.0437484e-01
 -5.0014736e-05
 -1.7089071e-04
 -3.4623954e-01
  4.0910651e-05
 -6.7275359e-05
 -9.7371412e-05
 -1.6784699e-05
 -2.5409853e-04
 -3.8103288e-05
  2.8539749e-05
 -8.7072462e-05
 -7.5229491e-06
 -5.8271085e-05
 -6.6503373e-05
 -4.0346782e-05
  7.3013152e-06
  2.2518946e-01
  3.3989054e-05
  5.6533878e-05
 -1.8704673e-05
 -2.0331967e-04
  6.3755404e-05
  7.1285365e-05
  4.6124354e-05
 -2.4141424e-04
  3.3896649e-05
 -1.4409682e-04
 -1.3904138e-05
  9.0282141e-05
 -1.7531805e-05
  7.3475232e-05
  5.6573277e-05
  4.3881017e-05
 -6.2365012e-05
 -3.6660742e-05
 -7.5953518e-05
 -8.5593179e-05
  1.1850511e-04
 -5.1751620e-05
  1.2901562e-04
  1.8059120e-04
  7.3715622e-05
  5.5652687e-05
  2.7231836e-05
  4.1737017e-05
  4.0311930e-05
  2.0815722e-04
 -1.4522063e-04
 -3.2178013e-05
  2.7651995e-04
 -1.0889804e-05
 -2.5471105e-05
  6.0699575e-05
  2.8146807e-05
 -3.9912909e-05
  3.2642998e-05
  1.0649154e-05
  1.2096347e-05
 -7.8956815e-05
 -1.1969521e-04
 -1.0248119e-04
 -8.4543521e-05
 -7.2907901e-06
 -1.6721459e-06
  1.1406050e-05
 -1.6222705e-04
  7.7353092e-05
 -2.8409553e-04
  5.0730061e-05
  2.2042579e-05
  1.0931279e-04
  1.0277145e-04
 -9.5697931e-07
  6.5803011e-05
 -2.7333919e-04
 -1.0350307e-04
 -6.8067970e-06
 -1.6258552e-04
  3.1471685e-05
  9.0311360e-06
  3.7225989e-05
  8.0251439e-06
  1.4678242e-05
 -2.6346657e-05
  2.5074239e-04
 -5.5097706e-05
  5.0425660e-05
 -5.1100578e-05
  5.0281997e-05
 -1.9978774e-05
  1.8623654e-05
  3.9394221e-05
  4.2258769e-05
  1.0820962e-05
  1.9949701e-04
 -2.4922845e-05
  3.8945927e-05
  1.6683158e-04
 -7.4886892e-05
  9.2366945e-06
  1.7047132e-04
 -5.3995467e-05
  1.9597925e-05
  7.9646234e-05
 -1.5110316e-04
 -4.9507347e-05
  5.6211946e-05
  1.0288902e-05
  1.3871641e-04
  9.9523386e-05
  1.0241599e-04
 -1.6364215e-04
 -6.8994908e-05
 -7.8539029e-05
 -5.2967156e-05
  1.6886890e-05
  1.0633062e-04
 -5.8280337e-05
  1.2629968e-04
  1.9951367e-05
 -1.7595457e-04
  6.5805136e-05
 -1.1015063e-04
  3.2759159e-05
 -4.6845140e-05
  2.8397696e-04
  2.7762591e-05
 -3.9409500e-05
 -8.0311860e-05
  9.8463548e-05
  9.6392076e-05
  2.8123510e-05
  1.8671464e-05
  7.1078684e-06
  2.6185069e-05
  2.8861838e-04
 -2.6681210e-04
  3.5673951e-05
  1.9603889e-04
 -3.5509594e-05
  6.4364329e-05
 -1.3702295e-05
  3.4398294e-05
  1.5686326e-05
 -6.2208455e-05
 -3.1904583e-05
 -1.9308383e-05
  2.7760118e-04
 -6.4068903e-05
  9.5511081e-05
  3.4986675e-05
  2.6677400e-04
  4.9062772e-05
 -2.6281408e-05
 -3.3440985e-04
 -1.1465326e-04
 -1.0961167e-05
  1.0321847e-06
 -1.5021712e-04
  1.4366694e-05
 -1.1893993e-05
 -4.6925470e-05
  9.5288364e-05
  1.8003826e-04
  2.7805194e-04
 -6.6266570e-05
  2.8966908e-05
 -1.5555754e-04
 -4.1653775e-06
  7.9496676e-05
  2.8280757e-04
  1.7766893e-04
  6.6964247e-05
 -1.1897905e-04
  6.6869485e-05
 -2.9510604e-05
  3.9318733e-05
 -1.6374269e-04
  4.7037960e-05
  5.8334488e-05
  6.3967222e-05
  2.0468535e-05
  1.7660879e-05
 -2.9511262e-05
 -5.8433714e-05
  1.7812252e-03
  2.3480561e-05
 -4.8455713e-05
  6.3993066e-05
 -1.5154296e-05
 -2.3873443e-05
  1.2020414e-05
 -1.3123646e-05
  1.8237164e-05
 -8.6725828e-05
 -9.7106080e-05
  5.3967383e-06
  2.7750300e-05
 -1.9187648e-06
 -6.2581435e-05
 -1.2370151e-04
 -5.3500818e-05
 -2.3555367e-05
  2.6064821e-05
 -1.0685814e-04
  2.0767143e-04
  7.3601573e-06
  4.8055488e-05
 -1.9462257e-04
  1.7491513e-04
 -7.1680952e-06
 -3.3072924e-05
  1.0971884e-05
  1.0785724e-04
  9.4147421e-05
 -1.1290303e-05
 -1.8849283e-05
 -9.7199380e-05
 -7.0129470e-05
 -7.1963572e-05
  1.4006301e-04
  3.6721209e-05
  1.0538231e-04
  2.2145203e-05
 -8.3969659e-05
 -3.3641147e-06
  2.6857950e-05
  9.6940075e-06
  3.3940762e-06
  6.3768595e-05
 -5.0474755e-05
  9.0755719e-05
  2.1365928e-05
  7.0919150e-06
  2.1143530e-04
  1.7127159e-05
  3.8041529e-05
 -2.6061622e-07
 -1.8509309e-05
  2.7168957e-05
  1.3446710e-04
  3.5797275e-04
  1.7516607e-04
  8.1424361e-05
 -5.1821680e-06
 -7.5610206e-02
  1.6723506e-04
 -7.1731680e-05
  8.3981475e-05
  2.7472683e-07
  1.7118713e-05
  4.4020577e-05
  5.1885436e-05
  5.0329036e-05
  1.0984075e-05
  2.4206263e-04
  7.8531499e-05
 -7.7606775e-05
  1.0700872e-05
 -1.2699510e-04
  6.6219211e-05
 -1.5545525e-05
  2.7143458e-05
  2.5538029e-05
 -6.6843830e-05
  1.8049144e-05
  7.2083138e-05
  5.1678788e-05
 -9.4439929e-05
 -7.4709336e-05
  9.3890507e-05
  3.3040153e-05
  2.8217506e-05
  1.6729316e-05
  4.8662576e-05
 -1.0393671e-04
 -1.0571266e-04
 -6.5409971e-05
  1.0740475e-04
 -1.0699967e-04
  3.0808944e-05
 -8.3498795e-05
 -1.1265842e-04
  1.4627673e-05
  9.7370612e-05
  2.7600505e-05
  1.0530970e-05
 -1.2220707e-04
  5.0641520e-05
  2.3855253e-05
 -3.9305731e-05
  8.6839078e-05
  2.7356462e-05
  8.7541099e-05
 -4.7234331e-05
 -6.2852901e-05
 -2.6059655e-05
 -2.4567958e-05
 -5.9156391e-05
 -2.0459021e-04
  1.3328539e-04
 -5.9560152e-05
  3.7247312e-06
  1.6252459e-05
 -2.2667926e-04
 -1.2760541e-04
  1.8288633e-04
  6.5070562e-05
  1.4789915e-05
  3.0777112e-05
  2.9018114e-05
  1.7173090e-06
 -4.7353208e-01
  2.4239817e-03
  1.3755018e+00
 -2.6772600e-03
 -5.2892555e-02
  4.5109645e-04
 -1.2866265e-04
 -5.4117590e-01
 -5.4203352e-04
  6.0897464e-01
  8.1200497e-03
 -7.6362667e-05
 -1.3762164e-04
 -1.7763864e-01
  1.3142903e-04
  4.0875060e-05
  2.3726110e-01
 -1.9449479e-04
  4.4258044e-04
  1.1334645e-02
  4.9306564e-05
  1.1196871e-02
  1.6540714e-03
  1.0577349e-01
  3.2681975e-05
 -8.3836800e-01
  1.6418813e-02
  1.1074859e-04
  4.0623146e-01
 -4.5849509e-05
  7.7525772e-07
 -6.5141612e-06
  2.6222970e-04
  1.9900617e-03
  3.1296443e-04
  1.2147812e-04
  9.9407567e-05
 -1.2617569e-01
 -5.2942043e-05
  7.2582871e-02
  7.0096992e-02
 -7.2566926e-01
  1.1794216e-04
  7.7028737e-05
 -3.8084359e-04
  3.9311941e-04
  8.5789587e-05
  6.6935965e-05
  6.6844696e-05
 -1.5556072e-05
 -2.5129828e-01
 -1.1298699e-02
 -1.4429404e-01
 -8.4910184e-01
 -7.0782749e-05
  4.3594203e-04
  7.9283163e-05
  5.1687744e-05
  4.3244565e-01
 -6.1272789e-05
 -4.7854159e-05
  4.7964575e-03
  2.0132893e-05
  1.2647446e-03
  5.3457363e-05
 -1.1904552e-04
 -1.7048076e-05
  3.5019257e-06
  1.1656639e-04
 -4.8854756e-03
  6.9103477e-04
  1.4402869e-01
 -9.6050178e-05
 -1.7755700e-02
 -1.6692351e-05
  1.6903552e+00
 -4.8098505e-01
 -1.6191712e-01
 -1.5929306e-04
 -8.9210503e-02
 -1.0695460e-04
  9.4400384e-05
  3.3140704e-01
  7.3280387e-02
 -2.1161342e-05
 -2.6671711e-01
  1.7719592e-04
 -4.5861468e-02
  1.6409627e-05
 -5.1837247e-03
  9.6545264e-05
  2.1661246e-01
 -1.3532231e-05
 -1.4201531e-04
  5.7433522e-03
 -1.0822665e-04
  2.4710625e-05
  2.4873823e-05
 -9.0339818e-05
 -7.5985859e-03
  3.8191058e-05
  3.8371712e-05
  1.6499020e-05
 -1.3680334e-04
 -3.8571266e-05
 -2.1301772e-04
  1.0433270e-05
  3.2226362e-05
 -7.1780974e-05
 -1.2024618e-05
  5.1615152e-05
  4.2256324e-06
  3.1357562e-05
  1.2409128e-04
 -2.2116146e-07
  2.1921283e-04
 -2.5618327e-05
 -8.8949506e-05
  1.4286597e-04
 -7.6736418e-05
 -1.2042523e-04
  7.3073825e-05
  9.6699086e-06
 -1.6261090e-06
 -5.4994511e-05
 -8.2099265e-05
 -6.1617307e-06
  2.6382445e-04
  3.0080188e-04
  1.9765702e-04
 -1.9150728e-05
 -8.6099935e-06
  1.8869481e-05
 -1.9950078e-04
 -1.5088075e-06
  2.1050051e-05
 -1.1550075e-04
  2.3741576e-04
 -7.3607080e-05
  1.3362916e-05
 -2.3570212e-05
 -3.3434317e-04
  1.0973931e-04
  1.1300325e-04
 -3.4457096e-07
 -8.9187743e-05
  1.1040703e-05
 -8.9264995e-06
  2.5346494e-06
 -1.0735879e-05
  3.6429534e+00
  2.4279048e-01
 -2.6174726e+00
 -1.9671872e+00
  3.4460582e-02
  1.7620368e+00
  3.0472407e+00
  4.6896830e+00
  7.4075413e-01
  1.2520853e+00
  5.0824095e-02
 -1.1608554e-01
  1.0051306e+00
 -5.1115346e-01
 -9.7168081e-02
  1.3970540e+00
  9.7267367e-02
 -4.6307808e-01
  8.0051243e-01
 -7.8596103e-01
  1.4311482e+00
 -7.4969256e-01
  6.8604445e-01
  2.6305883e+00
  3.9975932e-01
  3.3051896e-01
  1.2840304e+00
 -5.1072699e-01
 -1.1919917e-02
 -8.3812881e-01
 -6.1717149e-02
  3.7038295e+00
  5.8838266e-01
  1.0725068e+00
  2.9384878e-01
 -3.0753419e-01
 -5.8282785e-02
 -4.5415106e-01
 -2.4468115e-02
  1.5889909e+00
  1.0729401e-01
  1.0537710e+00
 -2.7765369e-04
  2.5300407e-01
 -2.9246011e-01
  5.7939917e-02
 -5.9264617e-05
  5.6277926e-04
 -5.1041138e-01
  1.7566557e-01
  6.7236329e-06
  2.8634595e-04
 -9.2691325e-06
 -6.4766988e-05
 -7.9440557e-05
  4.6912315e-05
  3.5295841e-05
  9.1050824e-05
 -8.9518398e-05
  2.8626685e-04
  1.3679078e-05
 -1.4089282e-05
 -2.8565324e-05
  1.0256327e-04
 -2.8916398e-05
  1.4443653e-05
  2.9826936e-06
  1.1774258e-05
 -2.9323864e-04
  1.2756437e-06
 -2.0701470e-04
  2.6422596e-05
  9.8611017e-06
 -5.0408830e-06
  1.9137689e-04
  3.3858225e-05
 -3.9889390e-05
 -4.0799216e-05
  8.7572545e-05
 -4.7077022e-02
 -3.1771444e-05
  3.2886794e-05
  5.6511763e-05
 -2.0598169e-05
 -1.4586906e-05
 -1.0280771e-04
 -3.4602752e-05
 -8.1754974e-05
 -5.0654359e-07
  1.0034298e-04
 -7.7979821e-05
 -4.8865433e-05
 -2.2745826e-05
  2.3920247e-05
  1.0228092e-04
 -6.1382307e-05
  1.1583340e-04
  8.6389691e-06
 -8.3188361e-06
  1.6098375e-05
  5.0888269e-05
 -5.8113077e-05
 -1.8651732e-05
 -9.3846291e-05
  1.6671127e-04
  3.8675214e-05
  3.0227950e-05
  3.8415641e-05
  3.1076887e-04
 -7.9153515e-06
  1.2444199e-05
 -5.6916062e-05
  1.8181738e-05
  5.3393437e-06
 -1.5044303e-04
  3.2900341e-05
  7.2056457e-05
  1.8887875e-05
  1.8953648e-05
 -2.0819245e-06
 -5.7036628e-05
 -1.2206532e-04
  5.8412999e-05
 -1.7549142e-05
  1.0903346e-04
 -3.6138413e-04
  5.5319626e-05
 -1.1069133e-05
 -2.6001699e-05
 -6.3923770e-05
 -7.3509131e-05
  1.3484878e-07
 -5.4775850e-05
 -1.2560189e-05
 -4.2685529e-05
  3.8371916e-05
  5.1126997e-05
  5.0236442e-05
 -8.9276473e-05
  1.0068803e-04
  2.8014101e-05
 -6.7852219e-05
 -1.2023869e-04
 -2.6173979e-05
 -1.7366376e-05
  2.4403338e-05
 -1.1989257e-04
  2.1117141e-05
  2.7131369e-05
 -6.9718351e-07
  5.3276781e-02
 -7.0679963e-01
 -1.0557529e+00
  1.1152484e-02
  2.7199215e-01
 -7.6612120e-04
  1.1371669e-01
  1.0769122e+00
 -1.3766325e+00
  2.5577110e-01
 -4.3545866e-01
 -2.9754496e-01
  6.3901779e-04
 -1.0202286e+00
  1.1328213e-05
  3.1187083e-05
  3.9477214e-02
 -8.5264809e-02
 -6.4499831e-01
 -6.5264553e-01
 -4.1572142e-02
  4.7961289e-01
 -1.0891606e-01
 -4.2873782e-01
 -1.7052750e-01
  1.7418641e-01
 -6.8209863e-01
 -6.7848593e-01
 -3.6601639e-01
 -3.4860015e-01
 -4.1863209e-06
 -1.9128546e-01
 -1.5294519e-01
 -1.0268387e+00
 -4.1662174e-01
  1.1271557e-02
  3.4446276e-03
 -9.3280166e-01
 -7.3937758e-06
 -7.7046782e-02
  2.8742254e-05
  4.5745063e-01
  9.3448165e-05
 -2.1506990e-01
  1.6597147e-01
 -3.8116404e-01
  3.8978722e-04
 -4.5447814e-04
 -3.0473557e-05
  7.6162524e-04
 -4.2653934e-05
  6.1548708e-05
  2.9163992e-05
  2.8718810e-05
 -9.3698924e-05
 -4.4099015e-05
 -5.6442700e-06
  2.0666990e-05
  4.9043319e-05
  3.5879543e-04
 -7.0991882e-05
  3.3653829e-05
  3.9576221e-06
 -2.0240878e-01
 -1.6202534e-05
 -1.1674866e-05
  3.0762874e-04
 -2.0757443e-01
  4.2258358e-05
  3.7711881e-05
  1.3238726e-04
  9.8008459e-05
 -3.6623344e-06
  8.8195273e-05
 -1.1454359e-04
  8.0400001e-05
  4.0187826e-04
  1.1849969e-04
 -3.9873681e-05
  2.0343364e-04
 -3.2240449e-04
  1.3056076e-04
  7.6204319e-06
  1.1829420e-04
  2.6034377e-06
  5.8703969e-05
 -3.7030954e-05
  1.3038437e-04
  6.8863294e-08
  4.3127489e-05
  3.7627757e-05
 -9.3110777e-02
 -4.6661793e-05
  6.1453007e-05
 -3.3685184e-05
  6.6809043e-05
 -3.3088343e-04
  3.4216435e-05
 -4.5697370e-06
 -1.3409519e-04
  7.1089082e-05
 -2.2185668e-04
  8.0271413e-05
 -2.7913416e-05
 -1.0326738e-05
 -5.3980191e-05
  2.1059859e-05
  4.2000062e-05
  1.3491396e-04
 -1.4485259e-05
  1.3734023e-05
 -1.1511369e-05
  4.8781731e-05
 -1.5673337e-04
  1.2659475e-05
 -5.0336370e-05
 -2.3210922e-04
 -4.1255944e-06
 -1.1065989e-04
 -2.0477872e-05
  1.6410524e-04
 -2.0436020e-04
  1.0816833e-05
  5.4890497e-05
 -4.8896360e-05
  1.5479191e-04
  1.6360015e-04
 -1.9762965e-06
  9.1717025e-05
 -4.3430078e-05
 -6.4744505e-05
 -1.0072456e-04
  5.8293943e-05
  8.4517000e-05
  7.6829565e-08
  1.0691558e-06
  4.4613607e-05
 -3.0343797e-05
  1.5969531e-04
 -9.0169575e-05
 -2.8802653e-05
  1.0059401e-04
 -5.8008260e-05
  6.5320943e-05
  8.7448316e-05
 -2.1063321e-05
 -1.3389884e-04
 -3.6914018e-05
  2.8653692e-06
 -1.1275086e-05
  9.9516100e-01
  1.5728207e-02
  3.9362337e-02
 -4.9250698e-01
  1.7691831e-01
  4.2142678e-02
  1.3999803e+00
 -6.5859908e-01
 -2.0231046e-01
 -2.1838965e+00
  1.9205454e-05
  4.6858719e-01
  4.0414856e-05
  8.4555995e-01
 -3.7238304e-05
  8.0971830e-02
  7.3536411e-02
  1.6912159e+00
 -7.8000652e-05
  3.3888716e-01
  1.7979226e-01
  8.0296612e-01
  5.8132532e-06
  3.0737577e-04
 -5.2765477e-04
 -4.9974099e-01
  2.6217836e-04
 -4.4129668e-03
  5.4724199e-01
 -3.5522717e-01
  3.9294093e-05
 -2.5243258e-05
 -8.3537564e-02
 -1.6649127e-01
 -9.4671723e-06
 -6.2798521e-05
  8.7239131e-02
 -1.9139701e-01
  3.5906442e-06
  6.0882345e-02
  1.1017141e-01
 -4.0155393e-03
 -1.0584030e-05
  1.6150881e-04
 -1.0948599e-03
 -9.2244563e-06
  3.3105251e-05
 -3.1486052e-05
 -2.7818211e-05
  1.8374623e-01
 -4.6182238e-05
 -1.4078612e-06
 -4.3809861e-05
  3.7257958e-04
  8.0583159e-05
 -1.6925829e-04
  1.4302346e-04
 -8.4213498e-06
  1.1312482e-05
 -9.6352414e-06
 -1.0032509e-04
  1.9825882e-05
  8.2395360e-05
 -2.8761973e-05
 -6.0259528e-05
  2.7122391e-05
 -1.5066602e-04
 -1.5191270e-05
  1.0188181e-03
 -3.8885000e-06
  1.2804380e-04
 -3.6796442e-05
  2.5542360e-04
 -1.4952938e-04
  1.6287529e-04
  1.3982291e-05
 -8.2763130e-05
 -7.1669005e-05
 -6.6720080e-05
  8.7946264e-06
 -2.3447062e-04
  5.6247733e-05
 -5.4539938e-05
  6.4760257e-05
  2.6526175e-05
  2.6330081e-04
  4.0335817e-05
  3.0223111e-05
  5.6435765e-05
 -2.0765690e-05
  3.0714502e-05
  4.4701283e-05
 -1.6184498e-04
 -1.1137905e-04
 -1.6201011e-05
  4.4813652e-05
 -5.5852938e-06
  3.3833796e-05
 -1.5920867e-05
 -9.0430021e-06
 -8.8138998e-02
  1.4338274e-04
  3.1893443e-02
  1.4988058e-04
 -7.2204755e-05
 -4.6517293e-05
  1.3310600e-05
 -7.8158067e-05
  2.6702424e-05
 -1.0026071e-04
 -1.5464454e-04
 -2.3677023e-04
 -9.5796568e-05
 -5.1133503e-04
  1.6509565e-04
  5.6931481e-06
  9.0193981e-04
  2.9214338e-05
  4.5788678e-05
  2.1237198e-05
 -6.4328444e-05
  1.6140892e-05
  4.6845730e-06
  4.5945726e-05
 -4.8409385e-04
 -1.3605229e-05
  2.1258631e-05
 -6.3724488e-06
  1.6087371e-04
  1.4138424e-05
 -1.1990770e-04
 -5.2716577e-04
  1.3878482e-04
  4.2474926e-03
  2.4528033e-04
 -3.6627087e-05
  1.2158473e-04
 -6.1408449e-02
 -1.1465490e-04
 -2.5674712e-05
  2.6926337e-04
  4.1018888e-05
  1.4360411e-04
 -1.8144314e-05
  6.6746179e-05
  1.2429786e-04
  6.0172097e-05
  2.2739468e-05
  3.4952423e-05
 -6.9488910e-05
  1.0177156e+00
 -6.4781511e-01
  8.0456836e-03
 -9.0586859e-01
  3.4041980e-01
 -1.4009666e-04
  1.1105233e+00
  9.0117043e-01
 -1.5938523e-01
 -4.4093293e-01
 -1.9574848e-01
  1.2874790e-01
  2.1431096e-01
  5.0569725e-01
 -9.2952885e-02
  1.2602198e-02
 -2.1159425e-01
 -8.1170285e-01
 -2.8064445e-01
 -3.6237756e-04
 -7.9525597e-02
 -8.3510238e-01
 -1.2702321e-01
 -2.0146787e-01
  8.9084911e-05
 -1.6247431e+00
 -1.8400843e-01
 -2.5366649e-05
 -1.4873519e+00
 -3.0232108e-01
 -5.5146887e-05
 -3.9208108e-01
 -2.1321201e-01
  1.3850405e+00
 -3.0309390e-03
 -9.4606839e-02
 -3.9421764e-01
 -2.4111457e-01
  1.2852642e-04
 -4.5280585e-01
 -8.4191494e-02
  2.1462591e+00
  8.0496764e-05
 -5.2412978e-04
  1.8664351e-04
 -9.2391223e-02
 -1.5732652e-05
 -1.5952162e-04
 -2.3034046e-04
  7.2004759e-01
 -6.1287433e-01
 -2.1431268e-05
  7.4231550e-02
  4.1604860e-04
 -1.0170037e-04
  1.4715367e-04
 -1.3272067e-04
  1.1974272e-05
 -5.4104214e-05
  4.9548349e-03
  5.8622638e-05
  4.4257640e-06
  2.8882312e-06
 -1.8995767e-02
  1.0124560e-04
  2.1792704e-04
  3.4772120e-03
  1.1284161e-01
  1.3982333e-04
  1.2851587e-02
  4.8140329e-05
 -1.5732368e-04
  4.7341778e-04
  5.0511298e-04
 -1.1128666e-03
 -1.5528563e-05
  5.1137940e-05
  2.3963528e-05
  1.0327958e-04
 -1.1477940e-05
  5.0592269e-05
 -1.0399744e-04
  3.9625436e-05
 -5.2958168e-02
 -5.7175552e-05
 -1.1640674e-04
  3.7240410e-05
 -8.9361572e-01
  8.5507760e-05
  3.9831208e-04
  1.8141503e-04
  1.1764772e+00
 -3.8355363e-05
  7.4239104e-04
  1.2043227e-05
  4.0518498e-04
 -2.2270478e-06
 -2.0214530e-04
 -7.5453776e-05
  2.1858706e-07
  9.8158904e-05
 -6.3713356e-05
 -5.2213582e-05
 -7.3708914e-05
  2.2384844e-05
 -7.3780233e-05
  2.0040165e-05
  7.3649440e-05
 -9.6633696e-05
  1.6602346e-04
 -4.8228201e-05
  1.3303735e-04
 -1.0540715e-06
 -1.3054282e-05
  5.2933974e-05
 -6.7749479e-06
  7.6749902e-06
 -1.0689133e-05
 -5.5454526e-05
  1.8086241e-05
  3.1506610e-05
  7.5276303e-06
 -5.4322686e-06
  4.6613437e-05
 -4.7755831e-05
 -4.6865229e-04
  7.1369024e-05
  5.1293796e-06
  5.6433488e-05
 -2.1203296e-05
  6.5235217e-05
 -4.6063367e-05
  3.5514593e-06
 -4.6413643e-05
  2.8640668e-05
  1.2146673e-05
  5.3649624e-06
  2.8168968e-06
  1.5536915e-04
 -2.7344819e-05
 -6.5236367e-05
  9.8443539e-05
  3.2885189e-06
 -1.5569082e-04
  2.2236080e-05
  3.5161996e-04
  1.7299183e-04
  1.5679724e-04
  1.1475277e-05
  5.3783760e-06
 -1.1271753e-04
 -1.4963965e-05
 -4.9904713e-05
  1.6306249e-05
 -1.4241829e-05
 -4.0806679e-04
  1.1131200e-04
  1.1924014e-04
 -1.5036145e-04
 -6.2435640e-05
 -1.0016833e-04
 -8.2903409e-07
 -5.1095663e-05
 -3.7803482e-05
 -1.2196083e-04
  8.2056449e-06
 -1.4011461e-05
  8.2857208e-05
  3.7861737e-06
  1.2526216e-04
 -3.9181690e-05
  1.0932620e-04
  5.4176260e-05
  1.3533532e-05
  1.8577381e-04
  6.3720945e-05
 -5.8773050e-05
 -1.2972520e-04
  8.6484215e-05
 -6.8184811e-05
  4.7451424e-05
  8.0233141e-05
 -8.4538049e-05
  1.6604345e-04
 -3.5115056e-05
  9.8970240e-06
  5.2658631e-04
  3.7272091e-04
 -7.2434348e-05
  7.8396195e-05
 -8.9889611e-05
  3.4842895e-05
 -1.4653348e-05
  5.1677944e-05
 -4.0376082e-05
  6.3950115e-06
  3.3140972e-05
  3.7686885e-05
  2.9665823e-04
  6.2092600e-05
 -4.2647414e-05
 -7.1607942e-06
 -5.4411918e-05
 -6.2959334e-06
  1.4034916e-04
  3.5798588e-05
  6.1645878e-05
 -6.8282970e-05
 -6.9634048e-06
  4.3940050e-05
  4.0765426e-05
 -3.1466938e-05
 -9.4994037e-05
 -1.2503989e-04
  3.4642930e-04
 -1.3903581e-04
  3.4360615e-05
 -6.0316248e-05
  7.9854668e-05
 -7.9906262e-05
 -3.0543635e-02
  1.2253645e-04
 -1.7550802e-04
 -4.0183262e-05
 -2.6418067e-05
  7.1658666e-05
 -4.9344126e-05
 -7.6715427e-05
  5.9617270e-07
  4.3246700e-04
  6.7357134e-05
 -3.2142173e-06
  1.8979039e-05
  2.7931171e-06
  1.9371866e-04
 -1.4453220e-04
 -7.6421944e-05
 -1.4710406e-05
  6.4461667e-05
  4.3551416e-05
  7.6157994e-05
 -1.2229224e-04
  5.2887925e-05
 -2.0147356e-05
  5.0758017e-06
 -1.9362038e-05
  5.3942014e-05
 -5.7419504e-05
 -1.1301252e-04
  1.2996770e-05
  1.2606638e-04
  7.9854071e-05
  3.3915945e-05
  1.6497726e-05
 -1.3771573e-04
  1.5872506e-04
  7.7972618e-05
  1.6320382e-05
  6.6297929e-05
  2.8001241e-05
  7.3755633e-05
 -1.8108451e-04
  1.3152382e-05
  6.3607340e-06
  3.9244107e-05
 -3.4756456e-05
 -1.0126617e-04
 -1.5658326e-04
 -7.6078955e-05
  7.0939423e-05
 -3.2604845e-07
  1.5938704e-05
 -2.4872706e-05
  5.2298365e-05
 -7.5515760e-05
  3.2739717e-05
 -8.7888264e-05
  7.7046338e-05
  1.4968797e-04
  1.1184416e-05
  1.4308576e-05
  2.5482697e-05
  5.0910454e-05
 -1.2876697e-04
 -2.4351859e-05
  4.7001282e-05
  3.2879412e-05
 -1.3387614e-04
  9.1043620e-07
  2.2706685e-05
 -2.0899823e-05
  1.7069360e-04
 -1.4940280e-04
 -7.9289028e-05
  2.4039609e-05
  5.2957816e-06
 -1.6528774e-04
 -7.6435819e-05
 -3.7570342e-05
  7.9365072e-06
 -1.1023509e-04
 -1.0316415e-06
  3.7782132e-03
 -1.8327367e-04
  9.0016823e-05
 -6.1147046e-05
 -1.0347444e-05
 -4.5467418e-04
  4.9669135e-05
  2.6660293e-02
 -1.4086782e-05
  2.7954920e-05
 -6.1359511e-05
 -5.0681419e-06
  1.6349554e-04
 -1.8027557e-05
  2.9353681e-05
 -2.2333361e-04
  1.9928996e-04
  2.4544925e-04
  1.7686556e-04
  4.5003064e-05
 -1.6174159e-05
  5.4423640e-06
 -2.4676102e-04
 -2.0284922e-05
 -1.0049411e-04
  1.2895563e-05
  2.4943931e-05
  1.5756088e-05
 -6.3869149e-05
 -4.3578424e-05
 -9.4231131e-05
 -4.4150111e-05
  4.4058030e-04
  1.2338222e-05
 -3.2329637e-05
 -9.6142794e-05
  2.3473520e-04
  2.1409642e-04
 -8.5617925e-05
  3.6497066e-05
 -3.1286067e-06
  6.0801642e-05
 -2.1660837e-05
  3.2887343e-05
  8.8892601e-05
 -6.5309658e-05
  2.6717797e-05
  5.3193935e-06
 -1.8676014e-04
  4.5263783e-05
 -7.3115625e-05
  1.4326615e-06
  8.8042834e-05
  2.3570891e-04
 -6.0803912e-05
  8.2088245e-06
  4.6233381e-06
  2.6337832e-04
  8.4441388e-05
 -1.0597079e-05
  3.2341086e-05
 -2.1431342e-05
  3.7642127e-05
  1.0172692e-04
 -1.2662032e-04
 -1.0088775e-04
  8.2209299e-06
 -6.1593128e-05
 -1.5821650e-05
  2.0821439e-05
  1.0472767e-04
  3.0177732e-06
 -6.3511761e-05
 -5.0103565e-05
  8.0071433e-05
 -1.0424488e-04
 -2.1253958e-05
 -1.1422040e-04
  4.5014822e-05
  7.6711265e-05
 -3.1278381e-04
 -5.2007377e-05
 -3.0335419e-05
 -7.8374302e-05
 -5.3510856e-05
 -2.4684550e-05
  3.8628037e-05
 -4.3087221e-05
 -1.8497409e-05
 -5.3723430e-05
 -1.7000503e-06
 -8.4111940e-05
 -2.2767372e-06
  4.4980848e-06
  1.2177818e-04
  7.6223434e-05
  1.3256593e-04
  8.0963015e-05
  3.3506345e-05
  2.5405679e-05
  2.9337165e-05
 -4.2587555e-05
  1.6402494e-04
 -1.0730038e-05
  9.9468467e-05
 -2.3397473e-04
  5.7160880e-05
  3.3285154e-04
  8.0294658e-06
  3.2675100e-05
 -4.7349928e-05
  7.8129138e-05
 -7.7893237e-05
 -8.7660635e-05
 -3.7860027e-05
  6.5185370e-05
  2.6796144e-05
  3.2776658e-04
 -2.6546228e-05
  1.6005173e-05
  2.7277625e-05
 -1.4077587e-05
 -3.5101799e-05
 -1.6054729e-04
  1.2629188e-04
  9.1158588e-05
  7.0958078e-05
 -5.8939284e-05
 -1.3376300e-06
  5.7130852e-05
 -2.0371641e-04
  4.6056663e-05
  1.3834854e-04
 -2.0069879e-04
  1.9396403e-07
 -6.9218317e-05
 -8.1473205e-05
 -3.9175233e-05
 -1.5223412e-05
  4.2329630e-06
  1.9645415e-05
 -1.7981576e-04
  5.2805815e-05
  2.0510099e-05
 -1.6484833e-05
  3.4760167e-05
 -6.7355693e-05
  1.6375346e-04
 -2.8715889e-05
 -1.4117325e-04
  1.7295319e-05
  1.0001350e-04
 -9.2320195e-05
 -9.8601544e-05
  1.6135938e-05
 -1.1322396e-04
  5.0411100e-04
 -2.1006141e-05
 -5.7210364e-05
  5.9487997e-05
 -4.8381524e-05
  1.4034519e-04
 -1.6532877e-05
  2.0103958e-05
 -2.0878612e-04
 -3.4547160e-05
 -1.5044939e-06
 -3.1841230e-06
 -2.1375512e-05
  6.2249812e-05
 -2.8304972e-05
 -3.7735612e-05
 -7.8070734e-06
 -1.7300994e-05
  1.2852845e-06
 -8.1308581e-06
 -3.7025871e-05
  1.2627409e-05
  2.6796562e-05
  1.5877560e-04
 -6.4754036e-05
 -4.7640224e-06
  7.6440119e-05
  1.6538978e-04
 -4.7354356e-06
  6.6068686e-05
  1.9251505e-05
  2.5855281e-04
  1.0117338e-04
  5.0136226e-05
 -2.9311394e-05
  7.4314346e-05
  1.7774895e-05
  4.5057874e-05
  2.0162830e-05
 -1.4128562e-04
  3.8888840e-05
 -4.9825903e-06
  2.0934320e-05
  1.2234859e-05
 -5.9842576e-05
 -5.1101877e-05
 -1.1117363e-04
 -1.6270211e-04
 -7.7825571e-05
  2.5343461e-04
  4.9384929e-05
  8.2949555e-05
  5.1201361e-05
  3.3253137e-04
 -1.6144218e-04
  1.9221010e-05
 -1.6973744e-04
  3.5996447e-05
  5.7231602e-05
 -2.6638954e-06
 -2.4812489e-05
 -5.8353016e-05
 -6.2115796e-05
 -1.4563309e-04
  5.3238302e-05
 -1.3911293e-05
  9.5953847e-06
 -2.9668830e-05
  3.0897907e-05
 -1.7611655e-04
  3.9859220e-05
 -2.7390310e-04
  2.6787131e-06
  5.9417183e-05
 -2.0590554e-04
 -5.2251988e-05
 -1.4689731e-04
  3.7429757e-06
  6.8625217e-05
  2.7789858e-05
  1.4132346e-04
 -7.6152450e-05
 -5.7405146e-06
 -1.0591198e-04
  9.1545640e-05
 -3.2516371e-06
  5.7443899e-06
 -9.5475025e-06
 -1.1205927e-04
 -1.3313424e-04
 -1.1551075e-04
 -4.5040484e-05
 -7.8259641e-01
 -1.2004023e-02
 -6.9733822e-01
 -1.3948513e+00
 -1.7799350e+00
  5.0558214e-05
  1.4811537e+00
  4.2607639e-02
 -4.7067580e-01
 -6.1512936e-02
 -3.0014262e-01
  5.2483642e-01
  5.1270701e-05
 -1.0788751e+00
  1.5253725e-04
  1.1257598e-04
  8.6428046e-01
  1.3095104e+00
 -1.5257046e-01
 -9.3198895e-02
 -1.1334772e-01
 -1.9752041e-03
 -5.5662467e-04
 -1.0934119e-01
  1.1787196e+00
 -6.4007821e-05
 -5.4830895e-04
  2.4661935e-05
  1.3536315e-01
 -9.5815994e-02
  2.5158095e-01
  3.3288007e-04
  2.5052376e-02
  1.5822600e-01
 -6.9341577e-06
  7.7249206e-05
  2.0496257e-01
  2.2886178e-02
  7.0725098e-02
  2.9303221e-05
 -4.0866027e-04
 -9.5641082e-03
  1.1884401e-05
 -8.2162506e-04
  1.7065607e-04
 -1.2364091e-01
 -1.9419878e-05
  6.7494890e-05
 -2.2158280e-02
  2.5040591e-01
 -1.2711659e-05
 -3.3669348e-04
  1.2014912e-04
  5.5073506e-05
 -6.0189304e-05
 -1.4896928e-04
  8.1769766e-05
  1.7890985e-04
 -8.8874003e-06
  1.3541948e-04
  6.6071945e-05
 -5.9867449e-05
 -5.3108335e-05
  6.1612758e-05
  1.5167003e-06
  2.4092542e-05
 -1.1381355e-04
  2.5520462e-04
 -4.1603312e-06
 -1.1798680e-04
  8.6444787e-05
 -1.6834396e-04
  4.4487203e-07
 -2.7881564e-05
  7.2879324e-05
 -1.5415437e-05
  6.3756653e-07
  5.4589382e-05
 -1.4665729e-06
 -1.2210288e-04
 -2.4025039e-05
 -7.3381314e-05
 -1.0580115e-04
 -2.2513997e-05
 -1.1194241e-04
 -1.0682266e-04
 -4.5724923e-06
 -1.0502974e-04
 -2.1610636e-05
 -3.5698202e-05
 -1.6431598e-04
 -3.6194975e-05
  9.5463118e-05
 -9.1936701e-05
  6.3376347e-06
 -1.3730511e-05
  1.8173947e-04
  1.3558318e-04
 -3.1153462e-04
 -3.9683964e-05
 -2.2941220e-05
  2.5207617e-05
  6.8084068e-05
 -2.7963845e-04
 -1.3802514e-05
  1.5291934e-04
  2.1174390e-04
  3.1034306e-05
 -1.8011286e-05
 -4.3044118e-05
  6.7590780e-05
  1.9310371e-04
 -2.1451640e-04
  7.6452314e-05
  1.6842512e-05
  1.7078251e-04
  4.6799221e-05
  1.3043567e-05
 -1.9451769e-05
 -7.3123788e-06
 -1.9904754e-04
  4.5639481e-05
 -7.8126097e-05
  6.0493658e-05
  1.3158056e-05
 -4.9101645e-06
 -6.6839653e-05
 -1.8282411e-05
  1.2655901e-04
 -3.3309227e-06
  3.1226929e-05
  4.4946708e-05
  5.6919838e-05
 -5.8204550e-05
  7.3771138e-05
 -1.0266453e-05
  7.2046696e-06
  2.8944458e-04
 -7.3297655e-05
  8.3765866e-05
 -1.5454219e-05
 -1.3367328e-04
 -3.4447901e-05
  1.2705273e-04
  1.3779721e-05
 -2.0779102e-05
  3.1524557e-06
  1.6397509e-05
  5.5337347e-05
 -3.9529972e-05
  1.3377286e-04
  1.6918070e-04
 -8.2621904e-05
 -6.7166729e-05
 -6.0047696e-06
 -7.1277311e-05
 -3.1586806e-05
 -2.1880980e-05
  3.0997708e-06
 -1.3648761e-04
 -4.6832032e-05
  6.6625171e-07
 -1.1244207e-04
  1.0280627e-04
  3.0307130e-05
  3.2759574e-04
 -1.1427410e-04
 -9.3796116e-06
  1.2256744e-05
 -7.2245450e-05
 -4.1948155e-05
 -7.5932912e-05
  3.7076890e-05
 -9.5112497e-05
  2.1219546e-04
 -1.1219127e-04
  3.6173509e-04
 -1.0667783e-05
 -1.7801814e-05
  1.9658453e-05
  8.7836168e-05
  6.7843750e-05
  2.6455544e-05
  2.0354015e-05
 -1.3459225e-04
  5.8843405e-05
 -6.7645917e-05
  3.9945309e-05
 -1.2176776e-04
 -1.6813799e-04
  3.6977610e-05
  2.0228908e-06
  9.0955209e-06
  2.3798286e-05
 -8.8652538e-05
 -8.3506799e-05
  1.3452287e-05
 -1.1808032e-04
 -1.3289411e-04
 -6.1021369e-06
  2.6067675e-04
 -1.1572637e-06
 -2.1988183e-04
  1.2565071e-04
  3.6364232e-05
 -1.2914678e-04
  1.7006663e-05
  9.1824285e-07
  4.1948129e-05
  5.2429173e-06
 -3.2071279e-05
 -1.3826253e-04
 -1.4275199e-04
  4.3703485e-06
  6.3162239e-05
 -6.1456405e-05
 -1.2184708e-05
  1.3957755e-05
 -5.9728540e-05
 -4.9629904e-05
 -1.6574777e-05
  8.2947197e-05
  3.3833105e-05
  9.2784896e-05
 -9.5236857e-05
  1.5121645e-04
  3.1177651e-06
  1.9529218e-05
 -2.8162118e-05
  2.7395197e-05
  1.2527377e-04
 -8.2374609e-05
 -4.7893016e-05
 -6.0293078e-06
 -3.2807660e-05
  2.3073961e-05
  1.4917603e-05
  5.4122655e-05
 -1.4113939e-05
  2.9882105e-05
  9.8726723e-06
 -1.5532762e-05
  7.1602321e-05
 -2.8605986e-05
 -3.0807161e-05
 -1.7115904e-05
  7.1397908e-06
  2.0880720e-05
  1.1369712e-05
  7.2984681e-06
 -1.1310658e-05
  2.7231179e-05
  8.8917011e-05
  5.4777749e-05
 -1.8869949e-05
  1.1846096e-04
  2.3543966e-04
  8.3281639e-06
 -2.2714396e-05
 -1.1717954e-04
 -1.6369575e-05
 -1.8091696e-04
 -1.3181439e-04
  1.0221416e-05
 -2.1900567e-04
 -8.5379397e-05
 -2.2447821e-05
 -1.6501587e-04
  2.0803654e-04
  1.7779663e-05
  3.0252930e-05
  2.9005118e-05
  7.1832595e-08
  2.2646092e-05
  1.3892165e-04
 -2.1009448e-04
  1.2416346e-04
  8.0143454e-06
  6.9387861e-05
 -3.7004414e-05
 -3.7635396e-05
 -6.3809646e-05
 -1.0404495e-04
  2.9444525e-05
 -3.8904514e-06
  5.9591261e-05
  8.0277583e-05
 -9.5370138e-05
 -4.1321106e-05
 -5.0350081e-05
  5.4499535e-05
 -6.6052460e-05
  4.9905491e-05
  1.3883728e-04
  6.2582408e-06
 -2.3488271e-04
 -1.5723981e-05
 -3.6335186e-04
  9.3086048e-05
  3.1510674e-05
 -1.0760893e-01
 -1.4737458e-05
  7.5344862e-05
 -7.4827051e-07
 -2.3498745e-01
 -7.1147551e-05
 -2.9583724e-05
  2.5834654e-05
 -6.8323883e-05
  6.6496145e-06
  8.1213730e-05
  1.3723085e-05
 -1.8731032e-05
 -7.1792817e-03
  4.1222420e-06
 -7.5290169e-05
  3.1540804e-02
  6.1074497e-05
  2.7453620e-04
  8.0748003e-05
  2.0016143e-04
  1.4195230e-04
  2.0257392e-04
  1.1415285e-04
 -1.4501212e-04
 -9.1002192e-05
  2.9762511e-04
 -5.8430000e-05
 -1.7210019e-05
  2.2687538e-05
 -6.5131448e-05
 -3.1367643e-05
 -8.9215217e-05
  3.2684948e-02
 -1.0694706e-05
  1.9832148e-04
  6.6425513e-05
 -5.3166300e-06
  2.6809061e-05
  2.5860934e-05
  2.3577928e-05
 -2.5816767e-05
 -1.6298481e-04
  1.1702600e-04
  2.3341303e-04
 -2.6878826e-05
 -7.0272558e-06
  6.5125460e-05
 -3.6092508e-05
 -1.4960323e-04
 -1.8029513e-04
  1.1318053e-04
  5.6625584e-05
  1.2280618e-06
  4.5620349e-05
 -2.3666862e-06
 -9.0923504e-06
 -9.0906615e-05
  1.0375254e-04
  6.2798004e-04
 -4.8110258e-05
 -2.3155690e-05
 -8.9355417e-05
 -2.3053672e-05
 -3.6801728e-05
 -6.4764849e-05
 -7.2008397e-06
 -8.2114275e-05
 -8.5357875e-05
  7.7723433e-07
  5.6410463e-05
 -3.8658010e-05
 -1.9021489e-05
 -6.3505278e-05
  3.6816953e-06
 -2.6983791e-06
  8.6148182e-05
 -2.4735798e-05
  1.1137283e-06
  2.0637595e-04
 -7.9389669e-05
 -6.6296227e-05
  2.4600686e-05
 -9.9147197e-05
  4.3649925e-05
 -1.2472807e-05
 -6.7956594e-06
  2.4408741e-05
 -1.6378508e-05
  4.1738698e-05
  3.5513174e-05
  6.6562541e-05
  1.2393523e-04
  1.9326498e-04
  1.7807944e-05
  3.3367294e-05
 -8.6565524e-05
  1.0111414e-04
 -5.3329226e-05
 -1.4068988e-04
 -3.3644006e+00
  4.8664361e-01
  7.9310286e-01
  3.5383270e+00
  1.6855593e+00
  2.2604661e-03
 -1.1248826e+00
 -2.6841938e+00
 -2.5188565e-01
  5.4077893e-01
  2.2941157e-02
  3.9709660e-01
 -5.2170080e-01
 -1.4401513e-01
 -5.9163618e-01
 -9.2216869e-06
 -3.7798706e-01
 -8.7573850e-01
  5.8724552e-01
  6.9356620e-01
  1.1577857e-01
 -5.2310288e-04
  1.0836666e-01
  9.2197122e-04
 -1.1921214e-01
  5.5740237e-01
  4.8180458e-01
  7.8388548e-01
  7.2575665e-01
  3.3734664e-02
 -4.0761873e-01
 -8.4246761e-01
 -1.0399871e-01
 -2.2541192e+00
  3.7968150e-01
  4.6242115e-01
  2.7648700e-04
 -1.5007250e-01
 -3.7418988e-01
 -7.2896826e-01
  2.9563397e-02
  1.1968245e-01
 -5.7557557e-04
  4.8181515e-02
 -1.0521667e-01
 -1.1652726e-02
  1.1719095e-04
  1.4243609e-01
  2.1662068e-01
 -8.0226207e-01
  9.6725540e-05
  7.6309087e-05
 -4.2236693e-06
  6.8219260e-06
  2.0372439e-05
 -4.7926409e-05
 -2.5659885e-05
 -2.9251398e-05
 -1.0655584e-05
 -1.3647649e-05
 -2.8555682e-05
  1.1500959e-04
 -2.0595340e-04
 -9.7853363e-06
  6.3685082e-05
  1.2260527e-04
  2.2948459e-05
 -1.0893819e-05
  2.8684970e-05
  3.8359252e-05
  9.8496479e-05
  2.0533128e-04
  4.2003245e-05
  1.0814805e-04
 -1.0893164e-05
  2.6428586e-05
 -2.5151639e-05
 -5.2529223e-05
 -6.5521475e-05
 -7.3522286e-05
 -1.6546869e-04
  1.2681747e-04
 -2.2291108e-04
  9.3242306e-05
 -8.8012472e-05
  2.3116733e-04
 -8.9647510e-05
  7.1798473e-05
 -1.8036171e-05
 -9.8803721e-05
  5.1967627e-06
 -1.5643422e-04
  5.6783014e-05
  2.4146834e-04
  1.1352314e-04
 -1.1268389e-05
  1.2519165e-04
  1.7387902e-04
 -1.5774116e-04
  7.6790937e-05
  1.1916535e-02
  2.6000012e-04
  3.7189451e-01
  3.5626505e-05
 -5.0505274e-05
 -8.2165978e-05
  1.7268056e-04
 -4.6540878e-05
  7.7130549e-05
  4.1814566e-02
 -1.5953630e-05
  2.9442825e-05
  5.5936318e-05
 -1.9508632e-03
 -8.0552025e-05
 -4.4060551e-05
  1.7132080e-04
  8.6462393e-07
  7.6842793e-05
  4.0682767e-06
  7.4253790e-06
 -6.8584282e-05
 -1.0276762e-04
  1.1189884e-04
 -8.3186053e-05
  5.7947535e-05
  1.9274315e-05
 -6.0939819e-06
  1.4570043e-04
 -6.4570042e-05
  8.5375483e-05
  3.1841057e-05
 -3.4023491e-05
 -1.1925255e-05
  4.3038970e-05
  6.3530431e-05
 -8.1852180e-05
 -8.2853265e-05
  3.3151191e-05
  3.9830332e-04
 -1.5818001e-05
  4.1223411e-06
  2.5160423e-05
 -3.6838934e-05
 -2.8220989e-04
 -2.8781049e-04
  4.2671782e-05
  9.2131944e-05
 -1.3063491e-04
 -4.2967516e-05
 -1.9573324e-04
 -1.2017708e-04
 -3.8783553e-05
 -4.3949811e-05
 -7.1217742e-06
 -1.8388528e-05
  1.6004358e-04
 -3.5125078e-05
  7.0015399e-06
 -1.1844532e-05
  1.3637125e-05
 -1.4075277e-05
 -4.7868511e-05
 -3.5429090e-05
 -1.4202137e-05
  7.3900112e-05
 -1.9515635e-05
  6.6106921e-05
  5.9201302e-05
 -3.4655455e-05
 -5.9482125e-05
  2.0083479e-04
  2.2945434e-05
 -1.1288996e-04
  9.4354626e-05
 -4.5496792e-05
 -3.3839274e-04
 -9.1200061e-05
  1.0286290e-04
 -3.7246438e-05
 -6.1360151e-05
 -1.9605450e-05
  6.4587912e-05
 -8.3296574e-05
 -3.6560294e-05
  4.3738295e-05
  3.1164771e-05
  9.3632661e-05
 -1.1511013e-06
 -4.0166899e-05
  5.9979036e-05
  2.4943882e-05
 -1.4129985e-04
  1.5786293e-04
  1.5368588e-04
 -9.7199263e-05
  2.4313073e-05
 -1.1734028e-04
  2.2601521e-04
 -4.6501489e-05
  6.4292813e-05
 -1.4825525e-04
 -1.1852052e-05
  6.2428306e-05
  2.5992662e-05
  3.1503849e-05
  4.8967609e-05
  2.1380151e-04
 -2.4588397e-04
 -8.7960805e-05
 -1.6928694e-04
  6.7168774e-05
  1.3124182e-04
  6.1151812e-05
  5.1800806e-05
  6.0843275e-05
  7.0176509e-05
  1.0987042e-04
 -6.2318781e-05
 -3.0251890e-06
  6.1882594e-05
 -9.3949093e-05
 -9.0909016e-05
  8.5739470e-07
 -5.5174463e-05
 -9.3332596e-07
  2.9527600e-05
  9.5606025e-05
 -4.2081552e-05
 -3.1329033e-05
  5.8368376e-05
 -9.8676093e-05
  6.2473300e-05
  3.6125999e-05
 -5.1892575e-06
 -5.2289590e-05
 -7.8563307e-06
 -3.7115384e-05
 -6.8773261e-05
 -2.1858486e-04
  2.2901671e-05
  4.3972683e-05
 -4.9073478e-05
  1.7850101e-05
  1.4244491e-05
  2.1673011e-06
 -1.3309665e-04
  1.0029345e-04
 -1.4227507e-05
  4.8892256e-05
 -1.5243511e-02
  1.2265747e-01
  1.5452418e+00
  1.2026656e-03
  1.0437504e-05
  3.0610518e-05
 -1.1835918e+00
 -1.9633715e-01
 -4.5069002e-02
 -5.4404569e-01
  5.0871325e-01
 -2.1550545e-04
  5.7976937e-04
 -1.1241498e+00
  2.3320626e-01
 -7.8874985e-03
  3.3294007e-01
  3.2430008e-01
  1.1316075e-01
 -3.9360163e-01
  7.7696632e-06
 -8.4142715e-02
  3.5109103e-04
  2.0802622e-01
 -1.2672074e-01
 -4.4365224e-01
  6.9855427e-04
 -8.0764562e-02
  1.5641854e-07
 -7.4203020e-01
 -1.0312950e-04
  1.4170283e-01
  1.0932007e-01
 -2.1410021e-01
  7.4016460e-04
 -1.5739632e-05
  1.5343243e-01
 -4.1923109e-01
 -2.6378044e-05
  2.7776152e-04
  4.8289829e-05
  2.2001221e+00
 -8.3015337e-05
  5.3866275e-05
 -1.3034631e-04
  1.6861998e-01
  1.5538333e-04
  1.5135459e-04
 -1.1934367e-05
 -4.8401726e-05
  2.4124417e-04
 -7.8668105e-05
 -6.2970284e-05
 -5.4793942e-05
 -5.9596401e-05
  1.1158367e-04
 -7.3877700e-06
  3.5649446e-05
 -3.0561339e-05
  1.1637867e-04
  1.0645961e-04
 -6.6942281e-05
 -1.3705219e-04
 -7.0381393e-05
 -6.1709325e-05
 -9.2358425e-07
 -1.1113298e-04
  8.6134824e-05
  2.6563180e-04
  3.7646016e-05
 -3.1927986e-05
 -2.4223728e-04
  5.2672098e-05
 -2.6338757e-05
 -3.7285801e-05
 -3.3621743e-04
  9.9913901e-05
  1.1186254e-04
 -3.6172147e-05
 -4.2635278e-05
  1.9054671e-05
 -2.0951920e-05
  1.0052889e-04
  2.9429809e-06
  8.7190783e-05
  4.1835479e-05
  3.5831137e-05
 -2.3311950e-05
  1.0498224e-04
  8.9029498e-05
 -8.0009580e-05
  2.4969167e-05
 -3.1426891e-05
 -5.4029824e-05
  5.2372939e-06
  2.2364684e-05
 -5.1238254e-05
 -2.1716001e-04
 -1.1725926e-04
  1.4348136e-04
 -1.2344504e-05
 -6.4102569e-05
 -3.7249829e-05
  8.1559438e-06
  5.0293889e-05
  1.7443244e-05
 -5.9235567e-06
  1.2454379e-04
 -3.1583848e-05
 -1.7609396e-04
  6.6778402e-06
 -1.6078742e-05
 -9.2924620e-06
 -1.1934977e-04
 -2.9587380e-05
  3.7855072e-05
  9.9681674e-05
  4.8641654e-05
  2.1490724e-04
  1.0029010e-04
  1.5415799e-06
 -5.6587058e-05
  3.7816517e-06
  1.7523926e-05
 -7.5415948e-05
  6.8461020e-05
  5.3412414e-06
  6.4765096e-05
 -2.3854506e-04
 -8.6116770e-06
  9.6028838e-05
  2.7444650e-04
  2.9835495e-05
  8.9214496e-05
 -5.2746625e-05
 -3.2117925e-04
 -2.8492828e-05
  1.1101324e-04
 -3.1514097e-05
  2.0222164e-05
  5.5382177e-05
  6.8301932e-05
 -1.5253891e-04
 -1.0918696e-04
 -1.6069325e-05
  1.6618671e-05
 -2.2208549e-05
  1.8144759e-05
 -2.2348748e-05
  1.0114620e-04
  1.0338039e-04
 -1.6312458e-06
  1.9633785e-06
 -6.4863285e-05
  1.1014666e-04
  9.0417307e-05
  2.7308628e-04
 -8.2233870e-05
  6.5896915e-05
  6.2366089e-05
  1.3607224e-05
 -4.2821011e-05
  1.6775612e-04
  7.4829179e-05
 -1.7041957e-05
  2.7315125e-05
 -2.3444059e-04
  6.1547905e-07
  2.3914632e-05
  3.2451815e-05
 -1.6873852e-04
 -8.8388806e-05
  3.7785325e-05
  2.9709048e-05
  8.4756093e-06
 -2.2927958e-05
 -1.1090053e-05
  2.2561901e-05
  8.9355999e-06
 -6.2759696e-06
 -1.3064071e-04
  3.4395147e-05
  1.1630845e-05
 -8.9752619e-05
  7.2256313e-05
  5.6515870e-05
  2.8278731e-04
  8.7055327e-05
 -7.3044330e-06
 -1.0128706e-04
 -5.0525672e-05
  1.0233729e-04
  9.2515933e-05
 -1.0276731e-04
  5.2562322e-05
  3.4972512e-05
 -1.0464013e-04
  5.2245447e-05
  5.7321922e-05
  5.9258473e-05
 -2.6712905e-05
  2.1868280e-05
  3.8752223e-05
  1.7069951e-05
 -4.0187271e-05
 -9.0250513e-05
 -2.0421136e-04
 -1.0249002e-04
 -3.9453851e-05
 -1.5500763e-04
  6.7383873e-05
 -1.1485256e-04
  4.6501969e-05
 -5.7201240e-05
  7.2702562e-05
 -6.8530157e-05
  4.1797797e-05
 -7.7986784e-05
  3.8144568e-05
  6.2182378e-05
 -1.9129495e-05
  2.6719043e-05
  1.0197550e-04
  4.7993202e-05
 -2.0278414e-05
 -2.6997324e-07
 -3.9206247e-05
 -2.2105092e-05
  7.9543453e-05
  1.1119107e-04
  4.8772895e-06
 -1.7230210e-05
 -6.4665182e-05
  2.4375951e-05
 -6.4163367e-05
  9.3676303e-05
  4.3133205e-05
 -7.9797595e-05
 -1.1470681e-04
 -8.6786618e-05
 -1.7188374e-04
 -4.6510842e-05
  8.7854343e-05
 -4.5083045e-05
  1.2170169e-04
  8.3334353e-06
  4.8442434e-05
 -6.7505200e-05
 -1.0693264e-04
 -2.1996315e-05
 -8.7145832e-05
  1.9174535e-05
  4.6370376e-05
  6.8520145e-05
 -6.0431856e-05
 -1.3201365e-04
  5.6918296e-05
  6.6815563e-05
  1.5852514e-04
 -9.0877453e-05
  2.0185062e-05
 -1.9571233e-05
  5.0255017e-05
 -1.4213273e-05
  5.5708679e-05
 -3.9785988e-05
  2.4573732e-05
 -1.0414864e-04
 -1.5788863e-04
 -3.3861372e-05
  3.2153187e-04
  6.6429253e-05
 -1.7787350e-04
 -3.3875864e-07
 -3.4796351e-05
 -4.4356123e-02
 -2.5585497e-04
  2.3746088e-06
 -5.8423902e-05
  1.0609843e-04
 -4.5073637e-05
 -2.2433705e-06
 -1.7841776e-05
 -1.5492154e-05
  1.0496757e-04
  1.1844183e-04
 -4.5235596e-05
 -8.9001413e-05
  8.0767131e-05
  9.7692551e-05
 -5.3357417e-05
  1.4257985e-04
  5.1873212e-05
 -1.2209042e-04
  8.5331179e-05
 -1.2545558e-04
 -6.6020737e-05
 -8.6947593e-06
 -5.5590041e-05
 -8.7335229e-06
 -2.7490029e-01
  4.9526622e-03
  3.5565937e-01
  1.1057046e-02
 -1.5510974e-05
  1.5871576e-05
 -6.7751149e-05
  7.9055899e-05
  6.8629713e-05
  7.0161086e-01
  6.8804872e-04
 -2.5575189e-04
  1.8367095e-05
 -5.1664677e-02
  9.7539432e-06
 -6.2140534e-06
  3.7544075e-02
  2.9007399e-01
  3.3535628e-04
  6.4360850e-02
  2.6592929e-02
  2.3415099e-01
 -2.0651076e-05
  2.0964867e-03
 -2.9997995e-02
 -3.2856297e-02
  2.7147480e-04
  4.7092453e-05
  1.9421267e-03
  2.0916378e-02
 -4.5414627e-04
  1.1910764e-04
  2.1384751e-05
 -2.1730168e-03
  4.3937165e-04
  2.4437614e-02
  1.9678821e-04
  8.5765896e-05
  1.4832730e-05
  2.4603141e-02
  2.2126673e-02
  3.1295395e-01
  4.7650388e-05
  3.0900954e-04
 -1.4137346e-05
  2.8275547e-04
  4.0766176e-05
  6.9936905e-05
  4.9697843e-05
  5.3888689e-05
 -5.9567730e-05
 -3.4456003e-05
  1.4093571e-04
 -6.6483852e-05
 -6.0392693e-05
 -3.7793681e-05
 -7.7700453e-05
 -2.2583702e-04
 -7.6686883e-05
  1.1864995e-04
 -2.9340186e-05
  3.9373049e-06
 -1.6060229e-05
 -1.6447828e-05
  7.3958006e-05
 -6.2826744e-05
 -5.6147343e-05
  4.4472628e-05
  2.2475717e-05
 -6.7168239e-06
 -1.4256766e-05
  1.3330535e-04
  1.0687202e-04
  4.4883549e-05
 -5.5244738e-05
 -5.5259206e-05
 -1.0964724e-06
  5.6817855e-05
 -6.8230202e-06
 -3.5949899e-05
 -3.1376978e-05
  6.3277133e-05
 -4.9198648e-06
  3.7373178e-05
  1.2391110e-05
  6.5895678e-05
 -1.1057114e-04
  6.8668312e-05
 -4.0864346e-05
  1.8597639e-04
 -4.7652720e-05
 -3.1638896e-04
  8.6092157e-05
 -8.3359819e-06
 -3.3245014e-05
 -9.1792215e-05
  1.7090049e-04
 -3.5088968e-05
 -2.9930887e-05
 -9.9968252e-05
  5.1911786e-04
 -5.8550751e-05
  2.2727636e-01
 -5.0756675e-01
  3.7684411e-01
  2.5604499e-04
 -5.2055031e-05
 -2.8196234e-02
 -8.1733748e-02
 -1.0883220e+00
 -2.4517288e-04
  1.6838975e-01
 -2.6661274e-01
 -1.4919560e-01
  3.3572738e-05
 -4.0687728e-03
  5.8472582e-05
 -2.0195793e-01
  4.5281387e-04
 -1.2273358e-05
  3.2081126e-04
  1.9836402e-01
 -6.5236796e-05
  2.0381323e-05
 -8.2997620e-05
  1.6684298e-04
 -9.3503559e-06
 -2.3616329e-04
  2.7832773e-05
 -2.4206476e-01
 -5.4113766e-06
  3.1239448e-05
  5.8511570e-02
 -8.8779936e-03
 -5.1261562e-05
  1.4072744e-04
 -9.8133060e-05
 -1.8390146e-01
  6.2583022e-05
  9.9534518e-06
 -2.4305464e-04
 -1.2419816e+00
 -2.7939004e-05
 -8.3836887e-05
 -1.0517576e-04
 -3.6535414e-05
  1.0024689e-04
  6.6397006e-05
  4.3586948e-05
  1.4949519e-06
 -3.8610640e-01
 -4.5003548e-05
 -3.5125482e-05
  1.2568988e-04
  1.0757307e+00
 -1.6237582e-05
  2.8470517e-05
  8.8572917e-05
  8.3213693e-01
  8.6265332e-05
 -5.4635102e-06
 -6.2779567e-05
 -5.1363051e-05
 -2.7638074e-05
  1.3533465e-05
  4.9002595e-02
  1.1772081e+00
  5.5197121e-05
  2.5365734e+00
  1.1833924e-05
 -8.6639368e-05
 -7.0101923e-01
 -8.8015658e-01
  2.3376763e-06
 -6.8488944e-01
 -4.6198156e-07
  3.8571136e-05
  2.4029699e-01
  3.3728227e-06
 -1.7707194e-05
  3.4299450e-05
 -3.9352759e-05
 -6.9073089e-05
 -7.6847122e-05
  1.2926890e-05
 -3.2431657e-05
  1.8262874e-05
  6.5380309e-06
  1.9547330e-01
  2.9238316e-05
 -6.1013561e-05
 -8.2157065e-05
 -2.7770302e-05
 -1.5256595e-05
  2.5601742e-01
  4.4053729e-04
 -3.7329641e-01
 -1.3681602e+00
  6.8994636e-06
 -2.0477601e-05
  4.4005359e-05
  1.5727781e-02
 -7.4661541e-05
  1.0642043e-04
 -8.4510109e-05
  4.3488503e-06
  2.2787637e-05
 -2.7694923e-04
  1.4100574e-04
 -1.2747504e+00
  1.5370362e+00
  9.0403946e-06
 -7.3917407e-05
  2.2062999e-05
  1.2408324e+00
 -1.4982819e-04
 -3.8943625e-05
  2.2125222e-01
 -6.6552216e-01
  8.1692979e-06
 -1.4723181e-04
  2.4471530e-05
  1.8193406e-01
  1.8592790e-04
 -1.2902332e-04
  7.8237778e-01
 -1.2779130e+00
  1.6205771e-04
  3.7101517e+00
 -1.0202405e-04
  1.7938195e-02
 -1.9138542e+00
  4.3614823e-01
 -6.5094814e-06
  7.3010826e-01
  1.9958432e-05
  3.7438968e-01
 -9.3306661e-01
  4.1514170e-01
  8.8230336e-06
  3.9222137e-05
  1.2369842e-05
  6.9670618e-06
  2.7292088e-01
 -4.6652531e-05
 -3.8961563e-05
 -2.9249795e-05
 -3.4483463e-05
 -8.8672084e-01
 -2.7462626e-01
 -1.2490738e-05
 -1.8823494e-05
 -9.8754399e-02
  1.7593440e-05
  2.5530803e-01
  1.1288418e-04
  2.8429818e+00
 -1.5342221e-04
  2.9029295e-01
  4.4753218e-05
  1.3683145e-05
  7.6781285e-01
 -3.8337996e-05
 -3.4702880e-05
 -8.3329491e-05
  6.5009601e-07
  1.7735307e-06
  6.5631431e-01
 -7.7391473e-05
  5.8263505e-01
 -3.6705504e-05
  4.4410542e-01
 -2.7685521e-05
 -1.0988319e-01
 -1.5244547e-05
  4.5887216e-05
 -3.4256625e-01
 -4.7677648e-05
  8.6671362e-06
  7.2314018e-05
 -2.3233001e+00
  1.3991263e-04
  1.0568364e-04
 -1.2589653e+00
  9.2921880e-05
 -1.3547038e-05
 -6.6552609e-05
  1.7136349e-01
 -7.5534344e-01
  8.1332000e-05
 -7.8215053e-06
 -6.3927770e-01
  2.4475360e-01
  1.1591253e-02
 -1.3551062e-04
  2.4701373e-04
 -4.4850340e-01
 -9.0848836e-05
  3.1062085e-04
 -6.8822515e-01
 -3.8994818e-03
 -2.4602507e-04
 -4.6589379e-03
 -1.0846887e-05
 -3.9731941e-01
  3.9054162e-06
  1.1860718e-03
 -8.1827140e-01
 -7.8472711e-02
 -4.5889565e-03
 -8.6878310e-05
  1.0125114e-01
  7.0041426e-02
 -7.6222554e-05
 -1.3674337e-04
  6.2307313e-02
 -3.9319406e-05
 -5.0980270e-05
 -5.6883466e-05
  2.3640230e-05
  7.7351515e-06
 -2.4247229e-06
  2.8825243e-05
 -1.9135145e-05
 -1.4342496e-04
  3.1351727e-05
  7.9427618e-06
  3.1259310e-06
 -2.0942585e-04
 -1.7826143e-05
  6.1583623e-06
  3.0661697e-05
 -5.7418442e-06
 -5.8832975e-05
  7.4836011e-05
  1.4913979e-04
  3.5466015e-05
 -2.5379111e-05
  8.5191721e-05
 -6.3436099e-05
 -6.0567989e-05
 -2.1766855e-05
  7.1921768e-06
 -2.0868175e-04
  4.4643675e-05
  5.2382677e-07
 -1.9476183e-04
 -4.7642548e-05
 -1.2948572e-05
 -1.8934845e-05
  3.8468595e-05
  6.3222309e-05
  4.4816486e-05
  1.4442261e-05
  5.7513658e-05
 -8.0549929e-05
  1.7830582e-03
 -4.2099047e-05
  1.3311602e-05
  1.2716753e-04
 -3.2999946e-05
 -3.9490948e-05
  9.2347778e-05
 -8.3858300e-05
  3.1060579e-05
 -3.3628978e-05
  6.2464685e-05
 -8.1998369e-06
  1.3141405e-05
 -3.8462116e-05
  2.4367104e-05
 -1.0711589e-04
  2.4552933e-06
 -1.0522216e-04
  1.0747365e-05
 -8.0791091e-05
 -8.7999244e-05
  2.7872165e-05
 -7.1305840e-05
  2.0769965e-05
 -2.0079407e-05
 -3.8040420e-05
  7.6706798e-05
 -4.7278102e-04
 -1.6917450e-04
  4.3152427e-06
  2.5819310e-05
 -5.9038117e-05
 -2.3012391e-05
  9.2713555e-05
  2.1995793e-04
  1.0425201e-05
 -1.0168483e-06
 -1.5263760e-04
  8.1885235e-05
 -1.5205579e-04
 -9.7976059e-05
 -9.1776914e-05
  4.4914006e-05
  6.8064212e-05
  6.7006235e-06
  2.4529812e-05
 -1.3745135e-04
  1.8971847e-05
 -4.0543531e-05
 -6.8838912e-05
 -1.1324960e-04
 -3.6285586e-05
  1.1918503e-04
 -8.8692679e-05
 -3.1516366e-04
  2.2799472e-06
 -5.0881863e-05
  2.5559715e-05
 -9.3086303e-05
  2.4224457e-05
  2.1121756e-05
  3.6392263e-05
  1.0298641e-04
  1.4230414e-04
  3.2277618e-05
 -3.4242814e-06
  6.8702328e-05
 -1.5766923e-04
 -9.4017800e-05
 -1.9898931e-05
  1.0744856e-04
  4.2268199e-05
 -1.8140842e-04
  5.5030938e-05
  2.4594085e-05
  1.5720513e-04
 -1.0590676e-04
 -2.1487442e-05
 -3.3376615e-05
  5.8816472e-06
 -3.7351259e-05
 -1.5912316e-05
  1.6479188e-04
 -8.7924258e-05
 -1.3883167e-05
  5.3237109e-05
  1.5760689e-04
  2.6857255e-05
 -2.0060448e-05
  1.3150249e-04
  3.8397680e-05
  1.2019964e-04
  1.3024927e-05
  5.0693536e-05
 -3.8056529e-05
  2.0643594e-05
  1.8670667e-05
  7.2507639e-05
 -6.5425970e-06
  3.2564622e-05
  1.0335370e-04
 -1.2417555e-04
  1.3500204e-05
  2.8262244e-05
  3.9656108e-05
  3.2354215e-05
  6.4360058e-05
 -4.3888147e-05
  3.7686688e-05
 -3.6805683e-05
  5.2185824e-05
 -9.3307763e-06
 -9.2845958e-06
  2.6480931e-05
 -1.1011865e-01
 -4.7403920e-02
 -1.5666135e-06
  3.5233013e-02
  9.3220391e-05
  2.5228429e-01
  1.7100944e-01
  4.4591128e-04
  5.7469540e-05
  3.8236976e-02
 -3.9374870e-01
 -1.9499040e-03
  1.0961123e-01
 -3.1022616e-06
 -6.0979080e-01
  7.4349277e-02
 -2.3694612e-01
  1.2942199e+00
  1.3075648e-04
  2.8047392e-05
  4.1614020e-01
  1.7612486e-01
 -1.3071759e-02
  6.7884617e-02
 -2.6451463e-01
  4.1002251e-02
 -3.1677610e-01
  3.4494749e-07
  1.3963072e-04
 -4.4639271e-01
  9.6156159e-03
 -5.1991508e-05
 -3.0507905e-02
  1.8565844e-01
  7.6419303e-05
  5.8525588e-05
  4.4447217e-02
 -1.0322893e-02
  9.4711296e-02
  2.1895505e-05
  4.6312402e-05
  1.7547508e-01
  5.7222464e-05
 -3.1824056e-05
 -9.3333334e-02
 -2.8215023e-03
  5.8868840e-02
  1.5247102e-04
 -1.2853748e-05
 -1.3732562e-05
 -1.5855561e-01
  2.1916299e+00
  6.8262008e-05
 -1.1432850e-01
  1.8483509e-01
 -1.5236422e-02
 -9.9088413e-01
  1.9929743e-04
  1.1767649e-04
  1.4526517e-05
  8.5731976e-02
  8.4443744e-03
  2.5282753e-01
 -6.4544738e-03
 -1.7427392e-01
 -1.0103519e-03
 -1.0093538e-02
 -3.1671450e-01
 -1.6525544e-01
  2.7386525e-01
  7.5541502e-01
 -1.5319183e+00
 -1.6071233e-01
  2.0885682e-01
  4.7789767e-01
  3.0687356e-02
  9.0754136e-02
  7.3808333e-05
  2.4745625e-01
 -1.3686851e+00
 -9.8453127e-03
 -2.2856806e-01
 -3.3337596e-01
 -9.5333206e-05
 -1.9180588e-02
  6.7419380e-05
  9.2931159e-02
  1.1740272e-01
 -1.9150794e-02
 -2.8654507e-03
  1.2870804e-06
  2.8175617e-02
  1.5132648e-01
 -2.0612440e-04
 -2.6250765e-01
 -2.8623274e-01
  7.2811805e-02
 -1.1862245e-03
 -1.7701446e-04
 -1.1591120e-04
 -2.0733329e-04
  1.2789240e-04
  1.8613035e-04
  1.3987401e-05
 -1.0828424e-04
 -1.2414942e-04
 -6.3914646e-05
  3.3379187e-05
  5.3629460e-06
 -7.0896043e-05
  7.2444142e-05
  3.0176579e-05
 -1.6390215e-05
  4.1749376e-05
  1.1225054e-04
 -2.1614537e-04
  1.5361611e-05
  6.4193693e-05
  3.4381606e-05
  6.7562920e-05
 -5.2548341e-05
  3.2073658e-05
 -9.4350689e-06
 -1.7270638e-04
 -3.3034972e-05
 -4.5369671e-07
 -2.3414887e-05
  7.9091092e-07
  5.8628350e-05
 -3.0501780e-05
 -8.7107495e-05
  1.5624346e-05
 -1.0962558e-05
  2.6461536e-05
  1.6655300e-05
 -1.6766154e-04
 -6.6375367e-05
 -3.2156556e-06
 -5.3559492e-05
 -5.3677872e-05
 -4.6146441e-05
 -9.0751237e-05
 -2.9662240e-05
  1.4937543e-06
  9.0322312e-05
 -1.6071717e-04
  6.7698908e-05
 -4.1826570e-05
  1.7011999e-04
 -2.5926762e-05
 -1.5022705e-04
  9.6853934e-02
 -5.6304663e-05
  8.1453487e-02
  8.9614907e-05
  3.4941400e-05
 -1.2476360e-01
  1.9236201e-01
 -7.2541320e-06
  2.4880341e-01
  2.3419589e-01
 -2.1760250e-05
  4.2460490e-02
 -3.2315752e-01
  2.7224308e-01
  8.0306351e-04
  8.7345481e-02
  4.5921080e-02
  1.0198041e+00
  1.3470569e-01
  5.5145385e-05
  4.5342156e-01
 -6.3170075e-02
 -3.4065109e-02
  1.6163368e-03
 -7.3391482e-02
  4.0983241e-02
  1.9756109e-05
 -1.5790343e-04
  1.1615633e+00
  4.9499737e-05
 -1.0746470e-01
  2.1058209e-05
  9.8563787e-03
  3.1624850e-02
 -4.6665067e-05
 -2.2191559e-04
  2.6775813e-01
  3.2993345e-04
  5.1695384e-05
  2.3592234e-02
  4.6406690e-02
 -5.9453724e-04
 -7.1333947e-05
 -6.9417894e-02
 -3.7097263e-01
  1.2750465e-01
  2.6222817e-05
 -2.0840499e-04
  7.4003083e-03
  1.0350619e-04
  1.5021855e-04
  1.4277704e-05
  2.9037370e-05
  7.4328316e-05
 -2.6582761e-06
  4.5374931e-05
 -7.9873833e-05
  1.6445987e-06
 -6.4595233e-06
 -4.1956751e-05
 -2.9774147e-04
 -7.5532822e-05
 -8.4512256e-05
  9.1227950e-05
  1.6921402e-05
 -9.2869159e-05
  5.8158712e-05
  1.4732000e-04
 -6.0818264e-05
  1.2600208e-04
  1.6979531e-04
 -5.2162504e-05
  2.0782760e-05
  1.6993842e-04
 -4.2733729e-05
  6.2088884e-06
  7.7980214e-05
  1.9692056e-05
 -2.8102493e-06
 -1.5250785e-05
 -9.1851944e-05
 -5.4697000e-05
 -7.1898510e-05
  9.0768022e-05
  1.2031041e-05
 -2.1279165e-04
 -9.3428544e-06
  1.1108917e-05
  1.8972755e-04
  1.5622165e-05
  2.1948870e-05
 -6.3575244e-05
 -5.1456529e-05
  2.5668507e-04
  9.4451883e-05
 -4.3875189e-06
 -4.5509816e-05
  6.3999374e-05
  3.0840474e-05
  6.8480491e-05
 -5.2703188e-05
  7.7089018e-05
 -2.7324122e-05
 -1.1866526e-04
 -1.6917937e-05
  6.3364008e-05
  2.2958023e-04
 -1.0032629e-04
 -8.1392054e-06
  6.5945351e-05
 -1.9169872e-04
 -5.3304153e-05
 -1.5221537e-05
  4.7281621e-05
  9.5676267e-05
  1.1620673e-05
 -7.4442753e-05
 -5.1347302e-05
  6.8033696e-05
 -7.5488249e-05
  5.6820092e-05
 -6.1977960e-05
  3.9752893e-05
 -6.2114501e-05
 -7.6710814e-05
  3.0505300e-06
  1.3530356e-04
  1.1771244e-04
  9.1942340e-08
 -4.0985765e-06
  4.8651063e-06
 -5.4164997e-05
 -8.5265765e-07
  2.6835723e-05
  7.0456445e-06
  7.4490039e-05
 -3.0952873e-05
 -3.0003206e-05
  3.1678570e-05
 -5.7153644e-05
  5.8155441e-05
 -2.2626959e-05
 -2.3347093e-06
 -7.5993041e-05
  1.1617892e-05
  8.6581631e-06
 -2.8429629e-04
  2.9222456e-06
 -4.6966390e-05
  1.8022722e-01
  1.2508933e-01
  6.0699331e-05
  2.4967615e-03
  7.3272997e-05
  1.4549300e-01
  9.9795634e-01
  2.2250952e-06
 -1.0508115e-04
 -4.9266440e-04
 -4.8217767e-01
  5.8884940e-05
 -9.7332602e-05
 -1.1395017e+00
 -6.8608090e-02
  1.3159357e-01
 -2.7743154e-04
 -6.7122817e-01
 -2.2928405e-01
 -1.8180303e-02
 -1.5874924e-05
  1.4369440e-02
  5.2351427e-01
  4.3437064e-01
 -6.3218395e-05
  2.5669760e-03
 -2.2071688e-01
 -7.2703195e-05
 -1.1652371e-01
  1.6683478e-04
  3.3937559e-01
  2.8608581e-01
  2.2025511e-02
 -3.2456580e-04
 -6.4366117e-02
 -2.8000973e-04
 -3.4164179e-02
  3.6044009e-02
  2.3370084e-01
  6.7575194e-02
 -7.1886207e-05
  9.5079862e-02
  1.1237340e-04
 -3.7984064e-05
  2.2370221e-04
 -2.1080982e-02
 -1.1126272e-01
  1.0367392e-02
 -2.8123259e-05
 -1.5810403e-04
  2.5593112e-05
  2.5585122e-04
 -1.5636923e-04
  2.2280292e-05
  9.2244372e-05
  1.1200427e-05
  3.1001357e-05
 -5.2644813e-05
  2.9478556e-06
 -4.1149473e-05
 -3.0024655e-04
  1.6377754e-04
 -8.4591375e-05
  8.4330291e-05
 -3.6328198e-05
 -1.2478084e-05
  1.8930562e-04
  1.6272980e-04
 -1.7011862e-05
  3.7578669e-05
  2.3457149e-04
 -1.8999979e-05
  9.6620861e-05
  8.8445573e-05
 -3.1383370e-05
 -4.0601764e-05
 -2.4264373e-05
 -1.4855594e-05
  4.9250044e-05
 -1.4736806e-04
  2.4178467e-05
  1.0934406e-04
 -2.6092823e-05
 -3.0162840e-04
  9.2156915e-05
 -1.8564522e-05
  1.5421781e-04
  1.7561602e-04
 -1.1542849e-05
  2.1636149e-06
  4.3301770e-06
 -5.5702556e-05
 -1.4482004e-05
  3.8025006e-05
 -1.4264790e-04
  3.3503480e-04
  1.7058529e-04
 -2.5115867e-05
 -1.1585750e-04
  9.3472881e-05
  2.0385124e-02
 -3.0636747e-05
  9.1265327e-05
 -1.9993230e-04
 -1.6715766e-04
  5.5526409e-05
  9.3740200e-06
 -2.9464916e-05
  1.4766531e-05
 -5.8707265e-05
  2.5117793e-04
  2.7701029e-05
 -8.5679085e-06
  2.3466111e-04
 -8.4095045e-05
  1.9223224e-04
 -1.6703313e-04
  2.0468068e-04
 -1.0651166e-05
 -2.8752496e-05
 -6.9386508e-05
  5.0446236e-01
 -1.4649997e-04
  1.1459665e-04
  2.0627524e-05
 -2.8278600e-06
  1.3497646e-04
 -2.4818963e-05
 -1.1485213e-04
  6.0851198e-02
 -9.3897783e-05
  4.6600000e-04
  3.3643580e-06
 -2.5990515e-05
 -3.9837419e-06
  1.3483873e-04
  2.0902769e-05
  8.5767817e-05
 -1.3788009e-05
 -2.9016812e-06
  2.5666928e-05
 -1.3214492e-04
 -7.3211537e-05
  1.0649437e-04
  1.9990667e-04
 -8.5035048e-05
 -8.3565268e-05
  1.0572035e-04
  8.3338949e-05
  9.4548312e-05
 -1.6792867e-01
  1.4233722e-01
 -1.6984630e-02
  1.8860638e-02
  7.5068995e-02
 -1.3386759e-01
 -3.9012130e-02
  5.4044718e-05
 -2.0860120e-05
  1.6939235e-01
  2.8133410e-01
  2.1710776e-02
  3.5948369e-01
  2.7775366e-03
  3.8343851e-04
 -4.8134588e-02
  7.0024203e-03
  4.0881697e-02
 -1.5562989e-03
  5.6404620e-01
  1.5081366e-02
  2.8986433e-01
  1.1378703e-01
 -1.0360248e-02
  2.9126592e-02
  1.9155122e-01
 -1.2162766e-02
  3.3221301e-04
  1.8474272e-01
  5.1161277e-01
  5.8163337e-02
 -1.2564871e-01
 -8.3140746e-02
  8.4320597e-02
 -5.1119141e-02
  3.3229399e-01
  1.0013460e-01
 -9.7486394e-04
 -2.2153541e-02
 -8.5131772e-02
 -2.7564488e-04
  8.5021637e-02
  2.4700511e-02
 -1.0622748e-06
 -6.5664649e-01
  9.4094808e-04
  8.2392721e-03
 -9.3578212e-02
 -9.3933218e-04
  9.9205296e-04
  1.3423162e-04
  1.9524300e-04
 -1.2116993e-04
 -9.0769921e-05
  3.7304464e-05
  1.9733224e-04
 -2.5693802e-04
 -7.6845972e-06
  1.6919214e-04
  5.5422741e-05
 -6.3724314e-05
  3.1129963e-07
  4.1612584e-05
 -1.9583025e-05
  6.2273917e-05
 -1.8658831e-04
  5.0231451e-06
 -7.4636053e-05
 -4.3149615e-07
 -3.0743446e-05
 -1.2843061e-05
 -3.6625523e-05
 -2.3336293e-05
  8.1880411e-05
  4.3095599e-05
  8.8089684e-05
 -4.8555926e-06
 -5.8684258e-05
 -4.9249935e-05
 -3.6209323e-05
  7.7447141e-05
  2.1884250e-04
  3.2241624e-05
  1.7582887e-04
  2.5131738e-05
  1.2427375e-04
  1.0228177e-04
 -5.2306390e-05
  2.7848550e-05
 -5.8845126e-05
 -6.4381231e-05
 -2.1312149e-04
 -8.9586618e-05
  1.3991623e-04
  7.9001475e-05
 -1.0691307e-04
  1.8179625e-04
 -1.4255366e-05
 -1.4057536e-04
  7.6380165e-05
  4.9528433e-05
 -5.8865039e-06
  1.9287558e-05
  1.4593552e-05
 -4.2212709e-05
  1.3029557e-05
 -1.6675897e-04
  1.0842798e-05
 -7.4268079e-05
  5.2077557e-05
  6.9437054e-05
  4.3316220e-05
  1.8091718e-04
 -2.6757107e-04
  8.8364162e-05
 -3.2566802e-04
 -2.7627539e-05
 -5.1950268e-05
  2.6000340e-05
  3.8146904e-06
 -1.3642169e-04
  4.9932074e-02
 -1.0526333e-04
  3.5100879e-06
  4.0091778e-05
 -1.0626927e-04
  1.4074179e-04
 -1.3423411e-04
 -6.7618414e-05
 -1.2903442e-04
 -8.3374121e-05
  8.1949183e-05
  1.2284961e-05
  3.8639835e-05
 -3.9230413e-06
 -1.7526731e-05
 -7.1915033e-06
 -3.7624130e-05
  3.0952331e-05
  9.4345109e-05
  1.3647864e-05
 -6.4771441e-05
 -2.1725344e-05
 -2.2213788e-05
 -2.2817225e-05
 -3.5424168e-06
  1.2733118e-04
  6.4431420e-05
  8.3888175e-05
 -2.3417494e-04
 -2.2368826e-01
 -4.2573041e-01
 -1.6335947e-04
  4.0608510e-01
  1.6947833e-01
 -2.4742718e-05
 -2.1835950e-01
 -4.4139484e-05
 -3.0695376e-04
  1.2945050e-01
 -3.2059893e-01
 -5.9901409e-05
  2.7793220e-01
 -7.1951196e-02
  2.4005298e-02
 -1.9799837e-01
  2.9920141e-04
 -1.5177403e-03
 -2.0565014e-01
  2.0337006e-01
  4.4995599e-07
  7.4512631e-02
 -6.4378761e-04
 -1.4869443e-01
  2.8100910e-04
 -7.4509084e-03
 -3.9104600e-02
 -7.3788451e-06
  3.3283594e-01
 -9.4482601e-02
 -1.2843173e-03
 -1.5842254e-01
 -1.1210553e-01
  1.8837965e-01
 -2.5554535e-03
  4.2264868e-02
  5.9141889e-02
  1.2976316e-01
 -6.0737727e-04
 -1.5155442e-01
 -3.6509035e-05
  2.1124271e-01
  1.4134918e-04
  1.6043444e-04
 -1.9229893e-01
 -3.9796960e-01
  4.7582565e-05
  4.1541385e-05
 -6.3035209e-06
  8.8776083e-04
  1.1759845e-04
  1.9831310e-05
 -4.6808655e-05
 -1.4357650e-04
 -9.1254558e-05
 -7.5040130e-05
  1.5404165e-05
  1.5266478e-05
  4.2457043e-05
 -5.5136702e-06
 -4.6229754e-05
 -4.7497240e-05
  2.6438553e-05
  3.4545035e-05
 -1.8665363e-05
  6.6980268e-05
  2.7931628e-05
  1.7392065e-05
  8.1199425e-05
  7.1653549e-06
  9.3306640e-05
  1.3302390e-04
  8.4228974e-05
 -9.9467696e-05
  1.1246684e-04
  3.6777245e-05
 -5.2812014e-05
 -6.0374763e-02
  4.5440152e-05
  9.2865550e-05
 -2.2936272e-05
  1.5782878e-05
  5.6361765e-05
  4.6107310e-05
 -1.6973661e-04
  3.3408448e-06
  3.5492027e-05
 -8.1081351e-05
 -4.8003756e-05
 -2.1285958e-04
 -3.5018362e-05
 -4.1488373e-05
 -1.2956890e-05
  8.9250731e-05
 -2.2003971e-04
  8.8829867e-05
  1.7351168e-04
 -9.6605036e-06
 -1.0040825e-04
 -3.9871578e-05
  1.7783970e-05
 -3.9703134e-04
 -1.6163150e-04
 -1.0956598e-04
 -7.0304261e-05
 -9.5222669e-05
  1.8025162e-04
  1.6680357e-04
  9.3440663e-05
  1.0508965e-04
 -2.7583174e-05
 -2.8935758e-06
 -1.2278240e-05
 -1.1334444e-04
 -1.6892456e-05
 -3.4171488e-05
 -1.7527171e-05
 -1.0606799e-05
 -1.4047324e-05
 -8.3947034e-06
 -1.4364823e-04
  4.2793828e-05
 -1.5184944e-05
 -6.3675965e-05
 -2.4419684e-05
 -2.6740681e-04
  6.3027110e-05
 -3.4953340e-05
  1.2692413e-05
  9.0601483e-05
  3.6207162e-05
 -1.1808421e-04
 -1.8041836e-04
  4.3481075e-05
  1.2003514e-04
 -7.9383521e-05
  7.1076938e-05
  1.1966588e-04
  6.7263332e-05
 -7.4857475e-05
 -2.8285981e-04
  3.1734831e-05
  7.4672935e-06
  2.1965450e-05
 -1.9137646e-05
  5.6900364e-05
 -1.4578339e-05
  8.6891967e-05
  5.2744414e-05
  9.0585509e-06
  1.0433461e-04
 -1.0377650e-04
 -1.3619832e-04
  4.7327776e-05
  2.8280218e-05
 -8.1088096e-05
  6.7785159e-06
  5.3486310e-06
 -7.1220151e-05
 -1.8840952e-05
 -3.2377238e-03
  1.0802155e-04
  5.8476126e-05
 -2.7663600e-05
  7.7129580e-06
  7.0757276e-05
 -1.5078808e-04
  2.4928295e-05
  3.0775805e-05
 -4.0372739e-05
 -8.0557118e-05
 -3.2225737e-04
 -5.5855176e-06
 -3.6796897e-05
  6.5996601e-06
  3.7701684e-05
 -3.2912798e-05
  3.0432755e-06
  1.4045190e-06
 -7.8225257e-06
 -1.3992550e-04
 -1.8783406e-04
 -2.1632828e-05
  3.1991265e-05
 -1.7357718e-04
  5.2715335e-05
  2.9167613e-06
 -1.3980592e-05
 -1.0380102e-04
 -8.9893892e-06
  3.1538970e-05
 -3.7750178e-05
 -1.7090114e-04
 -1.4164481e-04
 -3.5743229e-05
 -2.3774221e-05
  2.1378741e-05
 -2.6154758e-05
 -2.3828485e-04
  1.7121692e-04
  4.7513437e-05
 -1.4102264e-04
  4.2286731e-05
 -3.1765585e-04
  8.0285266e-05
  1.2333239e-04
 -9.1434165e-05
 -7.3413990e-05
  3.1057072e-05
 -1.0885214e-04
  1.2015551e-04
  2.0784695e-05
  3.1108939e-05
  4.2099513e-05
 -7.3336378e-05
  3.0119411e-06
  1.5612422e-04
  1.0237675e-04
  6.8911926e-05
  1.9867430e-06
  2.1091835e-06
 -8.8734261e-05
  7.1798771e-05
 -3.1739614e-06
 -3.1743259e-06
  7.6421929e-05
 -2.1019812e-05
  1.2262097e-05
  7.5365693e-05
  2.8347157e-04
 -5.7540405e-05
  1.9816765e-05
  6.2988962e-05
 -8.9195728e-06
 -7.4885043e-05
 -8.6455730e-05
 -2.8578367e-04
  1.1320615e-04
  1.7397046e-05
 -1.3723451e-05
 -8.3684077e-05
  1.6841239e-05
 -1.3132011e-04
  5.1701343e-05
 -1.2607344e-04
  5.6344097e-06
 -3.2139520e-05
 -1.2034495e-04
 -7.6668563e-05
  6.3642867e-05
  1.0027768e-04
 -1.7106096e-04
 -1.1490183e-05
 -1.5955202e-04
  6.7518951e-05
  1.8273656e-04
  1.5861515e-04
  1.9003483e-05
 -8.4509287e-05
 -7.2896146e-05
 -5.9217591e-06
  3.6916681e-05
 -1.5678405e-04
  2.5936270e-05
 -2.2594446e-04
 -1.8422357e-05
  4.8484511e-05
 -4.2424283e-05
 -3.1835203e-05
 -1.1649260e-04
 -8.3640763e-05
  8.7850049e-06
  2.0620706e-04
  2.0655432e-06
 -3.8956365e-05
  5.0808809e-05
 -3.9718412e-05
 -2.6713569e-05
  1.0643694e-04
  1.7710849e-04
 -4.0383060e-05
  6.6694847e-05
  1.0366576e-04
  1.8626016e-04
  3.9217026e-05
 -2.1114148e-04
  4.2287604e-05
  9.0686794e-05
 -3.3218795e-04
 -2.9472818e-04
  1.1435893e-04
  6.8058107e-05
 -5.6872210e-05
 -1.1993806e-04
 -4.4355478e-05
  2.2066412e-04
 -4.7180565e-05
 -9.3623625e-05
  6.7715382e-06
  4.0228057e-05
  1.1172190e-04
  4.0196654e-05
  8.9771172e-05
 -6.6091299e-05
 -1.1905609e-04
 -8.3774226e-05
 -8.3201485e-05
 -6.6502413e-05
 -1.0247712e-04
  8.0115842e-06
 -2.2910635e-05
 -1.7637716e-04
  2.4709525e-05
  9.3700655e-06
 -3.7276874e-05
  1.8724317e-05
 -9.7627453e-05
  8.7563676e-05
  5.0971948e-04
  3.6714242e-05
 -7.0799520e-05
  8.8381268e-05
 -1.7008456e-04
 -8.8425237e-05
  3.3728040e-05
 -1.1394337e-04
 -4.1152478e-05
 -3.1863372e-05
 -2.8996092e-05
  5.4332952e-05
 -2.7186188e-05
 -7.9498670e-05
 -7.7240184e-06
 -5.3930184e-04
  1.0505332e-04
  5.4699663e-05
 -1.4153622e-04
  3.1985110e-05
  2.3769066e-05
  6.6831191e-05
 -2.0788508e-05
 -2.8058288e-05
  6.1835184e-05
 -1.3859014e-04
  1.2918480e-05
 -1.9708746e-04
 -3.1843709e-05
  1.3341679e-04
  6.9679496e-05
 -5.0559629e-05
  3.8933448e-02
 -2.2698525e-01
  2.4776788e-05
 -6.2896065e-02
 -8.0164347e-05
 -1.9007981e-05
  5.4920757e-01
  1.5615877e-04
 -3.6845100e-05
 -4.7537971e-02
  7.1930401e-02
 -6.9765454e-05
 -1.4195848e-01
 -3.9845178e-01
 -6.7009823e-05
  1.3958330e-02
 -1.5814885e-04
 -1.8529125e-01
  2.9265149e-05
 -1.4849749e-01
  9.3139452e-06
 -1.9015546e-01
 -6.8194687e-02
  3.1557446e-04
 -1.4990360e-04
 -1.2039909e-04
  5.1619150e-02
 -4.5471945e-05
 -7.0835821e-02
  1.0384785e-02
 -3.6824509e-05
  1.2404446e-01
  1.2296911e-03
 -6.3569671e-03
  1.0841817e-01
 -3.6084144e-05
 -8.1687747e-03
  2.3368774e-01
  4.2755224e-02
  7.6175965e-02
 -6.7059591e-05
 -2.2417997e-04
  5.9308153e-05
 -6.6567336e-05
  8.1851311e-02
 -6.7614013e-04
 -1.2581678e-04
  8.1901089e-05
  6.1063511e-05
 -4.1676012e-06
  1.7225894e-06
 -1.1742708e-04
  7.2401454e-05
 -1.3434847e-05
  4.0149978e-05
  1.3825609e-05
  1.3821879e-05
  2.0125649e-06
  1.6537847e-04
  6.9414386e-06
  2.0844907e-04
  3.4692071e-05
 -1.3768330e-04
 -1.1677371e-06
 -7.5189098e-05
  4.3834185e-05
 -7.7472592e-05
 -3.5188063e-05
 -1.3320599e-04
  5.6409841e-05
 -3.5977064e-05
 -3.6275622e-05
  2.0177198e-05
 -1.1722378e-04
 -3.2933378e-05
  1.1100608e-05
  7.5860356e-05
 -4.6051362e-05
 -1.4759113e-04
  1.0626491e-04
 -1.2891371e-04
 -4.6759458e-05
 -3.9180122e-05
  1.4734290e-04
  3.9830691e-05
 -4.5284567e-05
 -2.0999440e-05
 -4.0935782e-05
 -1.7668788e-05
  8.6667766e-05
  6.5171903e-06
  2.7848686e-05
  1.3164987e-04
 -1.2943923e-05
  3.8872175e-05
 -7.4083175e-05
  6.8410816e-05
  5.7704729e-05
 -5.9869493e-05
  2.2582170e-04
 -1.0094994e-01
 -1.8772170e-01
 -2.0213864e-05
 -1.2283262e-01
 -3.3562011e-04
 -6.1194230e-02
 -4.3808758e-01
  7.2787770e-05
  1.9326835e-05
  1.3152559e-01
  2.3248610e-01
  7.4768570e-05
  3.4547695e-05
  1.0496631e-01
  1.0710063e-03
 -1.2607488e-01
  1.6531385e-04
 -1.0149500e-03
 -4.9806153e-05
  9.4063848e-02
 -5.2781706e-06
 -2.6777225e-02
 -4.0219280e-01
 -2.2763196e-01
  1.1408910e-06
 -2.8518552e-04
  8.2225690e-04
 -3.8096005e-05
  8.0332480e-02
 -1.1924689e-03
 -6.2603911e-05
 -7.5007766e-02
 -7.2029245e-05
  3.3697994e-05
  8.0883309e-02
 -2.1632716e-06
 -4.5572338e-05
 -3.3184402e-02
 -1.8344486e-01
 -5.8263518e-02
  3.6465070e-05
 -1.4599683e-02
  6.2055915e-05
 -3.8407019e-05
 -4.0880395e-03
  4.1660301e-02
  1.2420136e-01
 -2.5643068e-03
 -6.3820844e-05
  1.1287381e-04
 -9.6574344e-02
  2.9771772e-05
  2.0662526e-04
  3.9057648e-01
 -8.2521117e-05
 -1.4121095e-02
  2.6290387e-01
  2.7371860e-05
  4.8802023e-05
  1.3936023e-04
 -1.2701534e-01
 -1.7906858e-04
  3.8676810e-01
 -2.8419483e+00
  3.7590182e-01
  3.3371615e-01
 -6.6655310e-05
 -2.2579098e+00
  6.1105275e-01
 -2.3832859e-05
  8.5250348e-02
 -2.0239520e+00
  3.5270777e-01
  1.2560630e-06
 -1.4530403e-04
 -3.2378554e-01
  7.0216262e-01
  1.1010143e-05
  2.0025701e-03
 -2.5475466e-01
  6.2140167e-01
  3.1398371e-04
 -3.6937829e-02
 -1.0775051e+00
  3.3028272e-01
 -1.3687447e-04
  2.6182331e-02
 -9.3887420e-04
  3.6943793e-01
 -7.4364194e-05
  1.5944816e-04
 -3.8067320e-01
 -2.5056750e-03
  1.0631828e-04
 -5.8157628e-05
  9.6338820e-01
 -2.1625346e-02
 -3.5704150e-05
  1.9457070e-04
 -1.8043298e-04
  2.1567463e-04
 -9.2393486e-05
 -1.1780092e-05
 -3.6978530e-05
 -8.5411148e-06
 -1.5426775e-05
 -1.1797382e-04
  3.0407409e-05
  3.7234390e-04
  1.1115667e-05
 -2.1100296e-04
 -2.9169245e-05
 -1.3445166e-04
 -5.1799561e-05
 -5.4695865e-05
 -7.8691344e-05
  4.6564060e-06
 -4.3966498e-05
  2.6701720e-05
 -4.6720643e-06
  3.1138884e-06
  1.2024429e-04
  1.7068609e-05
 -1.4376692e-05
  1.0525141e-04
  4.4256094e-04
  1.7645398e-04
 -7.1721780e-07
 -9.5725882e-05
  9.8113480e-05
 -4.5237906e-05
 -2.1541504e-05
  2.6534917e-05
  4.6036996e-05
 -6.5829256e-05
  6.9844471e-05
 -2.3834526e-05
  3.7406859e-05
  2.2865298e-04
 -1.1914207e-04
  1.8536445e-04
  3.8274223e-07
 -1.3243809e-04
  1.0104113e-04
  1.1117817e-05
  2.3893310e-05
 -2.8201863e-05
  1.2393451e-04
  1.5967588e-04
  4.1262057e-05
  8.4871943e-05
 -1.4151617e-04
  1.9200510e-04
  8.4141553e-05
  3.0106476e-05
  2.6013615e-05
 -1.1534760e-04
 -4.3396034e-05
 -2.1758375e-05
  7.1318063e-05
 -6.4598251e-05
 -1.6066964e-05
  3.7132475e-05
 -1.2843410e-04
 -2.8527382e-05
  2.3776393e-04
 -1.0692390e-04
 -1.7613289e-04
 -7.1020991e-06
 -6.5587148e-05
  6.5520981e-05
 -5.3507676e-05
 -1.8686845e-04
 -8.6990631e-06
 -7.6112636e-05
 -2.7166276e-05
 -1.7425360e-05
 -9.8251068e-05
 -1.0148586e-04
 -9.8350683e-05
 -6.7316767e-05
  1.4252782e-05
  1.6136777e-05
 -7.4862273e-06
 -1.5187216e-05
 -7.6356941e-05
 -9.8523196e-06
 -8.6051310e-05
  1.2692407e-04
  6.3704021e-05
 -7.9943020e-05
  9.3536873e-05
 -3.3038197e-04
 -1.4782169e-04
 -3.9706001e-06
 -1.2221193e-04
 -2.2202474e-05
 -1.0391382e-04
  4.6805209e-05
 -1.7977574e-05
 -1.2872519e-04
 -1.4665153e-05
  1.5702962e-04
  2.2513821e-04
 -7.6995557e-06
 -3.6644302e-05
  3.2373791e-05
  4.4646884e-05
  1.4447762e-05
 -4.7732818e-05
 -9.7911034e-05
 -6.5694752e-05
  9.5539188e-05
  7.2388801e-05
 -9.9008132e-05
 -1.7666977e-04
 -9.8576922e-05
  5.2074589e-05
 -2.1321319e-04
 -1.0484294e-04
 -2.5165611e-05
 -1.3778986e-05
  2.9201028e-05
  1.3216777e-05
  5.8792204e-05
 -9.0622074e-05
  3.0082852e-05
  1.3384905e-04
 -1.4152785e-05
  1.8436629e-04
 -2.5185604e-05
 -4.2909036e-05
 -1.0535587e-04
  9.8745812e-05
  4.6547444e-05
 -5.8162546e-05
 -4.2744294e-05
  9.2497670e-05
  1.0056529e-04
  4.6665509e-06
 -1.2428603e-04
  1.3703750e-04
 -6.9959504e-05
  8.0568425e-06
  9.8852091e-05
 -1.0500483e-04
 -5.1963514e-05
 -1.0728553e-04
 -3.5498237e-05
  2.2538852e-04
 -1.5704928e-02
 -1.1278959e-04
 -1.2076332e-04
 -1.6166157e-01
 -1.1118722e-05
  9.4570569e-05
 -3.2527211e-01
 -1.3980459e-04
 -3.3512253e-05
  2.4110907e-01
 -4.8397565e-01
 -6.1865088e-05
  1.9844429e-05
 -1.0247555e+00
  2.3769726e-05
  1.6764483e-04
  3.0799551e-05
 -2.7229458e-01
 -8.9167781e-02
  5.2372368e-05
  3.0984636e-02
  9.1137681e-06
 -1.5769845e-02
  6.3399246e-05
 -4.1208175e-05
  3.1052050e-04
 -4.1308433e-01
 -2.6978925e-05
 -4.7923229e-05
  6.1006643e-02
  1.5748967e-01
  7.5003467e-05
  6.9389731e-05
  3.9613919e-06
 -2.0385457e-06
  1.3089654e-04
  9.9131554e-05
 -4.2841125e-01
 -2.7127628e-05
 -8.5255684e-05
 -5.0461109e-05
  7.3900312e-02
  2.3893933e-04
 -4.7327601e-05
 -2.0449779e-04
  3.9075494e-02
  5.0660361e-02
 -9.4078596e-06
  5.4204036e-05
  3.5447531e-05
 -5.7640264e-05
  6.5202134e-05
 -1.9995427e-04
 -5.3481930e-05
  5.4641812e-05
  6.7880763e-05
  6.8101930e-05
  9.0963631e-06
 -7.7518409e-05
 -1.2846900e-05
  1.4561694e-04
  1.7337469e-04
 -1.8811574e-04
 -3.2320291e-05
  3.5459321e-05
  1.5515657e-04
  1.3847660e-05
 -4.3976735e-05
  6.9386500e-05
  7.7564167e-05
 -1.4841897e-04
 -1.0716281e-04
  8.0104954e-05
 -8.0935104e-05
  2.8611332e-05
 -1.2781790e-04
  4.3757907e-05
 -2.6290281e-05
  9.1233880e-05
 -2.4024634e-05
  1.7806675e-04
 -1.1366099e-05
  1.8071511e-04
  4.2148912e-04
 -1.2432212e-04
 -6.6388934e-06
  5.2599557e-05
 -1.3563273e-04
 -2.3189122e-04
  1.1386757e-06
  4.6874604e-05
 -1.5455618e-05
 -4.7848406e-04
  8.5849060e-06
 -1.1742211e-05
 -1.4021384e-05
  9.5283453e-05
 -2.4502206e-05
  9.6323238e-05
 -1.9823325e-04
 -5.6668800e-05
  6.8296122e-06
  7.4638323e-05
  4.6986048e-07
 -6.0623552e-05
  1.4363309e-05
 -6.7539564e-05
 -3.6441952e-06
  3.3553512e-04
 -3.1698160e-05
 -9.1234670e-06
  2.5667247e-05
 -2.1442513e-04
 -3.4309865e-05
 -6.1022645e-05
 -8.2175626e-05
  1.7598832e-04
 -1.0930754e-05
  2.2587918e-04
  5.9357193e-05
  8.9395449e-05
  1.4513289e-04
  3.7618000e-05
 -7.2361894e-07
 -7.1779934e-05
  2.8778059e-05
 -5.2667659e-05
  5.2344702e-05
  3.1387342e-05
 -8.6292595e-05
 -8.8073955e-07
 -2.2998809e-05
  2.6049267e-04
  2.3491766e-06
  1.7369352e-05
 -1.5253220e-04
  3.2323526e-04
  1.0063698e-04
  6.9366324e-05
 -1.0739076e-04
  4.9248989e-05
  1.0616275e-04
 -8.4301619e-06
  7.9895282e-05
 -1.0708561e-04
 -2.5227633e-05
 -4.6152338e-05
  7.1369024e-05
 -2.1417784e-05
  2.2589118e-04
  8.2213439e-05
 -4.3197328e-05
 -2.3010334e-05
 -7.0261939e-07
 -1.3304685e-05
  1.6582724e-05
 -8.1408427e-05
  3.2343017e-04
 -7.4646537e-06
  9.8209654e-05
  5.0991521e-06
  1.3597093e-04
  3.6957303e-05
  2.4803163e-04
  1.8595146e-04
 -3.2610867e-05
  9.8961187e-05
  1.6013912e-05
 -1.4727679e-05
 -2.7918779e-05
 -5.0153270e-05
  1.8730346e-04
 -6.7307708e-05
 -7.2161871e-05
 -8.1137812e-05
 -2.4555318e-04
  4.8655325e-05
 -6.2897423e-05
  1.1514387e-05
 -3.2967793e-05
 -1.1082532e-04
 -3.1751293e-05
 -6.8299771e-05
 -5.9210965e-06
 -3.5498764e-05
  3.6301852e-05
  4.4723780e-05
 -1.6512448e-04
  2.1184875e-05
  2.3942234e-04
 -5.1323263e-05
 -4.4979373e-05
 -4.7192247e-05
  1.2289584e-04
 -3.2769065e-05
  2.0563870e-05
 -1.0065412e-04
 -1.0929679e-05
  6.3731735e-05
 -3.3467444e-05
 -3.7456943e-05
  1.1588802e-04
 -3.6763369e-05
 -1.3734795e-04
 -1.0828685e-04
 -5.8804962e-06
  2.1365060e-05
 -2.3009950e-05
 -1.6007001e-04
 -1.5602709e-04
 -4.0093630e-05
  2.3022692e-05
  1.5478460e-04
 -1.0015002e-05
 -5.3513770e-05
 -3.4729292e-05
 -6.2946878e-05
 -9.2785507e-05
 -7.3922027e-05
 -2.1018009e-04
  1.0827148e-05
  1.6377480e-05
 -6.9394264e-05
 -1.0471280e-04
  7.9220605e-05
  1.5559289e-04
 -1.1052458e-04
 -1.8155255e-04
  2.4915375e-05
 -1.0096625e-04
  5.7715446e-05
  1.5715077e-05
 -2.4009523e-05
 -5.3624494e-04
  6.1047227e-05
 -4.8288053e-05
 -6.5554141e-06
  2.4102936e-05
  1.5394717e-04
  6.2209816e-05
  8.1027472e-05
 -5.1234470e-05
 -1.3768532e-05
  2.3346482e-04
  3.6678484e-05
  3.4728695e-05
 -8.1221851e-06
  2.7344864e-05
 -9.6877811e-05
 -4.7227084e-05
  4.0863724e-05
  1.9550054e-05
  1.1132932e-05
  8.9490328e-05
 -1.8138245e-04
 -4.0332743e-05
  1.1977931e-04
 -3.9718278e-05
  4.6433848e-05
  1.0948308e-04
 -6.9826900e-05
  1.6435102e-04
 -4.7756654e-05
 -5.1627136e-05
  9.3782108e-07
  1.4775680e-04
  9.3915645e-05
  6.2493506e-05
  5.4199318e-05
 -2.5025806e-06
 -1.1934969e-05
  6.9238769e-05
 -1.0098292e-04
  1.0698608e-04
  3.2298751e-05
 -2.5616810e-05
  1.4305431e-04
  4.2460084e-05
 -1.1156034e-04
 -1.1505625e-05
  1.9114072e-05
  2.6028789e-05
  2.6077400e-05
  5.2733460e-05
 -2.3081031e-05
 -3.9718620e-05
  1.6497205e-04
 -5.0643339e-05
  6.1293122e-06
  1.2087201e-04
  1.2468990e-04
 -1.2258477e-05
  4.7791793e-05
  1.1002365e-04
  2.7836579e-06
  1.4646544e-05
  3.0852418e-05
 -1.0985719e-04
  9.6376461e-05
  1.3104041e-05
  5.8828955e-05
  7.6944907e-06
 -1.4190984e-04
 -1.7305787e-04
  1.4718690e-05
 -4.6689161e-06
  8.3450766e-05
  3.5007219e-05
  8.8371227e-05
 -4.9167138e-05
  6.0152834e-06
 -6.0048063e-05
  8.7560111e-05
  1.0729271e-04
  2.4606228e-05
 -1.4055276e-04
  4.0101177e-06
  2.2297018e-04
 -4.8320074e-04
 -1.5054866e-05
 -6.2025887e-05
 -3.5581394e-05
 -7.3010859e-05
 -3.8529961e-05
 -1.0279303e-04
 -4.8717404e-05
  3.0004532e-05
 -4.1433377e-06
 -7.1416645e-05
  4.5051902e-06
  8.0899546e-05
 -1.0314496e-04
 -4.5479595e-05
  8.7337008e-05
  2.1942721e-04
 -4.8094789e-05
  1.3772227e-04
  2.0603158e-05
 -4.3993772e-05
 -7.7406403e-06
  9.4718496e-07
 -3.9525796e-05
 -8.3333034e-05
 -6.4058368e-05
 -9.9581717e-05
  1.3729704e-04
  1.3300015e-04
 -3.5715173e-05
 -2.3796509e-05
 -4.6982805e-05
  1.1096542e-06
  2.4377953e-04
  2.3923181e-05
  6.1771476e-05
 -4.6295914e-05
 -7.8151053e-05
  2.2768879e-06
 -1.3464531e-04
 -4.3847722e-05
 -5.3771379e-05
  5.5102242e-05
 -6.3537547e-05
  1.1752175e-05
 -1.2125617e-04
 -4.0451848e-04
  6.9474472e-06
 -1.4400260e-04
  4.0239418e-05
  1.1182484e-04
  6.0549019e-06
  9.8117482e-05
 -5.6712324e-06
  3.6313193e-07
 -2.5598073e-04
  7.3592164e-05
  6.0672783e-06
 -1.7101793e-05
 -1.0951829e-05
 -4.2355055e-06
  4.1433330e-05
 -1.5383228e-04
  8.7921631e-05
 -4.4611781e-05
 -5.0127372e-05
 -6.6399472e-05
  8.9411660e-05
  2.4628862e-05
 -1.0469502e-04
 -2.1488571e-05
 -1.4147544e-05
  1.3850824e-05
 -4.0422881e-05
 -6.1823099e-05
  5.3423249e-05
 -6.9858188e-06
  6.6458133e-06
 -2.6314885e-05
 -1.5206449e-05
  1.8587985e-04
 -6.4758080e-07
  4.8442063e-05
 -9.3958033e-06
  1.0426726e-04
 -4.4820892e-05
 -2.2775399e-05
 -1.9738081e-05
  5.3109809e-05
 -2.3497909e-05
  3.5887115e-05
 -4.5739591e-05
 -3.6797621e-05
  5.8743401e-05
  3.5841859e-04
  1.9957274e-04
  1.2344170e-04
 -9.3952360e-05
  6.5286746e-05
  5.9912549e-05
  4.8362854e-04
  2.7758535e-04
  1.0642096e-04
  9.2133167e-05
  5.8784208e-05
  4.4796150e-05
  4.4587345e-05
  6.0059981e-05
  1.0156882e-05
  4.3493063e-05
 -1.8201268e-05
 -2.0237649e-05
 -1.3563933e-05
  1.0513029e-04
 -2.2072520e-05
  3.1369895e-05
 -6.5597742e-05
 -2.7087837e-04
  2.1274358e-05
 -1.1610487e-05
 -1.8456936e-05
 -2.8991507e-04
  3.7211008e-05
  1.8755904e-04
 -1.7795235e-05
  8.2583392e-05
 -2.2194297e-05
 -2.4038052e-05
  3.1937619e-05
 -1.9770374e-05
  1.1943906e-04
  5.4696171e-05
  1.3902428e-05
  1.9374778e-05
  2.6180953e-05
 -1.6080537e-04
  1.4615156e-06
  3.4024430e-05
  8.5505650e-05
 -7.2600022e-05
 -1.3876521e-05
  7.7169258e-05
  2.9866587e-05
 -1.5344111e-04
  1.2596523e-05
  6.9005109e-05
  3.3665815e-06
 -1.8503013e-04
  4.0000727e-05
  1.0424124e-05
 -3.0683124e-05
  1.3230363e-04
 -3.6117803e-05
  1.9852911e-05
  7.6279248e-05
 -4.6708334e-05
 -3.8813479e-04
 -1.1718403e-04
 -1.2860642e-04
 -3.3832228e-05
  3.3479053e-05
 -4.0899766e-05
 -3.4240923e-06
  9.5556079e-06
 -8.6548316e-05
  1.0849247e-04
  7.0225769e-06
  4.7775942e-05
  2.3775374e-05
  2.5119067e-05
  1.2199172e-04
 -5.9209495e-05
  2.7048850e-04
  7.3110008e-05
  2.4296521e-04
  4.5487377e-05
  1.4390863e-06
 -6.1151572e-05
  8.4818959e-05
  1.3529741e-06
 -6.9556620e-05
  8.8188703e-05
  1.3342750e-04
 -8.9760142e-05
 -2.9907884e-05
 -1.9334742e-05
 -1.4291031e-05
  9.3220973e-05
 -4.6277233e-05
  7.0681795e-05
 -5.8015266e-05
  3.0650095e-05
  6.4446399e-06
 -7.7845543e-06
 -1.9333579e-06
  2.4454750e-05
  3.9178925e-05
 -4.2570031e-05
 -1.4917653e-04
  5.5534940e-05
  1.1230398e-05
 -2.5226748e-06
 -2.7924767e-05
  1.8696741e-05
  1.8557505e-04
  3.5826779e-05
 -5.2440497e-05
 -1.2916701e-05
 -4.5306409e-05
  2.4841162e-05
 -1.9499172e-04
 -1.4702651e-04
  5.2177315e-05
  1.5702832e-04
 -1.3738245e-04
 -8.4610961e-05
 -6.5971137e-05
 -1.2835571e-05
 -1.2790167e-05
 -4.2202868e-05
 -1.1648310e-04
  5.2124604e-05
 -3.0631480e-05
 -2.7360313e-05
  1.0621693e-04
 -3.3889559e-05
 -2.6028019e-05
  3.8111643e-06
  1.1327252e-04
 -5.1884686e-05
  5.5580662e-05
  8.8980058e-05
 -1.6635136e-05
 -2.3791392e-05
 -8.0082631e-05
 -3.2787008e-04
  1.0714803e-05
  1.1308441e-05
  9.5173484e-05
  5.9481907e-05
 -1.0438474e-05
  7.8119287e-05
  2.1159956e-04
  5.4120746e-06
  6.7906003e-05
 -2.0066431e-05
  3.9022503e-05
  6.8526635e-05
 -5.6293691e-05
 -9.9014091e-05
 -1.1394412e-05
 -3.0569619e-05
 -8.5906024e-05
 -3.5727444e-05
  7.6523764e-05
  4.6206482e-05
  9.4633979e-06
  3.3443743e-05
 -1.3607679e-04
 -4.1897194e-05
 -1.4901327e-04
 -4.0591993e-05
  6.0239061e-05
  6.8107765e-05
  4.3250951e-05
 -5.1082254e-05
 -2.8813900e-05
  1.0081223e-04
  2.0908951e-06
  2.2873062e-05
 -2.0099753e-04
  1.0543022e-05
 -1.1792544e-04
  2.4254070e-06
  4.3374807e-06
  2.4495675e-06
  1.0438025e-04
  4.3811524e-05
 -2.3473141e-05
 -5.1993848e-05
  2.9012072e-05
 -1.1206812e-05
  1.6266841e-04
  4.7590362e-05
 -4.4465763e-05
 -3.7991270e-04
  1.6729698e-04
  2.1399175e-05
  8.4238738e-05
 -4.3431952e-05
 -8.1842963e-06
 -3.7227364e-05
 -3.9139013e-06
  3.5141449e-05
 -1.7382071e-04
 -1.2571507e-04
 -6.5940612e-06
  3.0588126e-05
 -1.0566333e-05
 -1.8759817e-04
 -1.1308700e-05
 -7.5428281e-05
 -4.9047754e-05
 -6.9389265e-05
  1.1101265e-05
 -2.3702580e-05
  1.0142877e-04
 -1.8506835e-04
  2.8095208e-05
  6.8933346e-05
 -1.2816708e-04
 -1.2323151e-04
 -7.4664254e-05
  2.2058618e-04
 -6.9079848e-05
 -4.8035450e-05
  5.2703905e-05
  2.8781858e-06
 -1.6801470e-04
 -4.9178343e-05
  1.2192425e-04
  2.3425541e-04
  9.3014358e-05
 -1.1566105e-05
 -2.0926524e-05
  1.7566783e-05
 -4.4117987e-05
 -9.4209288e-05
 -4.3807191e-05
  5.2610580e-06
 -2.0885780e-05
 -5.6543387e-05
  1.5625899e-04
 -1.1028003e-04
  5.1758318e-05
 -7.2295246e-05
  2.6013239e-04
 -1.0663461e-04
  2.1721925e-04
  1.1797083e-05
  1.7063855e-06
 -6.1412211e-05
  5.1096620e-05
  2.1968679e-04
  9.9601399e-05
 -9.5606629e-05
 -1.1692548e-04
  1.9318871e-04
  1.2271640e-04
 -3.5788276e-04
  2.0003090e-05
  2.3324482e-04
 -5.8829897e-05
 -6.8324407e-06
 -5.2942578e-05
  4.7694266e-06
  8.1571663e-05
  7.6805190e-05
 -1.4423812e-04
 -1.0213369e-05
  5.7923218e-05
  7.4327418e-06
  6.9110232e-05
 -3.7566260e-05
  1.2965697e-04
 -4.9327246e-05
 -5.7720867e-05
 -1.8621188e-04
 -1.3370757e-04
 -1.7158281e-04
  4.9007082e-05
 -5.2179412e-06
  9.8629362e-06
 -1.2365656e-04
  1.9853529e-05
 -7.5718803e-05
 -3.2470933e-05
 -5.2683932e-05
 -1.9683057e-04
  2.2731491e-04
  6.2455394e-05
  2.3972082e-06
 -1.3507283e-05
 -3.2389112e-04
 -3.4555105e-05
 -2.5503768e-05
 -1.4414097e-04
  4.7321781e-05
  7.1433424e-05
  7.6212103e-07
  3.3991575e-05
  6.5574932e-05
 -1.1864896e-04
 -1.3729776e-05
  2.4505698e-06
  2.7774517e-05
 -1.1255044e-05
  6.2586812e-05
  3.9953185e-05
  3.7699847e-05
  1.1224129e-05
 -8.0948623e-05
  2.1089303e-04
 -1.1385583e-04
 -6.7611269e-05
  2.4096089e-05
 -5.4823347e-05
 -4.2806325e-05
  1.2910795e-04
  3.6498721e-05
 -3.1303443e-04
 -1.5555900e-04
 -4.2706080e-05
  4.5226748e-06
 -8.4473024e-05
 -1.0455497e-04
  7.4171927e-05
  8.7823559e-05
  1.4053141e-04
 -3.5222965e-05
 -3.7437650e-05
  3.3786931e-05
  6.1940147e-05
  8.8179411e-05
  6.8810936e-05
  3.4450411e-05
 -5.8465675e-06
  2.7328571e-05
 -1.4073042e-04
 -1.0822853e-04
  3.5773189e-06
 -1.3546911e-05
 -4.4371111e-05
 -5.2596129e-06
  1.6540505e-05
 -3.2427310e-05
 -2.3106173e-05
  2.4769732e-05
  1.6103349e-04
 -8.8473345e-05
  6.1437771e-05
 -5.1801642e-05
 -1.6975759e-04
  5.2577998e-05
  6.8688583e-05
  4.3129271e-06
  7.8105026e-05
 -6.1169048e-05
  1.5678845e-05
 -1.5725211e-05
  4.1080923e-05
 -2.4207835e-05
 -7.7794051e-05
 -4.9563612e-05
  9.3938252e-05
 -6.5567794e-05
 -9.3839390e-06
 -3.3038894e-05
  3.3975462e-05
 -3.7581142e-06
  1.7455322e-04
 -4.5711135e-05
 -6.8381749e-05
 -9.0324829e-05
  2.9539446e-05
  6.5087470e-06
 -1.9003048e-05
 -2.4047622e-05
 -4.2105235e-05
 -2.1638477e-06
  1.2464086e-04
 -6.4365740e-06
 -5.1683764e-05
 -3.4171742e-05
  7.2521638e-05
  3.8575159e-05
 -1.1314342e-04
  4.1104246e-05
  4.2924250e-05
  2.7413957e-06
 -2.5516441e-05
  5.4720989e-05
  5.3895837e-05
 -1.0246831e-05
  9.3107425e-05
 -7.8306024e-05
 -1.0522534e-04
 -6.7261411e-05
  7.1987553e-05
  1.0681115e-05
 -3.4915422e-05
  4.2388667e-05
  9.0422565e-03
  1.4747739e-04
 -4.7261536e-05
  4.8550237e-02
 -2.2784573e-04
 -3.7440077e-06
  1.9761812e-05
 -7.9158686e-05
  1.4438129e-04
  7.9394695e-06
 -8.1625833e-05
  3.3861938e-01
 -5.4886416e-02
  2.0381852e-04
 -2.5543955e-05
 -9.1219612e-05
  1.7428762e-04
 -7.9821308e-05
 -6.3968713e-05
  8.7616500e-05
  2.4303177e-05
  6.8057765e-05
 -4.4676723e-05
  7.5898271e-05
 -9.9429290e-06
  2.9136356e-05
  4.4085082e-06
  4.5856386e-03
  1.4857636e-05
 -2.1955451e-05
  1.1972675e-04
 -3.0342478e-04
 -2.9143042e-04
 -3.3282879e-05
  1.6268881e-04
 -1.4886347e-04
  1.0526243e-05
 -7.3363681e-06
 -1.6927309e-04
 -2.1638172e-05
  7.8024932e-05
  1.3099557e-04
  9.3277529e-05
  1.5649128e-04
 -8.0735444e-05
  3.1543485e-05
  8.1793551e-05
  1.0505757e-04
 -1.6054128e-04
 -1.1508062e-04
 -1.5219774e-05
  4.3051816e-05
  4.9189854e-05
  2.3950162e-05
 -3.6525526e-05
  3.6328351e-05
 -8.3962084e-05
  8.0424135e-05
  6.3915526e-05
  1.6285894e-04
  6.1587707e-05
 -2.3798094e-04
 -1.2340187e-05
  7.1803788e-07
  6.1465202e-05
 -4.4710654e-05
 -8.9595915e-06
  3.3292361e-04
 -3.2510806e-04
 -4.6590125e-05
 -3.3646866e-04
 -3.3991964e-05
  1.4956891e-04
  2.7107772e-05
  1.7418059e-04
 -4.0170039e-06
  1.5205100e-05
 -1.7840308e-04
 -9.5928017e-06
 -1.3194875e-05
 -1.3151363e-04
  1.4982479e-04
  1.6434332e-04
  2.7688174e-04
  2.5901311e-06
 -6.1153660e-06
 -1.3677900e-05
 -7.5681375e-05
 -5.6020821e-05
  2.6078369e-05
 -1.2266694e-04
 -1.0842117e-05
 -1.0172518e-05
  5.9967631e-05
  6.5360815e-05
 -1.4676602e-04
 -3.9778001e-06
  1.6024888e-04
  9.4845873e-06
  9.5396004e-05
  3.2549488e-06
 -9.8912911e-05
 -6.6923400e-05
  1.6080990e-04
 -6.9340681e-06
 -1.9093645e-04
 -2.3246230e-05
 -2.4761399e-05
  1.3684289e-04
 -6.8610963e-05
 -8.0639918e-05
  2.9098487e-04
 -8.6179345e-05
  3.1753891e-05
 -6.0168371e-05
 -3.2110151e-05
 -1.0535133e-04
  1.6689541e-04
 -2.5444047e-06
 -6.0934203e-06
 -2.0331598e-05
 -2.7192518e-04
  2.7652682e-06
  1.0884957e-05
 -8.3853789e-05
  2.2628741e-05
  1.0088068e-04
 -3.5814342e-06
  6.5073669e-05
 -4.0519049e-06
  3.9670802e-05
  2.6101801e-05
 -5.2930454e-06
 -3.4907334e-05
 -1.6325746e-05
 -1.0392161e-04
  2.1423239e-04
 -3.7990241e-05
  6.7272442e-05
  5.7252073e-05
  2.4319372e-04
 -1.2488021e-04
  3.2949822e-05
 -2.9604462e-06
 -8.4282612e-05
 -8.3859566e-05
  3.8714083e-05
  1.1269245e-04
 -2.4292796e-05
 -4.0172359e-05
  9.2548958e-05
 -5.5300898e-05
  1.6346714e-05
 -6.4511631e-05
 -8.3571518e-05
  1.8249029e-05
  6.5498944e-06
 -1.2268089e-05
 -1.2735900e-04
  2.9052858e-04
 -1.9646752e-04
  1.3201009e-04
 -2.3291414e-04
 -9.7301927e-05
  2.9396821e-05
 -2.0709600e-04
  2.4096135e-04
 -3.0997715e-05
  1.1846624e-04
  2.3539994e-04
  2.4751753e-05
  3.8711896e-05
 -7.6522098e-05
  1.3386336e-04
 -1.5676285e-04
 -8.5793916e-05
 -8.7174376e-05
  4.4127801e-04
  3.0147404e-04
  1.6584517e-04
  3.4892255e-05
 -1.3476022e-04
 -1.6600610e-04
  4.3911004e-06
  6.3932792e-05
  2.4837349e-05
  1.3136042e-04
 -6.4685337e-05
 -1.1768198e-05
 -2.6953536e-05
  3.2100128e-05
  6.0903854e-05
 -7.8093421e-05
  1.3022871e-01
 -4.4279939e-05
 -8.4303720e-06
  2.9296893e-01
 -2.9876170e-05
  1.7294698e-05
 -1.8306445e-04
  2.7175102e-01
 -1.4381509e-05
  8.1125345e-06
  1.4113426e+00
  5.8044994e-01
 -2.2964572e-04
 -1.5624741e-04
  4.3221137e-01
  2.4001261e-03
  2.1644165e-04
 -1.0673179e-04
 -3.4461371e-04
  1.3958379e-02
  1.6402253e-05
  1.7050574e-04
 -3.9269292e-01
  1.7386151e-02
 -7.0594200e-05
 -3.4367587e-04
 -1.5326805e-01
 -2.8735822e-01
 -6.4284831e-02
 -1.5760929e-04
  2.8778141e-04
  1.6451751e-04
  4.3213582e-05
 -5.4850596e-05
  4.9060997e-01
  2.4491479e-04
 -6.0525645e-06
  1.3859138e-04
 -5.0599538e-05
 -1.1857894e-04
  5.7666767e-07
  2.3197642e-04
 -1.3095614e-05
 -1.5364341e-02
  1.4018442e-04
 -1.9001699e-04
 -2.2408780e-05
  2.6271631e-05
  3.6399357e-05
 -3.5924368e-05
  1.0154946e-01
  1.8315724e-04
 -6.1385166e-05
 -8.0935046e-02
  6.8512039e-05
 -6.6411034e-05
  1.3388200e-05
  6.4227313e-02
 -4.2421302e-06
  9.6931639e-05
  6.0685408e-05
  1.8840806e-04
 -1.5340587e-05
  9.2426999e-06
 -1.5958637e-04
 -1.2382973e-04
  3.1931102e-04
  3.6210216e-07
  4.3371156e-02
  4.6438482e-02
 -2.9328355e-04
 -4.7836870e-06
 -1.9377747e-05
 -5.2338281e-05
 -5.8775011e-05
 -3.4514876e-05
 -6.2507519e-05
 -1.2627667e-04
 -3.8519524e-06
 -1.4756754e-04
  3.3130134e-05
  1.0959833e-04
  9.6335891e-05
 -1.7178892e-05
 -6.8423767e-03
 -1.7762408e-05
  5.1675015e-05
 -7.1577379e-05
  7.6830825e-03
 -6.9328031e-05
  1.8122695e-05
  4.6928195e-05
  1.8369772e-04
  5.3790773e-05
 -7.8153651e-05
 -1.1848610e-04
 -9.6217140e-05
 -1.8262271e-04
  8.1146918e-06
 -7.8314304e-05
 -1.5153992e-04
 -2.8430711e-04
  2.5841504e-05
 -8.8544220e-02
 -3.4334231e-04
  9.7516328e-05
 -1.5449559e-05
 -2.6660854e-01
  7.1153197e-05
  1.2072006e-04
 -1.3682377e-04
  1.1654454e-04
  1.3093272e-05
  1.7300745e-05
 -5.4909102e-05
 -7.3810581e-05
 -1.4837414e-04
  5.4983375e-05
  4.1859235e-05
 -3.3156734e-04
  6.0169674e-05
  2.5318252e-05
  7.6280361e-05
  4.9395162e-06
  4.4785847e-05
  2.4102557e-05
  3.7110087e-05
 -2.5111082e-04
  1.2802939e-06
  2.9022676e-05
  6.0742193e-05
 -3.9555609e-05
  3.5086841e-06
 -1.4387887e-05
 -6.9200185e-05
  3.5254179e-05
  8.3908453e-05
 -3.0338117e-06
 -7.9250358e-06
 -4.1645875e-05
 -1.5619131e-06
  5.5748111e-05
 -3.5713641e-05
 -3.5442612e-05
  8.4942494e-06
  1.6060312e-05
  1.2044453e-04
 -6.4601300e-05
  1.3983374e-05
  7.3275573e-06
 -1.1762959e-04
 -3.2354968e-05
  1.1152575e-04
 -4.5590819e-05
  4.0177729e-05
  4.2338448e-05
  4.4667933e-05
 -3.9848081e-05
  4.3436616e-05
  9.0791007e-05
  7.7415381e-05
  4.8042563e-04
  5.8321537e-05
 -2.6619822e-05
 -1.1119513e-05
 -7.8300036e-06
 -9.9049583e-05
  2.6583977e-04
  6.1187056e-05
  6.8572146e-05
  1.3458311e-04
 -2.3386390e-05
 -6.9415510e-05
  2.7230103e-06
 -1.8272095e-04
 -1.1892270e-04
 -3.6202477e-05
 -6.6237328e-05
 -1.8717199e-05
 -3.1121413e-05
 -7.0902900e-07
  2.0219863e-05
 -4.9752825e-06
  5.9667222e-05
 -9.5904994e-05
  1.3905721e-04
 -1.4240707e-05
 -5.0837847e-05
 -3.5812856e-05
 -1.1522729e-05
 -2.1274651e-04
  1.3023507e-05
 -2.3517632e-05
  1.7578472e-05
  2.3959590e-04
  1.9585241e-05
 -2.1582633e-05
  2.0383956e+00
  1.2442489e+00
  2.0866004e-05
 -2.8953714e+00
  3.2651305e+00
 -3.2534928e+00
 -1.2529966e+00
 -5.4208980e-05
 -2.1301539e-04
 -3.8561887e-01
 -4.1017893e-01
  8.4582210e-02
 -5.0114560e-01
 -7.0362866e-01
 -1.2346333e+00
  6.8219912e-01
 -1.0121545e+00
  4.9061200e-01
 -2.0929408e-01
 -5.6767988e-01
 -1.4511933e-02
  2.1151121e+00
 -7.2519565e-01
  3.2050067e-01
 -2.5116573e-05
  3.7513858e-01
  3.5286623e-01
  2.7044560e-04
 -9.1214818e-01
  1.8129712e+00
 -1.0813508e+00
  4.4048050e-01
  4.6135873e-01
  5.2386940e-01
 -9.0857700e-02
 -1.2427986e-03
 -4.0237153e-01
  2.1562080e-01
 -2.0239238e-01
 -1.4332481e-06
  3.0920380e-01
  5.2694291e-01
 -4.7311297e-01
  7.5549076e-05
  2.8146994e-01
  2.3600554e-01
  8.6341333e-01
  4.9251288e-01
  1.9510435e-05
  1.6947763e-02
  1.8325233e-01
 -1.7424934e-01
 -5.9611689e-06
 -1.2997308e-01
 -1.4019307e-01
  1.3990914e+00
  7.1471345e-01
  4.2849704e-05
  8.4807269e-08
 -6.2776999e-05
  1.1745440e+00
  1.1686447e-04
 -4.6115294e-01
  1.2408420e+00
 -3.9874244e-01
  3.7547809e-01
 -1.9196117e-04
 -5.6723100e-01
 -4.0481147e-01
 -6.0683435e-01
 -3.3602191e-05
  1.5637968e+00
 -8.0844635e-01
  6.3982058e-01
 -3.5731193e-02
 -1.0961862e-01
 -3.4799284e-01
  8.6184606e-05
 -4.3909088e-01
 -8.3914405e-01
 -9.1318411e-01
  1.0369764e-01
  1.8813996e-01
  1.9859202e-01
 -1.5469913e-04
 -1.5889514e-02
 -1.3048257e-01
 -6.8009627e-01
 -5.0813538e-01
  7.4522272e-02
  8.3476829e-05
  9.1094069e-02
 -7.7241566e-05
 -5.9924801e-05
  1.1699136e-01
  2.5260514e-01
  1.3965627e-02
  2.7142522e-01
  2.3726037e-07
  1.9046962e-05
 -1.3812676e-04
 -2.4015963e-04
 -7.7868353e-05
 -1.8975484e-06
 -4.7795551e-05
  3.5893860e-05
  3.4596951e-06
  6.1959254e-05
  4.1143062e-06
  8.2365310e-05
 -2.6180087e-05
 -1.7242073e-05
 -7.3434398e-06
  1.7837307e-05
 -9.3174021e-06
 -7.0756694e-05
  2.6636614e-04
  7.8469508e-05
  5.8206140e-05
  4.6028599e-05
 -1.7187957e-04
  8.2136175e-05
 -5.5688392e-06
  1.8681017e-04
 -1.1879656e-05
  1.4841706e-04
  3.9945517e-06
 -1.0076134e-05
  3.7279682e-05
 -1.4505870e-04
 -3.4133267e-05
  5.9150367e-05
 -8.2875136e-05
 -1.9286491e-04
 -4.1118095e-05
  2.1186228e-05
 -3.3592183e-05
  4.2564854e-05
 -8.2751221e-06
 -6.3739622e-05
  1.8044264e-05
  1.3538738e-04
  1.1890867e-04
 -1.4004458e-04
  2.4569847e-05
  2.2078339e-05
  4.3463970e-05
 -1.9760412e-04
 -2.7905214e-06
 -5.9221260e-05
 -2.2977316e-05
 -1.3276171e-05
 -5.4925589e-05
  1.4497947e-04
  2.4070510e-05
 -2.9658502e-05
  4.2940665e-05
  7.0494684e-06
 -9.8103674e-06
 -1.0947996e-05
  8.7088658e-05
  7.5205637e-05
 -3.0829007e-05
  9.5175237e-06
 -1.4505643e-04
 -3.7129746e-05
  2.2765613e-05
 -4.6608497e-05
  2.5186971e-06
  1.9981159e-04
 -2.2900723e-04
  1.9154146e-05
 -1.3563321e-04
 -1.2426965e-05
  3.7338745e-04
 -1.3979482e-04
  6.2342813e-05
 -1.7768965e-04
  7.0603164e-07
  2.6487500e-05
 -1.3656828e-04
 -1.1322614e-04
 -2.3023007e-05
  1.7535200e-04
  1.4602363e-06
 -5.0111325e-05
 -1.1369921e-04
 -8.7367938e-05
 -1.0334462e-04
 -8.7760294e-05
 -3.8858783e-05
 -4.0902316e-05
 -8.8387707e-05
 -7.9710744e-06
 -3.7960108e-05
 -1.0754210e-04
  5.8172838e-05
  6.3082669e-05
 -8.5639818e-05
 -2.1198808e-04
 -1.8019064e-05
 -4.1557025e-05
  8.2146376e-05
 -2.2973842e-05
  7.9809754e-05
 -3.1588442e-04
  1.2197564e-05
  3.4974641e-05
 -1.1754698e-04
  7.2933995e-05
  6.6959701e-06
 -4.3689865e-06
 -5.3176162e-05
 -5.5994752e-07
 -8.0800375e-05
 -3.0339401e-05
  3.7693273e-05
 -4.1316969e-05
 -1.5668321e-04
 -1.3568686e-06
 -6.0658949e-05
 -5.6618378e-06
  1.1953788e-06
 -1.1819933e-04
  3.8987278e-06
 -1.0877130e-04
 -6.7449801e-05
  4.4999919e-07
  3.0641510e-05
 -7.3618809e-05
 -3.4995093e-05
 -7.7105571e-05
 -1.3565714e-04
  1.7846311e-05
 -3.7756075e-05
  2.7522316e-05
 -3.7171554e-05
 -1.5888152e-04
 -4.4486376e-05
 -9.4470888e-06
 -1.1042212e-06
  1.0280631e-04
  2.4390796e-05
 -1.4342967e-06
 -5.7972946e-05
  4.6306512e-05
  1.3582741e-07
  1.3695126e-04
  1.2847521e-04
  9.0697795e-05
  1.0149010e-04
 -2.3205170e-02
  1.5346568e-04
 -7.3293435e-05
 -5.2752370e-05
  1.3470481e-06
  1.3191581e-02
  1.6599526e-05
  7.2959330e-05
 -7.0651236e-05
 -3.9672028e-02
 -5.7881043e-05
 -3.7631870e-04
  1.1381203e-04
  1.5986669e-05
  4.8623220e-05
 -2.3074914e-05
 -5.3790692e-02
  2.4613290e-01
 -1.5655422e-05
 -1.4601339e-04
  1.8125798e-01
  9.5402056e-06
  1.2926257e-05
  7.8090103e-05
 -9.0171226e-05
 -4.6474088e-05
  6.7151491e-06
 -2.3929133e-06
  5.1642419e-03
 -4.7186518e-04
 -1.0449689e-05
 -1.2166594e-04
  3.8154871e-05
 -1.7539045e-05
 -1.1633305e-04
  4.4208155e-05
  1.0369052e-01
  1.4073175e-05
  5.9733382e-05
  6.3337146e-05
 -2.5594816e-06
 -2.9320996e-05
 -1.0451394e-05
  8.8002591e-05
  1.9311556e-04
 -4.2910706e-05
  8.8915069e-05
  4.3380510e-07
  8.6850581e-05
 -1.1589472e+00
  1.2797344e-05
 -1.1521381e-04
 -6.8288566e-05
 -1.2134500e+00
  4.9551451e-01
 -1.2395714e-05
  1.5643190e+00
 -1.1399439e-04
  4.4573742e-05
  5.7377851e-01
  2.1102533e-05
  2.7649265e-04
  7.7326375e-01
  1.1212766e-04
 -6.4302549e-05
  2.0484340e-01
 -3.0151016e-01
  1.5880092e-05
 -4.2874188e-05
  1.2331466e-04
 -1.5877044e-05
 -9.2841590e-05
  2.7548891e-04
  1.6284916e-05
 -8.6613697e-01
  4.9650356e-01
  1.1366866e-04
 -8.9269350e-05
  3.8302383e-06
 -1.0762422e+00
 -1.6677953e-04
  1.4997677e-04
 -2.1880996e-05
  7.7270815e-05
  1.8755441e-04
  3.3295310e-01
 -1.9477835e-05
 -7.0777746e-06
 -3.4336968e-05
 -7.2681389e-05
 -9.8866811e-05
 -1.3497713e-04
  5.9542676e-06
  4.7478439e-05
 -1.7563398e-04
  1.2326236e-04
  5.6339235e-05
  2.0757565e-04
 -1.3378469e-05
  1.2264639e+00
  2.1966338e-05
  1.2637480e-04
 -1.3251778e-07
 -3.2159886e-01
 -4.7256351e-01
 -1.8956038e-04
  1.2209433e-05
 -5.1899166e-05
 -1.2674150e-05
  2.1150070e-01
 -2.3609804e-05
 -7.8565143e-05
 -1.6974540e-02
  1.4413675e+00
  1.4944625e+00
  1.3407366e-02
  1.0071115e+00
 -6.8279810e-02
 -5.1641633e-05
 -3.1350029e-01
  6.1999250e-05
 -1.7004251e-01
  1.3218796e+00
  1.1719918e-04
  1.7737560e-05
  5.6682712e-01
  1.3006479e-01
  7.3401105e-05
 -2.3815170e-04
  8.8000052e-05
 -2.5411608e-04
  4.8227022e-05
 -4.2440617e-01
 -3.9157976e-04
  5.4607767e-01
  2.3679118e+00
 -1.2376531e-04
 -1.5231081e-04
 -8.4876465e-03
  3.7712333e-01
 -1.3345316e-04
 -9.3880881e-05
  1.4580733e-05
 -2.7519049e-05
  2.3248731e-04
  2.0207553e-04
 -2.6833675e-05
  8.6019674e-05
  9.2738464e-06
  3.8128524e-05
  1.6950682e-02
  6.5287359e-06
  3.0583760e-05
  4.2233769e-05
 -3.1038722e-05
 -1.7819749e-01
  4.9684444e-05
 -1.7866771e-05
  2.1011612e-05
 -2.6848763e-01
  1.9011547e-01
  1.1227057e-01
  1.6281156e-04
 -1.9488320e+00
 -1.1465369e+00
 -1.1596792e-04
 -2.5497550e-02
  1.1417508e-01
 -2.2639690e-01
 -5.1913109e+00
  7.5112909e-01
  2.2170715e-01
  5.3775113e-02
 -1.9286313e+00
