nep4 1 W 
cutoff 6 4 61 16
n_max 9 7
basis_size 12 8
l_max 4 2 0
ANN 60 0
 -3.2518569e-03
  1.5052496e-02
 -9.7608892e-03
  1.7914638e-02
  5.3928571e-04
 -2.1531801e-03
  1.6772205e-02
  6.5830974e-03
 -4.1771708e-03
  2.8106822e-03
 -5.2784728e-03
 -9.8529840e-03
 -1.4687655e-03
  4.8538283e-02
 -1.7646542e-02
 -1.6464496e-02
 -1.4253635e-03
 -1.1162554e-02
 -7.4874605e-03
 -9.4983156e-04
 -6.1479039e-03
  9.3043065e-03
  1.0538709e-02
  5.7939971e-03
 -1.0845021e-02
 -2.3021251e-02
 -1.2136846e-02
 -1.4379653e-03
 -6.2758410e-03
 -6.4389929e-03
  1.4663563e-02
  6.1895126e-03
 -2.4937743e-03
 -3.8010343e-03
  1.1708778e-02
 -1.2977462e-02
  7.9788845e-03
 -7.9709766e-03
 -1.0027107e-02
 -1.0485954e-02
  1.8853156e-02
 -7.8414375e-04
 -1.4670391e-03
  1.3057968e-03
  8.5251611e-03
  1.1990676e-02
  1.7388320e-02
 -1.3574853e-04
  4.3041878e-03
  7.6300506e-03
 -8.0925733e-02
 -2.2761971e-03
 -1.1216281e-02
  7.2114393e-02
 -4.4467798e-04
 -1.4742778e-03
  7.5031497e-04
 -2.7272552e-01
  1.1892081e-03
 -1.5555217e-02
 -1.7384332e-02
 -4.6562338e-03
 -2.0862961e-01
  2.5797484e-02
 -4.8265685e-03
 -2.2443080e-02
  5.6015016e-03
 -2.5039870e-02
 -5.8062978e-02
  1.1429679e-02
 -1.9932486e-02
  1.5498585e-02
  8.4540099e-03
  4.5937570e-04
  2.8909419e-02
 -9.4591223e-02
 -1.6852349e-02
  1.1076812e-03
  7.9991639e-02
  4.1976408e-03
  1.7507982e-03
  2.5316016e-03
  4.1495524e-03
  4.0233013e-01
 -3.3137780e-02
 -4.0473738e-03
  1.4119819e-02
  1.0444359e-03
 -1.2213371e-02
 -3.9536100e-02
 -3.2588936e-02
  6.3192756e-03
  1.5116887e-02
 -1.2693809e-03
  6.4188293e-03
 -2.5775437e-03
 -2.2218673e-02
  2.9240665e-03
 -8.1753461e-03
  4.3263871e-04
 -1.9687624e-03
 -1.7845081e-03
  1.5696305e-03
  5.0868755e-03
 -1.7926517e-04
  2.5108630e-02
 -1.6184116e-02
  3.0673370e-02
 -3.2746721e-02
 -7.5986562e-03
 -9.0430416e-03
 -1.3279764e-02
  4.2346478e-02
 -1.8014790e-02
  1.3059887e-02
  7.3577897e-03
 -2.9743847e-04
 -6.5754340e-03
  1.0971420e-02
  3.8824149e-03
 -7.4822907e-03
  4.7935396e-03
  1.0483568e-03
 -1.7690143e-02
  5.6115575e-03
 -7.4426886e-03
  2.2211861e-02
 -8.1944121e-03
  3.3434296e-03
 -5.7539684e-03
 -1.9788673e-02
 -1.7865807e-02
  4.9630194e-03
 -4.9269530e-03
 -3.5462901e-03
  1.1185644e-02
  7.0994608e-03
  7.1520559e-03
  1.4398013e-02
 -2.7637659e-03
  5.1536108e-04
  7.0855226e-03
 -2.1612267e-03
 -9.5304158e-03
 -5.1563643e-03
  1.4952892e-02
 -1.0679376e-02
  8.7555451e-04
  4.8983116e-03
 -4.3105348e-03
  2.4651235e-02
 -8.0222478e-03
 -1.7480712e-02
  1.7853783e-03
  1.3055312e-02
  3.3146713e-03
  4.2373310e-03
  1.1758779e-01
  1.5207271e-03
 -3.9189160e-03
 -2.2438708e-04
  1.7434878e-02
 -4.4924270e-02
 -2.8587042e-03
 -8.5613420e-03
  9.1246799e-02
 -1.6158581e-02
  9.5726606e-03
  1.0374368e-02
 -1.6872493e-03
  6.5565504e-02
  9.0583330e-03
  1.5915361e-03
  5.8797292e-02
 -3.4877150e-03
  7.1079120e-02
 -7.0747696e-03
 -7.1979957e-03
 -5.8258097e-03
  3.4178407e-03
  8.2732709e-03
 -8.7189721e-03
 -4.5178849e-03
 -2.8372207e-03
  1.1918145e-02
 -3.0555595e-03
  2.4676999e-02
 -1.2143523e-02
 -3.5517123e-03
 -6.4566322e-03
  9.4285859e-03
  1.7209522e-02
  3.6579976e-03
  8.8775819e-03
 -8.4447274e-03
 -2.5662808e-03
  1.9368331e-03
 -7.8763869e-03
 -1.2808242e-02
  3.6567298e-03
 -5.7728426e-03
  3.5368972e-03
 -1.1361492e-02
  1.4622124e-02
 -2.6432720e-03
 -6.6838469e-03
 -4.7992603e-03
 -8.1777843e-03
  6.5160571e-03
  1.3627362e-02
  9.8783663e-03
  4.4320896e-03
  1.0720162e-02
 -6.8003233e-03
  1.2059220e-03
 -2.0197250e-03
 -8.1299240e-04
  1.3505893e-02
 -3.5725390e-03
 -1.1834193e-02
  1.1195587e-02
 -7.8335954e-03
  7.2335252e-03
 -6.0270242e-03
 -2.8037203e-03
  1.6188943e-03
  4.2967969e-03
  9.8786047e-03
  1.5613707e-02
  8.6385999e-03
  6.4002910e-05
 -5.4981224e-03
 -2.6600109e-03
 -6.1366251e-03
  3.4032608e-03
  8.5878605e-03
 -3.8928955e-03
 -3.3624561e-03
 -2.7253877e-03
  1.9148312e-03
  7.7187344e-03
  1.4134304e-03
  1.9264497e-03
  1.0838866e-03
  2.1085183e-03
 -6.8455506e-03
  1.9002167e-03
 -8.1944242e-03
  6.7824866e-03
 -9.5926318e-03
  3.0116004e-01
 -1.3892447e-02
 -3.1995565e-01
 -3.7192869e-01
 -1.0528202e-02
 -3.7243895e-03
  1.4505604e-02
  2.4794115e-01
 -1.8840715e-02
  2.3777163e-01
  1.6974275e-01
 -1.6967030e-03
 -3.2843253e-01
 -9.5972726e-03
  1.4096279e-02
  1.4388697e-01
 -1.0834016e-01
  1.2615757e-01
  7.3525896e-03
  1.0596849e-02
 -1.5025284e-03
 -8.6826514e-03
 -2.5737070e-02
 -1.3209096e-01
 -2.1318584e-03
  1.3158756e-01
  2.1861542e-03
  6.2398682e-03
  7.0551015e-02
  7.2299098e-03
  9.4953831e-03
 -1.8183279e-01
  5.3698597e-03
 -2.7457988e-01
  5.0926443e-02
  3.4970727e-03
  1.4135288e-01
 -2.2683845e-01
 -2.1971110e-02
  2.8538793e-01
  7.1822189e-02
  6.1676890e-01
  1.5743522e-04
 -9.9166029e-04
  6.2726729e-02
  1.7711985e-03
  8.9650806e-05
 -1.5380895e-02
 -7.9797450e-03
  1.8680416e-03
 -6.8392910e-02
 -4.5522591e-03
  9.4014871e-01
 -9.9230148e-02
 -2.1979999e-02
  8.6400745e-04
  1.8809564e-02
 -5.0161040e-01
  1.0350081e-02
 -5.7117462e-01
  3.0109850e-01
  6.7210956e-03
 -9.0746760e-01
 -6.5794438e-02
 -9.7648213e-03
  9.2081033e-02
  1.9000127e-03
  8.9921609e-02
  1.2245250e-02
  2.5244751e-03
  8.6182006e-02
 -4.5898128e-03
 -2.4328610e-02
  4.8770648e-01
 -1.1549570e-02
 -4.7775075e-01
  3.4331065e-03
  5.6035588e-03
  1.5902057e+00
  2.4275690e-02
 -9.9488553e-03
  1.4426462e-01
 -1.0102750e-01
 -2.5014859e-01
  4.1010439e-02
  1.1040535e-03
 -1.4136365e-01
 -1.1524604e-01
 -2.6194770e-03
 -5.7317447e-02
  1.1594991e-01
 -5.3621322e-02
  2.5540432e-03
  1.1004468e-03
 -4.9514705e-03
  3.3572563e-03
  2.0710748e-02
 -2.4973592e-03
  1.5223657e-02
  2.1220423e-02
  2.4060912e-03
  8.7441299e-03
 -7.0543987e-01
  2.0678206e-01
  3.2168219e-03
  9.9901622e-04
  1.1333869e-02
  1.0134672e+00
 -2.1023463e-02
  4.4669595e-01
 -3.4473144e-02
 -5.3350767e-03
  5.0519842e-01
  6.5377928e-02
  1.3887231e-02
 -2.0321775e-02
  9.0024181e-02
  4.3528810e-01
 -1.4261603e-03
  5.1311851e-03
  1.1338975e-01
 -3.6209813e-01
 -1.1760118e-02
  1.0808948e-02
  3.6478795e-02
 -7.7772284e-01
  2.3765212e-02
  3.9801406e-04
 -2.3970126e-01
 -1.9665205e-01
 -3.0858770e-03
 -2.1670768e-01
  5.2303232e-02
 -1.7972150e-01
 -1.0572352e-02
  9.2133423e-03
  1.2548861e-01
  2.3928447e-01
 -3.5023387e-04
 -1.8130922e-01
 -1.2049211e-01
 -1.4044595e-01
  8.2010860e-03
 -5.0531905e-03
 -1.9174223e-01
 -5.0599137e-03
  2.2489001e-04
  1.8521709e-02
 -1.3961080e-03
  7.7822983e-02
 -8.6247260e-03
  1.3010012e-02
 -8.7663643e-03
  4.6772263e-03
  8.2941391e-03
 -3.4608175e-03
  4.9920450e-04
 -4.9697659e-03
  2.7278257e-03
  3.4383198e-03
 -1.1406450e-02
 -2.9180756e-02
 -5.6299386e-03
  2.7226594e-03
  6.7720846e-03
  8.0307378e-03
 -1.9798672e-03
  8.4705595e-03
  2.9885380e-03
  1.4516719e-02
 -2.3684964e-04
  2.6116108e-03
 -2.8903133e-03
 -3.5979671e-03
 -3.4155133e-03
  1.8954935e-03
 -2.1417163e-02
 -2.7381864e-03
  3.2967012e-02
  1.3548821e-02
  2.8417851e-03
  3.0817043e-03
 -2.6229108e-02
  1.0211517e-03
  1.0944149e-03
  1.0498774e-02
  9.5352968e-03
  1.5694914e-02
 -1.2114945e-04
  1.0811414e-02
  8.3033061e-03
 -1.2575964e-03
 -5.6184274e-03
 -2.9912367e-04
 -1.3567697e-02
  1.0880298e-02
  2.9409870e-03
  7.9134293e-03
 -9.9855615e-03
  2.0353314e-03
  4.6495181e-03
 -4.0740105e-03
  1.3861405e-03
 -7.4486970e-03
 -7.0631704e-03
 -2.7752025e-03
 -1.3562974e-03
  6.2169703e-03
 -5.7641356e-03
 -1.6781655e-03
 -3.2568020e-03
 -3.9471951e-03
 -6.4923364e-04
 -9.3222903e-03
  3.2859563e-04
  3.5443408e-03
  5.1304265e-03
 -4.6024732e-03
 -1.8542756e-03
  1.7069647e-02
  8.5231280e-03
 -1.8570262e-03
  5.0700726e-03
 -1.0655842e-02
  5.1285820e-03
 -4.9454244e-03
 -1.5539875e-03
  2.6794276e-03
  1.4829114e-02
  3.6455065e-04
 -6.8771373e-04
  8.3049703e-03
  3.7635278e-03
 -1.2942467e-02
 -6.8231360e-03
 -2.6517680e-03
 -1.1533464e-02
 -1.4896650e-04
  7.0998986e-04
 -1.1882160e-02
 -4.4425162e-03
 -1.9413348e-03
 -7.9577891e-03
  2.2413222e-02
  2.3414791e-03
  1.0786438e-04
 -4.7422419e-03
 -1.1938527e-02
 -5.3482591e-03
 -5.9374883e-03
 -9.9275401e-04
 -1.7916806e-02
  6.3113160e-03
 -1.4521156e-02
  5.9346049e-03
  3.6613829e-02
 -7.9144360e-03
 -1.0702689e-04
  9.5508643e-04
  2.4690682e-03
 -1.0164280e-02
  1.3600588e-02
 -1.0356857e-02
  8.6400344e-04
 -1.2937502e-03
 -9.7864307e-03
  1.6590975e-03
  1.2065562e-03
 -1.4493616e-03
  7.9628883e-04
 -1.2621839e-02
  6.0874101e-04
  6.1576976e-03
  4.0261531e-03
  1.9985313e-02
 -4.5582961e-02
 -4.7320612e-03
  1.7232582e-02
  9.8629913e-04
  1.3006841e-02
 -9.3740150e-03
  1.3131858e-02
 -1.6726423e-02
  8.7787230e-03
  4.5461948e-03
 -1.2323875e-02
  3.0027345e-02
  4.3859826e-03
 -2.8421907e-02
  8.2485832e-04
 -3.2785317e-04
  2.0799416e-03
 -1.1047646e-02
 -1.4866997e-02
  1.0538613e-02
 -1.1910670e-02
  9.2344619e-03
  8.8870972e-03
  6.3559990e-03
  1.3447008e-03
 -4.8530642e-03
 -1.2171205e-02
  8.3534569e-03
 -2.2627283e-03
 -3.0932800e-04
 -4.6982178e-03
  4.2649243e-02
  2.5346011e-02
 -1.7273746e-02
 -1.6950602e-02
 -8.8060573e-03
 -4.5836129e-04
  3.2063376e-04
 -2.7708919e-03
 -1.0750404e-02
  7.3677483e-03
 -2.7969135e-02
  4.1956631e-03
 -1.3688942e-03
  5.3491391e-04
  8.4657931e-06
 -3.3399845e-03
 -2.1904465e-03
  2.5350461e-03
 -1.2091996e-02
  7.7817379e-03
 -8.6098379e-03
  5.0039440e-03
  7.7449350e-04
  3.3736497e-03
 -5.7246252e-03
 -1.4812030e-03
 -8.6509213e-03
  1.3611469e-02
 -1.9080571e-03
 -2.8370210e-04
 -4.9276212e-03
  1.9132292e-04
  4.0811696e-03
 -5.2297125e-03
 -9.3262009e-03
  3.5140431e-03
  1.4013704e-03
  9.7850021e-03
  7.9045380e-03
 -6.1203893e-03
 -1.3844201e-02
  5.5712378e-03
 -9.9496986e-04
  6.7311311e-03
  1.0697121e-02
  1.1649391e-03
 -4.6400717e-04
  2.1731192e-02
 -1.0025574e-02
 -1.9737186e-02
 -3.6907392e-03
 -1.3065228e-02
  3.9166231e-03
  6.5508322e-03
  2.9207969e-03
  1.5082260e-02
 -6.1545605e-03
 -1.5141951e-02
 -2.6746115e-03
 -2.1907028e-03
 -5.8421893e-03
  3.9555822e-03
  3.3940368e-03
  7.0812105e-04
  4.8346077e-03
 -1.4893873e-02
 -9.3133170e-03
 -1.5070507e-02
  5.7639824e-03
 -2.2718864e-03
  4.9115038e-03
  5.3086970e-04
 -5.5061933e-03
 -9.0289880e-03
 -2.8836408e-03
 -3.0944911e-03
 -8.0128899e-03
  2.9857300e-04
  1.9856010e-02
 -1.0505851e-02
 -9.6611073e-03
 -1.6262084e-02
  3.8148386e-03
 -3.6763886e-03
 -1.5006787e-02
 -2.1991641e-03
  2.4826394e-03
  5.6154402e-03
 -4.7666095e-03
  3.1849577e-03
 -2.1128142e-02
 -3.0376068e-03
 -1.8212461e-03
  2.0123303e-03
 -1.0501576e-01
  6.8912324e-03
  2.9569302e-02
  5.9238914e-02
 -1.5406561e-02
  2.7650466e-02
 -5.9724156e-02
 -8.2598716e-01
 -2.0358268e-02
 -2.3131159e-01
 -1.1089469e-01
 -6.1041079e-03
 -1.3861760e-01
  7.1102418e-03
  5.9823431e-03
 -4.7290094e-02
 -1.2424411e-02
 -9.6823797e-02
 -1.0559466e-01
  3.3017332e-03
 -9.2515036e-02
  2.6913056e-02
  1.3601493e-02
 -3.0920577e-01
 -2.7593730e-03
 -2.3080128e-01
 -1.0553253e-03
 -1.4957328e-02
  2.8536338e-01
 -7.6325205e-03
  9.9742860e-03
 -3.0545719e-02
  3.5817898e-03
 -2.5873771e-02
 -8.2666866e-02
  5.5038556e-04
 -9.7883001e-02
  1.0977912e-02
 -1.4374039e-02
 -1.2495038e-01
 -5.1555142e-02
 -5.8769658e-03
  1.7925918e-02
 -3.7544416e-03
  4.1315630e-03
 -7.2575011e-03
  3.4275816e-03
  8.7499619e-03
 -5.7832655e-03
  5.6236275e-03
 -4.0361327e-03
  1.2752599e-02
  4.7497586e-03
 -3.8945619e-03
  8.3817076e-03
 -6.5172613e-03
  2.7540477e-03
 -1.0860099e-04
 -1.8784991e-02
  1.9460716e-03
  1.4952829e-04
  1.6457652e-03
  6.1536995e-03
 -5.2955924e-03
  5.1998263e-03
 -4.7968887e-03
 -8.7423539e-03
  7.6998174e-03
  1.0899463e-02
  7.6141842e-03
 -1.0610581e-02
  3.3937194e-03
 -1.1893784e-02
  2.1862311e-03
  5.9302147e-03
  1.6183354e-02
  2.8236438e-02
  1.6826476e-03
  1.2846512e-02
  4.4873068e-03
  5.8305510e-03
 -2.4388980e-03
 -5.2751754e-03
  2.9030067e-03
  6.9298511e-03
 -5.1190737e-03
 -8.8073388e-03
 -1.2495461e-02
 -1.2186141e-02
 -4.1187513e-03
  9.8593924e-03
  1.5862124e-03
  4.2141760e-03
 -3.4605148e-03
 -1.7904360e-03
 -4.2097601e-03
  2.9677243e-03
  1.7112407e-03
  5.6124073e-03
  5.6247860e-03
  1.7527771e-01
 -1.4509302e-02
 -9.3723929e-01
 -1.0157949e+00
  1.2555168e-02
  1.4952933e-03
  1.7219160e-01
  1.7090274e-01
  5.2186480e-04
  6.5921709e-02
 -2.1037419e-01
 -7.9955568e-04
  9.5048703e-02
 -4.4376560e-02
 -1.2307901e-02
  7.9637194e-01
 -3.8387588e-01
  3.5369927e-01
 -1.2071431e-01
 -1.0015431e-03
 -1.0860559e-01
  5.7906377e-01
  1.9832589e-03
  5.1211500e-01
 -9.7265080e-02
 -2.2386685e-01
 -3.7750596e-01
  9.0448535e-05
  1.4857700e-01
  3.0880386e-01
  2.6871150e-03
 -8.1926310e-01
 -3.0293204e-02
 -7.4980241e-01
 -8.7053485e-02
 -2.7427040e-02
 -2.5501544e-02
 -1.1010029e-02
 -4.4490383e-03
 -5.2768965e-03
 -2.1980633e-01
 -3.1496079e-03
  2.0767901e-02
  1.0148237e-03
 -1.9852949e-02
  3.6919687e-02
  1.9110662e-04
  5.7255258e-03
  9.4367014e-03
 -3.0843252e-01
  1.1544423e-02
  1.2558741e-02
  4.2658225e-03
 -1.9840520e-02
  1.1668978e-03
  4.8978631e-03
 -5.7908297e-03
 -3.4000665e-02
 -1.5551216e-02
  9.7582262e-04
  1.6125176e-02
 -2.0173409e-03
  1.8935717e-03
 -2.1390002e-02
 -1.5025403e-04
  1.8733238e-03
  2.6062771e-03
 -1.3159038e-02
 -1.1961041e-03
 -6.5502350e-04
 -2.1145968e-03
  1.0796418e-02
 -4.2160484e-03
 -2.1904155e-03
 -1.1694799e-02
 -1.2115984e-02
  4.6718251e-03
  3.0029835e-03
  7.8395410e-03
 -1.6388355e-03
  6.1452081e-03
  9.0063585e-04
  1.9641372e-03
 -8.2627340e-04
  1.4022901e-02
  4.7325385e-03
  2.6158471e-02
 -1.0538632e-02
 -1.1226651e-03
  8.3332472e-03
  7.0818909e-03
  1.1240639e-03
  5.7922215e-03
  2.1337473e-03
  1.3799029e-02
 -2.1528518e-02
 -2.0542767e-02
 -9.1385935e-03
 -3.9654514e-03
  4.1794130e-03
  4.3406888e-04
 -4.9432804e-04
  1.0615441e-02
  3.1574031e-03
  9.1049299e-03
  2.8894828e-03
 -2.5918201e-02
  1.3876810e-02
 -5.6673172e-03
 -1.7479012e-02
  3.8263947e-03
 -3.5344081e-03
  1.0525720e-03
  3.0685557e-02
 -6.2866812e-03
 -1.0932440e-02
  5.6696672e-04
  9.8157478e-03
  7.6360754e-03
 -4.2925230e-03
  3.4926759e-04
  4.2288327e-03
  1.0708302e-03
 -3.8755354e-03
 -1.7071121e-04
 -1.0099469e-02
 -3.4208340e-04
 -1.5809698e-02
  2.0714693e-03
  1.0218821e-02
 -2.5062880e-03
  5.6347833e-03
  1.0859191e-03
  4.6254406e-03
 -1.2282809e-03
  1.7915813e-02
  7.1535320e-03
  3.6927592e-02
 -1.1835750e-02
  7.1322992e-03
  9.5073329e-03
 -2.3291849e-02
  1.4016960e-02
 -2.2740442e-02
 -4.8532248e-03
 -4.8986166e-03
 -1.1590517e-02
  7.8053138e-04
  1.3289222e-02
 -1.0120139e-02
 -1.2716115e-03
 -4.5786328e-03
 -3.1625065e-03
 -5.5259839e-03
  7.8455815e-03
  4.2366846e-03
 -5.7981452e-03
  5.2761813e-03
 -9.6123572e-04
  2.2220444e-03
  8.1121679e-03
 -5.3144954e-03
  3.2419285e-03
 -1.1710759e-02
  6.6516032e-03
  2.8749942e-03
 -2.1040807e-02
 -6.8017989e-03
 -7.1711335e-03
  1.1940007e-02
 -3.3934370e-02
 -1.0523565e-02
 -1.7174942e-02
  1.6176937e-03
  4.8793829e-03
 -1.1301870e-03
  3.1249225e-03
 -2.5545075e-03
  4.1527241e-03
 -8.7516466e-03
  5.9008161e-03
 -6.1337329e-03
  1.7306770e-04
 -2.8623498e-04
 -3.6419616e-03
  1.9890267e-02
 -1.5020464e-03
 -4.1975407e-03
  2.0755087e-03
  1.1551021e-02
  1.5475296e-02
 -1.4732425e-03
 -2.5408018e-02
 -7.8587597e-03
 -5.9884909e-04
  7.6249344e-03
  2.4980539e-03
  1.4678453e-02
 -6.6276512e-04
  1.1373434e-02
  7.5228629e-03
  1.0350103e-02
 -4.0294337e-03
 -4.1987118e-03
  9.4182258e-03
  4.3738194e-04
  1.0275275e-02
 -1.1383314e-02
 -4.2457231e-03
  1.1780448e-02
  4.7744447e-03
 -3.5145918e-03
 -6.3287402e-03
  2.2120748e-02
  1.7040880e-02
 -5.5609588e-03
  7.0969365e-03
  1.3087628e-03
 -4.4626039e-03
 -6.0020282e-04
  2.3930397e-02
  1.3058363e-02
 -1.9703740e-03
 -4.0178346e-03
  9.9679781e-03
  1.8328504e-03
 -2.3986141e-03
  2.8543551e-02
  2.5315372e-02
  2.7135294e-03
  3.5163466e-02
 -8.4394673e-03
 -2.0850740e-02
 -9.0237074e-03
  1.3246124e-03
 -3.1722421e-03
 -1.0970853e-02
 -1.7792018e-02
  8.2927598e-03
  8.7569738e-03
 -1.0195163e-02
  6.2859972e-04
  1.0007047e-02
 -8.2604808e-04
  6.7261425e-03
  9.0027321e-03
  6.4514512e-03
  1.1096408e-02
  1.0090801e-02
 -4.2567486e-03
  2.5940865e-02
  9.5249554e-05
 -5.8609964e-03
 -3.7382513e-02
  9.4359368e-03
 -4.8962464e-03
 -1.4049682e-03
  1.8483694e-01
  4.8695784e-03
  3.0755078e-02
  6.0018852e-02
  1.0915623e-04
  1.2296251e-01
  4.9618469e-03
 -9.2618149e-03
  7.3156008e-03
  4.1897246e-03
 -3.0373702e-02
  6.5914416e-03
 -2.2840849e-03
 -6.9006565e-03
 -2.2646271e-02
 -1.5065034e-03
  2.4659017e-05
  8.0314564e-04
 -5.5721078e-02
  3.7096762e-03
  5.1867552e-03
 -3.2491016e-03
  1.6906535e-02
  4.6776133e-03
  1.5716916e-02
  1.0165595e-02
 -2.7107614e-01
  4.0499363e-02
  1.0213674e-04
 -5.6109704e-02
 -5.0969776e-02
 -3.3598655e-04
  9.6185114e-03
  1.0010097e-02
  1.7255330e-02
 -1.6980717e-02
 -7.2298618e-04
 -1.0972979e-02
  7.1796258e-03
 -3.2692500e-03
 -2.2504371e-02
  4.2531073e-02
  3.0630855e-03
  1.4357270e-02
 -2.2962887e-03
 -2.1155594e-02
 -7.8237563e-04
 -5.2635320e-03
 -8.8807323e-04
 -2.1138469e-02
  1.0304404e-03
  1.8794291e-02
 -1.2988310e-02
 -4.1524488e-03
 -9.6931383e-03
  2.6252929e-03
  5.2595520e-03
  1.9436514e-02
  1.2757054e-02
  4.0972023e-03
 -4.6967875e-04
 -1.7980577e-02
 -9.2448844e-03
 -1.7205767e-03
  5.4795522e-04
  1.1044562e-02
 -1.7823511e-03
 -1.6301702e-03
  1.1363650e-02
  2.3967788e-02
 -6.9958828e-03
 -9.0781190e-03
 -8.3578508e-03
 -1.1267632e-02
 -1.0527694e-02
 -2.1945305e-02
  1.3583917e-03
 -5.1645224e-04
 -1.1306738e-02
 -2.9966226e-04
 -1.0829148e-02
 -1.9922422e-03
  5.9856582e-03
 -2.0295766e-03
  6.4403034e-04
  1.1380673e-02
 -4.3495372e-03
  2.9346882e-03
  1.3675306e-03
  4.6694973e-03
 -7.4334652e-03
 -5.4806974e-03
 -7.6056650e-04
  4.1081813e-01
 -1.1170949e-02
  2.0465308e-01
 -5.8768779e-01
 -2.4639980e-03
 -9.6185040e-03
  2.5491303e-01
  7.7014083e-01
  6.3471519e-03
  1.1285649e-01
  5.3448474e-01
  1.5984254e-03
 -1.2184451e-02
  4.2690616e-03
 -5.4294895e-04
  1.9110217e-03
 -3.3064120e-02
  4.1095272e-01
  1.4295706e-01
  1.7459244e-03
 -1.7845567e-01
  2.1015793e-02
  5.9485482e-03
  2.8404120e-01
 -3.6840907e-01
 -5.3784519e-01
  4.4594858e-02
 -7.9318155e-03
 -1.0514087e-02
  1.3353647e-01
  4.7634803e-03
 -4.7314443e-02
 -1.5333860e-01
 -2.9433832e-01
  8.7164856e-02
 -1.3494438e-02
 -4.9620233e-02
 -2.7814177e-01
  3.2181656e-03
 -1.6043752e-02
  5.7072438e-02
 -3.9560282e-01
  2.5344938e-02
  5.4724081e-03
 -3.4628424e-01
 -4.5170859e-04
 -7.1941223e-04
 -1.2802059e-02
  1.1639290e-01
  3.1818326e-03
 -1.9169057e-03
  1.1141581e-02
  6.8607340e-03
  2.1606104e-03
  5.0540117e-04
  3.1613584e-03
 -4.6210047e-03
  1.1031474e-03
  7.6832194e-03
 -1.4571825e-02
  3.8202307e-03
 -7.5641149e-03
 -3.4089629e-02
 -5.2632712e-04
  4.1947566e-02
  1.9749475e-03
 -1.0479968e-02
 -1.2008941e-03
  4.4678405e-04
 -1.5446334e-03
 -8.0240704e-03
  3.6853307e-03
  1.0397335e-03
  1.5682237e-02
  9.5542101e-03
  7.3744878e-03
  1.2264143e-02
 -1.9547088e-02
  1.6936019e-05
 -2.8375960e-03
 -2.9699979e-03
  1.1784988e-02
  7.5153676e-03
 -4.3562539e-03
 -1.2192424e-02
  1.6492722e-03
 -1.4309120e-02
  7.5874088e-04
 -3.0247006e-03
  1.0251265e-02
  4.7941459e-03
 -4.9274317e-03
 -2.4633794e-03
  2.2523582e-03
 -1.5423718e-03
 -1.1425185e-03
 -4.3755705e-03
  2.1633531e-03
  9.4306692e-03
 -5.7860315e-03
  8.2792854e-03
 -1.4495725e-02
  2.0322888e-03
 -1.5609671e-03
 -2.7092753e-03
 -4.8558513e-04
  2.0759630e-03
  3.9178068e-03
 -7.6240981e-03
 -1.2805363e-02
 -2.5739260e-02
  3.9757774e-03
 -1.6339719e-02
  1.7469486e-03
  7.7422959e-04
  1.2428183e-02
  1.6720450e-03
 -9.7511420e-03
  2.9756203e-03
 -1.7119056e-02
 -1.5192334e-02
 -1.5445679e-02
  9.0285745e-03
  6.1785439e-03
 -3.8852300e-03
  1.3814963e-02
 -3.9476804e-03
  5.0743781e-03
  1.8998224e-03
 -7.4896482e-03
 -4.3108077e-03
 -4.1964776e-03
  8.6042685e-03
  7.5084693e-03
  1.2870648e-02
 -6.0522491e-03
  4.4951192e-03
  2.1784529e-03
 -6.2602968e-03
  5.2270233e-03
  4.3027245e-02
  1.8007837e-02
 -6.5474827e-03
 -4.0790369e-03
  9.7903758e-03
  3.7166948e-04
 -1.0331894e-02
  1.7225751e-04
  9.1134105e-03
 -7.6185074e-04
  3.2335352e-02
  2.4977962e-02
  4.6403627e-03
 -6.6699446e-03
 -2.2820281e-04
 -1.8262863e-04
  2.2793433e-02
  6.8394050e-02
 -7.3866723e-03
  6.5765097e-03
  3.8703091e-02
 -6.5619987e-04
 -2.0674739e-03
 -9.9257901e-03
 -4.9830335e-03
  1.8109486e-02
 -8.4472168e-03
  6.2382221e-04
  3.7385985e-02
  3.4194768e-03
 -9.9102231e-03
 -9.4035277e-03
  2.7968455e-04
 -6.6350133e-04
  8.0328592e-04
  4.6308968e-02
  6.1458402e-04
  1.3192412e-02
 -5.7001377e-04
 -4.1621551e-03
  7.4569606e-03
  3.4373833e-03
 -2.6796173e-04
  1.3566920e-02
 -1.8489931e-03
 -4.4938351e-04
 -3.4742970e-02
 -5.7087597e-03
  1.3371509e-03
 -6.1492920e-03
  1.3609811e-02
 -9.6310200e-03
  9.8274369e-04
 -3.9569545e-03
  1.0860212e-02
  8.2687452e-04
  2.3273700e-03
 -7.8689503e-03
  1.5132081e-03
  2.9063919e-03
 -4.7274572e-03
  1.4784195e-02
  2.4667983e-03
  1.5915807e-02
  2.4516489e-02
 -1.0572718e-02
  1.3090552e-02
 -2.9378145e-03
  6.6367649e-03
  2.3312077e-02
  4.1121356e-03
 -6.2783519e-03
 -4.2842519e-03
 -5.1278668e-03
  1.8589975e-03
  7.7871317e-03
 -9.4144633e-03
  2.2289602e-03
 -1.5629329e-02
 -2.4387196e-02
 -3.6168019e-03
 -1.1251870e-02
 -3.0612245e-03
 -7.0833736e-03
  9.9448515e-03
  8.8025052e-03
 -4.1639879e-03
 -1.3136059e-03
  2.9876581e-03
  8.9034077e-04
  2.6529841e-03
  3.1100253e-03
  8.5055251e-03
  4.9408432e-03
 -5.9753358e-03
 -1.0717867e-02
 -8.6821932e-03
 -4.2555006e-03
  2.5067475e-02
  1.6731353e-03
  1.1560118e-03
  1.9207101e-02
 -5.2078865e-03
 -2.9602647e-03
 -7.1930555e-03
 -9.1608753e-03
  9.6662492e-03
 -1.1341026e-02
 -5.3607114e-03
  5.1243827e-03
 -4.5845537e-03
  5.0873216e-03
 -1.8572118e-03
  1.1572804e-03
 -1.8589565e-03
  1.7120645e-03
 -2.7009159e-02
  4.6556504e-03
  2.0612136e-02
  7.4714068e-03
  3.8184556e-03
 -6.6424608e-03
  2.4437698e-02
  2.6960323e-02
 -3.9023461e-04
  2.1719746e-03
 -1.7066728e-02
  4.1825366e-03
 -4.4964533e-03
  9.7092643e-04
 -1.3224656e-02
  1.4766096e-02
 -1.0209579e-02
  1.8470264e-03
 -1.7063079e-03
  5.1030056e-03
 -4.5064132e-04
 -3.7607944e-03
  3.7929212e-04
 -1.5621240e-03
 -7.2371094e-03
  5.8388170e-03
 -1.8823963e-04
  9.2382049e-03
  1.0828330e-02
 -6.3742884e-03
 -3.9666439e-03
  2.2769084e-03
  7.1711531e-03
 -1.8350735e-02
 -8.7192729e-03
 -2.5905199e-02
  4.4898549e-03
  5.6813620e-03
 -1.4293573e-02
 -1.7152884e-03
 -1.7493472e-03
  3.9653489e-03
  1.4526227e-02
 -3.5219071e-03
 -7.6724187e-04
 -2.0164467e-04
  1.3028402e-03
 -1.0809963e-02
  4.3702549e-03
 -5.2264007e-03
  1.4627191e-02
 -2.9984126e-03
  2.9465749e-03
  3.7374434e-03
 -2.3794717e-03
 -3.8038737e-03
  2.7583234e-03
 -9.1955578e-03
  7.0157107e-03
  8.9439226e-04
 -3.6703534e-03
 -9.7053749e-03
  4.6219486e-03
 -3.7112638e-02
 -5.4299845e-03
  1.4046184e-02
  1.4058325e-03
  1.6349228e-03
  1.6188683e-02
 -7.6222168e-03
  1.4202057e-03
  1.0400605e-02
 -4.7076303e-03
  5.9251813e-03
  1.9382758e-02
 -4.1015139e-03
 -5.5836742e-03
 -1.7955288e-02
 -6.7787524e-04
  6.7260037e-03
 -9.1646155e-03
 -3.6897971e-03
  9.4753015e-04
 -4.5671933e-03
 -4.7831717e-03
 -3.2826604e-03
 -1.7841065e-02
  1.1418077e-02
 -7.2375685e-04
 -7.7737621e-03
  1.9511506e-02
 -1.6831257e-03
 -5.4281913e-03
  1.5725272e-03
  3.5040949e-02
 -7.1338387e-03
 -3.2783297e-03
 -1.1474393e-02
  1.1319747e-02
 -1.0592149e-02
  1.2958440e-02
  3.4523753e-03
 -8.6192489e-03
 -3.6294553e-03
  1.3787352e-02
 -5.0148014e-03
 -1.0431438e-03
 -1.6924398e-02
  2.0010294e-02
  6.6823512e-02
 -5.2550579e-03
  2.7631352e-02
 -9.2234481e-03
 -2.8630954e-04
 -5.8833917e-04
 -4.1069807e-03
 -3.8913018e-03
 -1.6642526e-03
 -8.0964650e-04
  5.7853032e-02
  1.4402673e-02
 -4.0454078e-03
 -2.9950987e-03
  7.9081766e-04
  3.0889022e-04
  3.3303988e-03
  6.3168961e-03
 -2.9842529e-02
  6.7172777e-03
 -1.3708627e-03
  3.0642694e-03
 -1.6485222e-03
  1.1784452e-03
  9.6217226e-03
  2.4360021e-04
 -9.9853203e-03
  8.2577893e-04
 -2.8886449e-02
  1.7704114e-02
  2.4353657e-02
 -2.5692661e-04
  6.3196378e-04
 -1.6255943e-03
 -1.8898796e-03
  3.0063156e-03
 -6.9653816e-03
  3.6661406e-03
 -2.5514701e-02
 -6.9040800e-03
  8.0963196e-03
  5.5131176e-04
 -1.1228218e-02
  6.6296062e-03
  8.2209287e-03
 -3.4515699e-03
  1.2975292e-02
  1.8811990e-02
  3.1602629e-03
  6.0802689e-03
  1.6519839e-02
 -6.3954364e-04
  2.8698894e-03
 -3.9191176e-03
 -1.8044312e-02
  7.9424893e-03
 -1.2892841e-03
 -3.3440562e-03
  2.5413452e-02
  1.3371061e-03
 -1.7128685e-02
  1.0302198e-02
 -1.7111918e-02
 -3.8754221e-04
  6.5699960e-03
  1.8702567e-03
 -3.1338411e-03
 -2.6094865e-03
 -2.0653575e-03
  7.6273205e-03
 -1.0698166e-03
 -1.3972189e-02
 -1.3479871e-03
 -1.1528536e-03
 -1.6608333e-03
 -3.5259635e-03
 -1.0411786e-03
 -5.1066121e-03
  2.1450135e-03
 -1.1790853e-02
  2.2156972e-02
  5.4080002e-03
 -3.1182556e-03
  1.7397724e-02
 -7.9099665e-04
  2.7062076e-01
  1.9769594e-03
 -1.0610156e+00
  1.9314421e-02
  9.0974793e-03
  3.4408958e-03
  3.2910628e-03
  6.5792316e-01
 -3.0689614e-03
  1.5148740e+00
 -2.2188544e-01
 -1.7492883e-03
  1.7194180e-01
 -1.7947068e-02
 -8.6935498e-03
 -4.4988811e-01
  4.0329978e-02
 -1.3378200e-01
 -3.0595306e-03
  4.8788697e-03
 -1.4798778e-01
 -8.5042134e-02
  7.5066732e-03
 -1.0437697e-01
 -4.1217316e-02
 -3.4136396e-02
 -4.5164693e-03
  1.1809633e-02
 -7.2638983e-01
  1.0992620e-02
 -6.8892497e-03
  3.2663956e-01
 -1.4733125e-02
 -1.0345037e-01
 -7.2456682e-03
  8.5759035e-04
  6.0276616e-01
  1.3585132e-01
 -4.0697288e-03
  3.9306101e-01
 -3.0959717e-03
 -1.2849137e-01
  7.1870890e-03
  4.2652778e-04
  2.6082080e-02
 -4.3839151e-03
 -1.4242744e-03
  4.0749307e-03
 -4.5773707e-02
  1.2822989e-02
 -5.3318930e-03
 -1.3334292e-02
 -6.5974528e-03
  3.4300417e-03
  1.1087880e-02
  1.0547000e-03
  1.8866917e-03
  4.1549344e-04
  2.6936226e-03
  7.3854406e-03
 -8.0957165e-04
 -3.4422793e-03
 -2.4982856e-03
 -2.5381474e-02
  1.0741553e-02
  1.4320606e-02
 -2.9252082e-04
  7.1377014e-03
 -4.1189413e-03
 -7.8337517e-04
  2.6522081e-02
  1.4935113e-03
 -1.6212631e-02
 -1.1754750e-03
 -9.5275613e-03
  5.1856046e-03
 -3.2769181e-03
  3.6901564e-03
  1.0364738e-03
 -2.9841335e-03
 -8.4612262e-04
 -1.6076550e-02
  2.9236071e-03
  7.8066434e-03
 -9.3963614e-04
  3.3369882e-03
 -7.7775749e-04
  1.4442768e-02
 -3.7499925e-03
 -1.7836886e-02
  3.4741096e-03
  6.2061911e-03
  9.8830424e-03
  3.2982396e-04
 -3.1428651e-03
 -1.9847297e-03
  8.9475112e-03
  1.7817620e-04
  1.0771259e-02
  3.0559688e-03
 -2.3797643e-01
 -4.4445968e-03
  1.1483827e-01
  2.7390426e-02
 -5.1652486e-03
 -7.8766132e-03
 -4.6962001e-03
 -4.8187408e-01
 -1.2689142e-02
 -2.2812335e-01
 -4.3392661e-01
  4.9924222e-03
 -3.3934519e-01
  1.3526502e-03
 -5.2301022e-03
 -2.5107443e-02
 -1.7005859e-02
 -5.9507764e-03
 -2.1525832e-01
 -7.2996421e-03
 -2.1109521e-01
  7.8596614e-02
 -5.8593927e-03
 -1.1614773e-01
 -1.0843161e-02
  1.2542634e-01
 -1.6549525e-01
  8.3336188e-03
  8.8024691e-02
  1.9852950e-03
 -3.5633671e-03
 -2.6803847e-02
  2.7027298e-03
  6.8195532e-03
 -1.4158779e-01
 -9.7167045e-03
 -6.3469298e-02
  4.6626452e-02
 -2.3329306e-02
  5.6989249e-03
 -2.1677237e-02
 -2.0603526e-02
  1.1860637e-02
 -1.5764294e-02
  2.1300688e-01
  1.3471182e-02
  1.6322069e-02
 -2.8738412e-03
 -3.7734170e-02
  2.7775973e-02
 -3.3932012e-03
 -1.1349221e-02
  3.9389543e-03
  7.7842050e-03
  1.8212218e-03
 -1.7942779e-03
  1.2594967e-02
 -2.1112179e-02
  1.7174825e-02
  6.6683246e-03
 -2.0785525e-02
  9.4832387e-03
  1.3638921e-03
 -1.7843276e-02
 -1.8523633e-02
 -1.6397609e-04
  3.1527868e-03
  7.9457118e-04
 -5.3965948e-03
  3.8273586e-04
  8.4492806e-03
 -2.4174661e-03
  2.2408348e-03
 -2.2782471e-03
  1.4734748e-03
 -1.3831634e-03
  9.5418096e-04
 -3.0687996e-03
  1.7268974e-02
  1.8962205e-04
 -7.6545589e-04
 -5.5332086e-03
 -3.6697924e-02
  4.1148174e-03
 -2.8478471e-03
 -7.2905966e-03
 -4.2340285e-03
 -1.9723668e-03
  5.4519544e-03
  1.3123502e-02
 -3.3979577e-03
  7.6446626e-03
  1.4545305e-02
 -3.1227698e-03
 -6.0391165e-03
  5.7683201e-03
 -1.0600460e-02
  1.9604158e-02
  7.4062524e-03
 -6.7144618e-03
 -6.4314254e-02
  3.0893052e-03
 -1.2703613e-02
  5.6964744e-02
  1.2540532e-02
 -1.0433110e-03
 -2.1896539e-03
 -4.2594939e-02
  1.5347905e-02
 -1.1584435e-02
 -1.1467489e-02
  2.3356348e-03
 -3.4757930e-01
 -5.5051129e-03
 -3.2987162e-02
  1.6067557e-01
 -1.6348115e-01
  7.7572513e-01
 -3.3361872e-03
  9.3726600e-03
  2.2735029e-01
  4.2626277e-02
 -7.0647928e-03
 -3.0396208e-02
  8.0700573e-03
  2.0749299e-01
  1.4284972e-02
  2.0791781e-03
 -3.9573586e-01
 -6.1434945e-03
  1.2774982e-02
 -6.7310961e-04
 -7.8321085e-04
  1.6524804e-01
 -4.3797558e-03
  7.1837992e-04
  2.3300577e-02
  3.8572948e-03
  1.4022177e-03
  1.3854502e-01
 -1.7150767e-02
  1.4841856e-01
 -6.6943023e-05
  5.0520310e-03
 -1.9014623e-02
 -5.1049388e-04
 -1.8668164e-03
  4.1096574e-03
 -8.8174101e-03
 -1.2288383e-01
 -1.5080957e-03
 -6.0224058e-05
 -2.8509013e-03
 -1.4092295e-02
  1.7513153e-03
  6.8606935e-03
  1.0661380e-05
 -1.1598619e-02
  7.7941692e-03
  5.7853381e-03
 -7.3810713e-03
 -1.0802777e-02
 -3.9085620e-03
  1.8092716e-02
 -2.6713328e-03
 -3.2829286e-03
 -9.1483898e-04
  2.7821816e-03
 -1.0822270e-03
 -1.0173727e-03
 -1.2493875e-02
 -1.4660606e-02
  1.0733685e-02
  7.9374444e-03
 -7.1404367e-03
  3.3083542e-03
  4.3325438e-03
  4.5239194e-03
  3.4305835e-03
 -1.9057009e-03
  3.9141680e-05
  9.4716577e-03
  1.4144220e-05
 -1.6104188e-02
 -7.7394507e-04
 -1.1664531e-03
 -3.7553469e-03
  1.5443724e-03
 -3.7572936e-03
 -2.9265410e-03
 -2.5127842e-03
  9.6348226e-03
  1.9377183e-02
 -1.7437080e-03
  1.0893497e-03
 -5.1358689e-05
  8.9486605e-03
 -1.2049909e-02
  3.4366501e-03
  3.1800785e-03
  2.1209657e+00
 -6.3962261e-03
 -9.7203875e-01
  1.8358381e-01
 -1.1300935e-02
 -1.1036199e-01
  8.1090620e-03
  1.1593389e-02
  4.1122362e-03
  7.2295314e-01
 -3.2203263e-03
 -3.8893169e-03
  6.2901986e-01
  1.5123457e-02
  1.0996670e-02
 -3.4935650e-01
 -4.6920148e-01
  3.6154667e-01
  6.1165038e-03
  3.5389492e-03
  3.1404039e-01
  5.3730255e-01
 -4.4457279e-03
 -8.5203689e-01
 -2.4016386e-01
  9.1302109e-01
 -1.5589181e-02
 -1.1220626e-02
 -8.8853025e-01
  6.8379015e-01
 -2.3445535e-04
  1.7079754e-01
 -5.0216857e-02
 -4.4424963e-01
 -2.9971023e-04
 -6.2140968e-04
 -9.9561185e-02
 -1.1361098e-01
  1.4527950e-03
  9.0033226e-02
  6.0942764e-03
 -3.6393812e-01
  9.4896015e-03
  1.6810954e-02
  7.6534235e-01
  2.4291536e-02
  6.7974366e-03
 -1.4424063e-03
  3.3501086e-03
 -3.0481178e-02
 -1.4346592e-02
 -2.9339534e-03
 -2.1535943e-03
  2.0606676e-04
 -3.6577815e-03
  7.1522207e-03
 -2.3308164e-03
 -5.4908367e-03
  5.1157773e-03
 -5.1349653e-03
 -1.3761406e-02
 -1.0223296e-02
 -4.9716025e-03
  3.8582897e-03
  2.9111370e-03
  3.9570397e-03
  7.2736124e-04
  1.5816145e-02
  1.2764486e-04
  7.6006455e-03
 -1.9069239e-02
 -1.0083848e-02
  2.6572694e-03
 -1.2800355e-02
  3.8514782e-03
  2.6408238e-03
 -3.6055762e-03
  5.1635941e-03
  5.3277570e-03
 -9.0703405e-03
  1.8957181e-02
  8.3517171e-03
  1.3405584e-02
  2.5032694e-03
  8.9595029e-03
 -7.2670332e-03
  1.1916888e-02
 -1.6833443e-02
  2.4695972e-03
 -6.6176988e-03
  2.5741619e-03
 -6.5411869e-03
 -9.6440327e-04
 -2.2192389e-02
  1.0789493e-02
  4.1443757e-03
 -8.8352002e-03
 -1.0917398e-02
 -1.2655297e-02
 -5.9683467e-03
 -7.7946093e-03
 -1.4930879e-02
 -2.4780083e-02
 -4.8392045e-04
 -2.2770404e-03
  4.0813531e-03
  7.9007132e-04
 -2.5629923e-03
 -4.4059641e-05
  3.8081221e-03
  1.7912887e-02
 -3.6257934e-03
 -5.6897610e-04
  6.3860775e-03
 -3.4739894e-03
 -1.5393003e-03
  2.1791575e-03
  8.7345941e-03
 -2.3309842e-03
 -1.4467968e-03
  1.3042769e-02
 -4.8887345e-04
  5.2102529e-08
 -8.1314826e-03
  1.4000928e-03
 -8.5988967e-03
  1.0776369e-02
  3.3148380e-03
 -2.2768970e-03
  1.2936551e-02
  2.1721297e-03
 -1.3771395e-03
  3.5355033e-03
  6.9375681e-03
  3.0026820e-03
  6.4978660e-03
  1.2990694e-02
 -1.0555047e-02
 -1.8186287e-03
  2.6313511e-03
  2.8895419e-03
  4.3850159e-03
 -5.7489629e-04
  4.1438839e-03
  1.5985880e-02
  6.5903058e-03
  1.5689130e-03
  7.7704494e-03
 -7.1018329e-03
  3.7327292e-04
 -2.2140674e-02
  2.5497599e-02
  1.0167420e-02
  2.4805194e-02
 -1.2721419e-02
  1.6071992e-02
  1.4006634e-03
 -2.1112944e-01
 -2.0278307e-02
  5.3398330e-03
 -9.9216834e-02
  6.5005077e-03
  6.0636676e-03
  2.1034347e-02
 -1.7134255e-02
 -5.8385357e-02
 -6.7605423e-03
 -4.0693046e-04
  1.8770434e-03
 -2.0054104e-03
 -1.0948816e-01
  4.2817570e-05
 -1.1169623e-02
 -4.1217463e-05
  1.1524395e-03
 -1.3588525e-01
 -3.4042241e-03
 -2.7737988e-03
  1.2633757e-02
 -1.5924554e-02
 -6.3949586e-03
  2.7409432e-04
  2.9297275e-03
 -1.0249923e-03
 -8.6528072e-03
 -6.8357196e-03
  3.9687082e-02
  2.6800068e-02
 -8.8725373e-04
 -2.0475829e-02
  6.2356275e-03
 -2.6754844e-01
 -2.9378782e-03
  1.6464936e-02
  5.2031358e-03
  9.2308512e-03
  1.0046239e-02
  2.8857850e-02
 -1.0538004e-02
  8.7069068e-03
  5.5490485e-03
  1.2544440e-02
  9.1968518e-04
 -1.1464990e-02
 -3.4254063e-03
 -6.8678693e-03
  2.4623987e-03
 -1.1806821e-02
 -1.1377295e-03
 -7.9014627e-03
 -1.8493100e-03
  1.1338167e-03
  5.3471322e-03
  1.8743638e-02
  1.1156132e-03
  3.8561670e-03
  1.1071180e-03
 -1.0718842e-03
  1.1789287e-02
 -1.1204786e-02
  9.4583081e-03
  3.1326266e-03
 -2.4031337e-02
 -2.4086891e-03
  4.1262209e-04
 -3.5867710e-03
  6.9579892e-03
  9.4491914e-03
 -2.1720927e-03
 -5.4920414e-03
  5.6303423e-03
 -4.2737760e-03
 -1.8781006e-02
  4.3110442e-03
 -1.0207096e-02
 -4.8190253e-03
 -8.0481078e-03
  1.2663902e-02
  1.5273420e-02
 -1.2333789e-03
 -4.3449253e-03
  7.4545722e-03
  2.9005527e-02
  9.9121081e-03
 -5.6515372e-04
 -1.3631106e-02
 -8.5218232e-03
 -6.0042692e-03
 -2.3278685e-03
  4.9898559e-03
  4.1022929e-03
  6.6038868e-03
 -5.5634123e-03
  2.1935359e-03
 -1.3870956e-02
  5.1827938e-03
 -8.7292781e-03
 -2.3834378e-02
 -2.2328629e-04
 -7.2812010e-03
  2.4917981e-02
  7.5916355e-03
 -1.7833359e-03
 -3.8743839e-03
  3.1143159e-02
  1.1383583e-02
 -8.9470865e-05
  3.1801963e-03
  5.7154112e-03
 -4.5849052e-03
 -9.3510915e-03
 -1.3864096e-02
  4.2710933e-03
 -1.0335860e-03
  8.6836494e-04
 -6.3635139e-03
 -1.7527762e-03
 -5.3356268e-04
 -7.6239612e-03
  3.6573634e-03
 -1.0713032e-03
  1.0353435e-02
  1.4237676e-02
  1.1628911e-02
  7.2008278e-04
  4.4378859e-04
  4.6860706e-03
  7.5935419e-03
 -5.8995541e-03
 -1.1325410e-04
 -8.5541392e-03
  3.0091306e-02
 -5.4535759e-03
 -4.4964477e-03
 -1.7681250e-02
 -5.1838029e-03
  7.5137625e-03
 -4.1836826e-04
  7.5704027e-03
 -1.7166825e-02
 -3.8955300e-03
  1.2748469e-02
  4.8786085e-03
  6.5040952e-03
  6.1730982e-04
  1.0281623e-02
 -8.0176685e-03
  2.9135025e-03
 -1.8260985e-03
 -7.9304306e-04
  1.0632811e-02
 -5.8853165e-03
 -1.3036486e-03
 -4.4361600e-03
  1.5149301e-02
 -2.0399129e-03
  7.1535312e-04
 -9.3304999e-03
  2.0051375e-04
  9.5539102e-03
  1.1487830e-03
  4.2877039e-03
 -3.3361171e-04
  8.7180873e-04
 -7.1550068e-03
 -1.4917484e-02
 -9.8494273e-03
  7.1053072e-03
  2.7963489e-03
  3.2835513e-02
  1.4654823e-03
  7.6323161e-03
 -3.1361557e-03
  1.0887042e-02
  8.7229228e-03
 -1.5946355e-02
 -5.2375011e-03
  1.7485749e-03
 -2.9905222e-02
 -6.3698222e-03
 -1.4055999e-03
 -3.6153081e-03
  5.3361524e-03
 -1.9028406e-03
 -1.6230572e-02
 -3.0006457e-03
  4.0983837e-03
  7.1140118e-03
  3.2013019e-03
 -1.0881543e-03
  6.1213351e-03
 -1.4982234e-02
 -9.8790824e-03
 -7.1179657e-03
  5.2078476e-04
  3.0685060e-03
 -7.7119959e-03
 -1.4868025e-03
  9.4560506e-03
 -2.2302528e-03
 -3.4008638e-03
 -1.9684695e-03
  1.6852397e-02
 -7.2170398e-04
 -1.3588066e-04
 -2.1813798e-05
 -5.3633614e-03
 -4.3745460e-03
  3.6238423e-03
  3.2527866e-03
 -1.0050923e-02
  1.0670837e-02
 -5.3399056e-03
  4.9871639e-03
  6.0275062e-03
  5.2897166e-04
  5.1237934e-04
  9.6126646e-03
  1.0576934e-01
  3.3554044e-03
 -8.6113447e-03
 -9.1400268e-03
 -3.4754004e-03
 -6.1411611e-03
  1.1907415e-02
  2.0615319e-02
  6.8423565e-04
 -1.4560964e-02
  4.1875644e-03
  5.8774240e-03
  3.3076774e-04
 -1.0007801e-02
 -5.5510029e-03
  8.7717903e-04
  1.5693335e-03
  7.5474288e-03
  1.7629888e-02
 -9.9380722e-04
 -2.0403665e-02
 -1.1557302e-02
  9.0755448e-03
  7.1314635e-04
 -2.5540626e-02
  5.6279795e-03
 -2.1830574e-02
  1.1007568e-02
 -8.8726700e-04
  5.0478335e-03
 -1.7246280e-02
 -1.1416632e-02
  6.6709495e-03
  1.6797837e-02
  7.7011688e-03
 -2.2984133e-03
  1.0881948e-02
  1.9103030e-02
 -4.8014820e-03
  1.3028726e-02
  1.6836071e-02
  5.1304251e-03
  5.2977013e-03
 -7.6757828e-03
  1.4292092e-02
 -6.0660588e-03
  1.0261227e-02
 -1.0853028e-02
 -1.2240638e-03
  1.2661675e-02
 -2.6309134e-03
 -1.5564909e-02
 -2.1063585e-02
  1.3133522e-02
  7.1534785e-03
  7.0696119e-03
 -1.2144833e-03
 -1.0620153e-02
 -1.0336884e-02
  1.7843893e-02
 -3.7870903e-03
 -2.9118601e-03
 -1.3541070e-02
 -1.3692224e-02
  2.4856102e-02
 -6.7605637e-03
 -9.0104359e-04
  6.4407098e-03
 -7.2514045e-04
  9.9014782e-04
 -7.6421630e-03
 -1.0749014e-02
  7.8390469e-04
 -3.5543416e-03
 -2.6620410e-02
  4.1966191e-03
  4.8260493e-03
  1.8238541e-02
 -4.8569557e-03
 -4.0116126e-04
 -1.8084549e-03
 -5.7147240e-04
  1.1257099e-02
  5.4486697e-03
 -8.8465828e-03
  1.0521286e-02
  1.4110020e-02
 -1.0817036e-02
  3.9810152e-03
  2.3435939e-03
 -6.0539753e-03
 -2.4336597e-03
  2.9009627e-03
 -1.9920561e-03
  2.1313692e-03
 -4.0993970e-03
  3.0971230e-03
  5.2734804e-03
 -5.9044156e-03
  4.4079311e-03
  1.2601645e-03
 -9.8512368e-03
 -1.7047418e-02
 -3.0808878e-04
 -6.1358600e-03
  3.0124128e-02
 -1.7496780e-02
  6.1242853e-04
  7.1354969e-03
  1.7486028e-02
  2.5649737e-03
 -4.0622363e-03
 -1.3902355e-03
 -2.3098462e-03
  1.1694520e-04
  5.2642887e-03
  1.4118517e-02
  8.5282149e-03
 -8.2166883e-04
  8.0481851e-03
  1.6005477e-04
  4.3166176e-04
  1.5903357e-02
 -1.0020550e-02
  6.4962268e-01
  1.0282088e-01
  2.6430391e-02
 -1.7976831e-03
  1.1707373e-02
 -7.5447541e-01
 -7.2856722e-03
 -4.2837065e-01
  1.8383060e-02
  1.5568682e-02
  8.2208797e-02
 -4.6638392e-02
 -2.7131399e-02
 -6.7855015e-02
  1.4732353e-03
 -3.4789482e-01
  3.4551921e-03
  1.4924354e-02
 -9.5381342e-02
  1.1751847e-03
 -8.2817776e-03
 -2.4162582e-01
 -2.3408721e-01
 -6.6445118e-01
 -7.9573849e-03
  7.6884613e-03
  1.8321191e-01
  2.2591012e-02
 -2.8286413e-03
 -8.6931682e-01
  6.6436276e-02
  2.5917005e-03
 -9.6786395e-03
 -9.2464359e-03
  8.4529185e-01
 -2.0803560e-01
 -1.3856043e-02
  4.3407530e-01
  2.0282367e-02
 -5.7299387e-01
  4.5956005e-03
 -1.1459162e-02
 -2.6316106e-01
 -2.0005312e-07
 -7.3842732e-03
 -1.0744786e-02
  8.2126118e-02
 -2.9362205e-01
 -9.8925576e-02
  3.5136850e-03
  1.1407727e-03
 -1.3698719e-02
  1.1375558e-02
 -3.6101372e-03
  8.4109278e-03
 -3.0397758e-01
 -9.7032087e-03
 -1.1634597e-03
 -8.5183978e-02
 -3.4626431e-03
  1.5645917e-01
  3.5914876e-02
 -2.2348776e-03
 -1.6695528e-01
 -2.9470932e-02
 -3.2103780e-01
 -2.3044389e-02
  2.0850906e-03
 -3.4291986e-03
 -1.2512111e-02
  7.7194534e-03
 -1.0013795e-01
  2.1395646e-02
 -2.4653178e-01
 -3.3627156e-02
  1.3541613e-03
  2.4907567e-01
 -7.8601260e-03
  3.2167456e-03
  3.1822678e-02
 -1.5744440e-02
  1.3869993e-01
 -2.2516897e-02
  4.1688508e-03
 -1.6880525e-02
  2.8334415e-02
 -6.6836956e-03
 -4.4564549e-02
 -1.1254022e-02
 -5.6889165e-02
 -2.7491108e-03
  1.8517553e-03
  4.7397250e-03
 -1.7545598e-03
  1.8149108e-02
  6.0883001e-03
 -2.1954386e-02
  2.8011878e-03
  8.0230189e-03
  3.0779878e-03
 -1.5214554e-02
 -3.8979153e-04
  6.7889588e-03
  4.6175644e-03
  1.4705691e-03
  5.9588146e-03
  1.4083331e-02
  2.0307425e-02
  5.6450893e-03
  4.0238681e-03
  6.7204772e-03
  1.6160235e-02
  2.6979111e-03
 -4.4988352e-03
 -1.3538412e-03
 -4.5148102e-03
 -3.2822879e-03
  1.9557176e-03
  7.7599841e-03
  3.8757226e-03
  3.9237742e-03
 -8.7959250e-04
  5.5684289e-03
  7.2244722e-03
 -8.1125246e-03
  9.3629248e-03
  3.1865001e-02
  2.4332502e-03
  8.0354055e-03
  8.3251746e-04
 -8.1360005e-03
 -9.3242881e-04
 -2.8962814e-03
  1.0497009e-02
 -2.7266666e-03
 -2.0901076e-03
 -7.5200782e-04
  3.2190215e-02
  2.0268331e-03
 -6.4804698e-03
 -3.9961902e-04
 -2.0590432e-03
  5.9433701e-03
  6.2582535e-03
 -4.8078122e-03
 -1.4045783e-02
 -3.8087270e-03
 -1.4026274e-02
  5.2558901e-03
 -1.3579005e-02
  4.2790002e-03
  1.5988747e-02
 -3.8724463e-03
  8.4530171e-03
 -7.6235146e-03
 -1.5798666e-02
  1.5349776e-02
  3.8779625e-03
  4.3301857e-03
  1.8594559e-02
 -5.9973812e-03
  2.5366931e-03
  1.9036900e-02
 -2.4165546e-03
 -1.0727701e-02
  1.0427750e-02
 -1.5833981e-02
  1.6574143e-02
  1.5282587e-03
 -7.8805778e-03
  6.5190229e-04
 -1.3602852e-03
  4.1242996e-03
 -5.3030015e-03
  2.7013230e-04
 -1.1751798e-02
 -5.2995468e-03
 -2.1395033e-02
 -4.6105698e-02
 -3.1003903e-03
 -7.9960155e-04
  2.1990619e-03
  4.1312370e-03
 -5.6842237e-04
  3.3488853e-03
  4.2456649e-03
  1.1987031e-02
 -1.3069283e-04
  3.7666000e-03
 -3.3595592e-03
 -5.2544074e-03
 -2.9031897e-03
  3.4478151e-03
 -7.0581166e-03
  4.3090801e-03
 -1.6702856e-03
  3.7189204e-02
  5.8825738e-03
 -3.7392857e-03
 -3.6790478e-03
 -3.7685478e-01
 -6.6375446e-01
  2.3649305e-03
 -3.9077504e-03
 -4.9528573e-04
 -8.4364666e-03
  1.6199419e-03
  9.3779333e-02
 -5.2267000e-02
  2.9929434e-03
  2.9978745e-02
 -2.4064460e-03
  1.8439883e-02
 -6.4851217e-02
 -1.5913853e-02
  6.6206604e-02
 -1.9853830e-02
 -1.4827736e-03
  3.8565475e-02
  1.0861320e-01
 -2.8384486e-04
  2.1585959e-01
 -5.5000065e-03
  4.6649301e-01
 -1.1067494e-02
  9.4501702e-03
 -2.6181829e-01
  6.2788608e-03
  6.9421683e-03
  4.8409393e-01
 -2.3333341e-02
  8.8960510e-01
 -2.6965744e-03
  1.3327150e-02
  4.3922234e-01
  5.6456967e-04
  4.0608752e-03
  1.2241596e-01
 -5.0989911e-03
  5.4359293e-01
 -1.8929566e-03
 -2.2622647e-03
 -5.3305238e-02
  2.4393979e-04
 -1.4085767e-02
  1.9272158e-02
 -1.9811871e-02
 -2.0272277e-02
  7.4529820e-03
 -2.2113067e-03
  1.5914609e-03
  4.4296263e-03
 -5.8827419e-03
 -7.4795238e-03
 -8.1949392e-03
 -4.4360934e-03
  1.0687185e-02
  7.9886382e-03
 -1.4244639e-02
  6.1319284e-03
 -8.3739858e-04
  1.8613217e-03
  7.8722890e-03
 -1.2824791e-02
  7.8775585e-03
  8.1449728e-03
  3.6101763e-03
 -1.0131960e-02
  5.3817276e-03
 -4.6230294e-03
 -1.4820052e-02
  2.2196383e-03
  1.8562155e-02
  2.2460574e-02
 -5.0613307e-05
  3.1909145e-02
 -1.1287996e-02
  2.1230653e-03
 -1.7780175e-03
  1.4337859e-03
 -8.0903042e-03
  8.6315470e-03
  8.0760699e-03
 -8.6413361e-03
  8.2422392e-03
  4.1667246e-03
 -2.0243032e-02
 -1.0793890e-02
  1.4129176e-03
  1.1823920e-03
 -7.9712775e-03
 -1.4131744e-03
 -7.8314450e-04
  8.1654098e-03
  1.8066504e-03
 -6.3035707e-03
 -8.9391163e-03
  5.0754407e-03
 -1.4780536e-02
 -1.0467270e-02
  5.2290374e-01
  6.6413611e-01
 -5.9070955e-03
 -1.1471349e-03
 -1.0792540e-02
 -1.5848542e-02
  5.1964647e-03
  1.3523952e-02
 -2.6784807e-03
 -5.2547264e-03
 -2.3439881e-01
  2.2800902e-03
 -1.6048090e-03
  1.1295632e-01
  3.4594014e-02
  4.8971573e-01
 -2.2558959e-03
 -4.5020999e-03
  3.0681103e-01
 -8.6275274e-03
  1.8181980e-03
 -1.5274075e-01
  8.1327304e-02
 -8.7682374e-02
 -2.1971144e-02
  1.0944285e-02
 -4.0043524e-01
 -1.4626971e-01
  1.3115627e-03
 -8.4781843e-01
 -3.8829921e-03
 -8.5154694e-01
 -2.1309830e-02
  7.4802148e-03
 -3.5997683e-01
  8.2043785e-05
  5.1417650e-04
 -3.1966243e-02
 -3.2017209e-02
 -2.8462753e-01
 -8.4350193e-03
 -2.9278523e-03
  9.8772213e-02
 -3.2073946e-03
  1.3254737e-02
 -2.7449618e-03
 -5.6556133e-03
 -4.4452613e-03
 -1.0143381e-03
  8.1780478e-03
  2.9096664e-03
  2.0239721e-03
  2.0234087e-03
 -1.3035992e-02
  5.8575789e-03
 -1.3796044e-04
  1.8832376e-02
  2.9611764e-03
 -1.2377479e-02
  3.9192168e-03
 -1.2168334e-02
  7.5000529e-03
  1.4535884e-03
  6.6804248e-03
 -2.0098048e-03
 -2.0280776e-04
 -1.7479761e-02
 -1.0215076e-02
  3.1499206e-03
  6.4933933e-03
  9.6159037e-03
 -1.6810320e-02
  2.1456310e-03
  1.0679574e-02
  6.4122328e-04
  3.4378930e-03
  3.1866077e-03
  9.4095087e-03
 -1.1267217e-02
 -2.1255614e-02
  1.2284347e-02
 -1.6176853e-03
 -8.5880369e-04
  4.7569559e-03
  9.9066738e-03
 -1.4792326e-02
  5.6370995e-03
  1.8576678e-02
 -3.5878792e-03
 -5.0613424e-03
  3.0043956e-02
 -2.4880524e-04
 -7.3872632e-03
  5.5313539e-03
  7.9162782e-03
 -3.6244052e-03
  8.0512466e-05
  3.0438853e-03
 -1.3160788e-02
  1.2305469e-02
 -4.2334911e-03
 -1.3579898e-02
  4.0856572e-03
  9.1789849e-03
  8.1121996e-03
  4.3963529e-03
 -1.0205043e-03
 -3.3501331e-03
  1.5415389e-04
 -4.9114837e-03
 -2.4354276e-03
 -3.3816302e-04
  1.2915960e-03
 -1.9852934e-02
  5.2599196e-04
  6.7388378e-03
 -9.5753120e-03
  6.2750992e-03
 -5.4220767e-03
 -2.5926463e-03
 -1.5509708e-03
  4.2451099e-03
 -3.9585512e-03
  7.9037352e-03
 -1.2084542e-02
 -1.3411370e-03
  2.3011963e-03
  1.0042237e-02
  2.7196893e-02
 -3.7422166e-03
  1.0415192e-02
  1.0182391e-02
 -4.7837864e-03
 -1.3752385e-02
 -1.5450438e-03
  1.1496168e-02
  1.1654394e-03
 -1.1494594e-03
 -3.3265990e-03
 -5.4032812e-03
 -7.1983403e-03
  1.1063769e-02
 -6.7483922e-03
 -5.1393230e-03
 -4.7534127e-03
 -7.0996472e-04
 -1.6831370e-02
  1.5071423e-04
 -8.0418205e-03
 -1.0176417e-03
  4.6040472e-03
  1.5412520e-03
 -8.0642272e-03
 -1.5753116e-02
 -1.7790766e-02
 -1.4102597e-02
 -2.5131328e-03
 -2.8213335e-04
 -3.7739454e-03
 -5.9333318e-03
  2.5398238e-02
 -7.6630467e-04
 -3.1270823e-03
  1.8193291e-03
  8.3689215e-03
 -8.7142903e-03
  9.4694896e-03
  4.0290239e-03
  6.0193501e-03
 -9.6081855e-04
  2.4985125e-02
  6.1265104e-03
  1.3945644e-02
 -5.0272117e-03
 -1.1805245e-03
  4.1280231e-03
  3.7955874e-04
  7.6279142e-03
 -7.5165587e-03
  1.5370559e-02
 -6.0961354e-03
 -3.3713481e-03
 -2.6747347e-03
 -4.0706885e-03
 -2.2469347e-04
  7.1428884e-03
  1.0009087e-03
  9.4595654e-03
  2.6057519e-03
  5.6762761e-04
  4.0053527e-04
 -2.6670753e-03
  4.7254129e-03
 -1.3171823e-03
 -1.8438919e-02
  1.2713874e-02
 -1.7198810e-02
 -2.6076226e-03
 -8.5036745e-03
 -3.9190990e-03
  5.9916114e-04
  9.1806641e-03
 -1.9642264e-03
  1.9477766e-03
 -2.3462283e-03
  2.8880164e-02
 -1.2301919e-03
 -6.9498140e-03
  2.3361195e-03
  2.1276446e-03
  6.6744937e-03
  6.4218296e-03
  1.6866835e-02
 -4.0200065e-04
 -6.8041380e-04
  1.8233043e-03
  4.2265230e-03
  5.0653145e-03
 -4.7772555e-03
  1.7076591e-02
 -8.5553275e-03
 -9.0577602e-03
  3.8373112e-03
 -6.3529104e-04
 -1.0139202e-02
  1.7288151e-03
  2.9161643e-02
  2.2391470e-03
 -6.8053213e-04
  4.2841355e-03
 -1.8779116e-02
  2.3004619e-02
  1.2167100e-02
  8.8198073e-03
 -1.9927206e-02
  1.7170964e-02
  3.1505460e-03
 -1.1021687e-03
 -8.4538236e-03
  8.4808134e-03
 -3.5272439e-03
  8.0150897e-03
  9.2771808e-03
  6.0340771e-03
 -1.1654209e-02
 -2.1731574e-03
  2.4331575e-04
 -2.3458933e-02
 -3.7534635e-03
  1.6020162e-02
 -5.9483340e-03
  7.8056683e-03
  3.0929039e-03
 -1.4413778e-03
 -1.6632290e-03
  1.1972857e-02
 -1.8545090e-03
 -2.6705377e-03
 -3.7448719e-02
  8.2221692e-03
 -5.4466682e-03
  4.9593705e-03
 -5.9771254e-03
 -6.3634873e-03
 -6.7629553e-03
 -8.7551947e-04
 -1.2633789e-03
  1.2560681e-04
 -1.1703375e-02
  3.4091894e-03
 -2.0673340e-03
  2.3009563e-03
 -3.9504305e-03
  9.9304793e-03
 -2.1760004e-02
 -3.5654604e-03
  1.1093625e-03
 -9.2952425e-04
 -2.4281159e-02
  8.9584896e-03
 -6.3206530e-03
  7.2682681e-03
  2.5712322e-02
 -1.4624536e-02
  1.1030599e-02
 -5.1883878e-03
  6.4698895e-03
 -1.2655895e-03
  6.3359033e-04
 -1.7815027e-03
 -9.9192699e-03
  8.0503281e-03
  2.4276190e-03
  3.7889390e-03
  2.6363300e-03
  3.8140146e-03
  1.9867595e-03
  8.2215946e-03
 -1.1959341e-01
  2.4111881e-03
  1.2512549e-02
  7.6318860e-02
 -2.0890085e-03
  8.6415606e-03
 -4.0185493e-03
 -3.0841517e-01
 -2.3396809e-03
 -2.6229036e-04
 -1.0051166e-01
 -1.5654286e-05
  8.8134296e-02
 -6.1287842e-04
  5.2710941e-05
 -4.7809577e-01
  4.5858091e-03
 -3.2414785e-01
 -3.1046171e-03
  7.1513052e-03
 -5.7525564e-02
  7.9509253e-03
  5.8078244e-03
 -8.9757428e-02
  3.3937881e-03
 -6.9978431e-02
 -1.1704132e-03
  2.6234901e-02
  4.1089261e-01
 -1.2387625e-02
  1.4291060e-03
  1.8106997e-01
  1.0001396e-01
  5.2863103e-01
 -6.2018824e-03
 -5.4117870e-03
  3.3102951e-03
  1.3936235e-03
  2.1495151e-03
 -1.5992332e-01
 -1.6403761e-02
  2.7615229e-02
 -2.4064703e-02
 -4.1536942e-02
  1.2988335e-02
  4.2146002e-03
  1.2588551e-03
  1.3294910e-03
  3.6251959e-03
  1.0430896e-02
  2.8684989e-03
 -9.0935163e-04
 -3.5755723e-03
 -4.1771145e-03
 -1.2227633e-02
  1.0519644e+00
 -6.1604470e-01
  1.4329407e+00
 -2.0180803e-02
  4.3146461e-03
  3.5010555e-04
  1.2673998e-03
 -1.4920450e-02
  2.4152845e-03
 -1.2546557e-02
 -4.7898981e-01
 -3.2648534e-02
 -1.2104145e-02
 -1.7384276e-03
 -1.4900645e-02
  2.5982347e-03
 -1.4117894e-02
  4.1061488e-01
  1.1174788e-03
 -4.0674312e-03
 -3.0209532e-03
 -3.0865474e-04
  2.5166370e-02
  1.9965187e-02
 -9.3311090e-03
 -1.5353597e-03
  1.1027167e+00
  5.2240877e-03
  4.8101991e-03
 -5.8779353e-03
  1.0301027e+00
 -1.5105781e-02
  1.4427229e+00
 -1.7794479e-03
 -3.2678600e-03
  9.4963366e-04
  7.5073307e-03
 -2.9485056e-03
  1.5005379e-02
  8.2518607e-03
  3.6441495e-03
  2.8865447e-02
 -1.6570815e+00
  1.5846964e-02
  3.4034345e-03
  1.1750018e-02
  1.5528262e+00
 -1.4525778e-02
  5.1080614e-01
 -2.2606230e-03
 -6.9773369e-03
 -1.4123669e+00
 -1.4459998e-02
  1.3043090e-02
  3.3247449e-02
 -2.4422314e-03
  2.9554620e-01
 -1.4287813e-02
 -2.1906401e-01
 -1.1175294e-02
 -5.7668418e-01
 -5.3251749e-01
  7.6734227e-01
 -2.2060915e-03
  1.1829213e-03
  1.8577607e-03
 -3.1079168e-02
  3.0752225e-03
  4.7433382e-01
 -2.7583481e-03
  9.5260894e-01
  5.0668106e-03
  6.5074372e-03
  7.1813259e-03
  5.9826700e-03
 -3.6666524e-01
 -1.5116169e-02
 -8.8569176e-01
 -1.6722332e-03
 -1.4387452e-02
 -2.1960571e-01
  3.4010736e-03
  8.1138982e-04
 -2.6106643e-05
 -1.9644645e-01
  4.3746475e-03
  3.9575043e-01
  2.8689976e-03
  7.6534557e-01
 -2.9205359e-03
  8.1033814e-01
 -1.4789172e-02
 -1.1538097e+00
 -1.2761065e-02
 -3.6412496e-03
  3.6343545e-01
  1.5371855e-03
 -1.6905300e-02
  7.7061877e-03
  5.0548106e-03
 -1.1019219e-02
 -1.0145246e-02
 -1.3055340e+00
  3.9244440e-01
  1.8564327e-02
 -2.2257390e-03
  4.7152224e-01
  1.7470106e-03
  1.1248190e+00
 -4.4898753e-04
  2.2570682e-03
  5.5398978e-03
 -1.3535726e-02
 -4.2611063e-03
  3.1313920e-01
 -1.8482778e+00
 -8.6322635e-02
 -9.7857649e-03
  6.6462755e-02
  9.6826637e-01
  2.4939371e-02
 -5.5624366e-02
  2.9490829e-01
 -5.5227321e-01
  1.0703991e-01
  1.7007508e+00
 -1.0846777e+00
 -1.2261937e+00
  1.2731432e-02
  1.0653451e-02
 -7.0183314e-03
  9.9272968e-04
  4.4252607e-03
 -1.1269029e-02
 -1.2476811e-03
 -2.4519672e-03
 -3.3886456e-03
  9.4019519e-03
  1.0975819e-02
  2.9567678e-02
 -1.4381991e-03
  5.9880367e-03
  6.2428154e-02
 -2.7176780e-01
  4.2769068e-01
 -1.0451579e+00
 -4.0321285e-01
  7.5042200e-01
 -1.1855423e+00
 -8.2503997e-02
  5.4142565e-01
 -1.3650897e+00
 -7.9967864e-02
  6.2334791e-02
 -4.3910179e-01
 -5.4108810e-01
 -1.7573968e-02
  8.8460661e-02
 -3.2461986e-01
  3.7945034e-03
  1.3184229e-02
 -8.9007664e-01
  2.2519997e-01
 -9.7079682e-01
 -8.6489636e-03
 -9.9306889e-02
 -7.2407639e-01
  1.1211929e-01
 -1.9566093e-02
 -1.6157551e-03
  1.8924349e-03
  2.2408659e-02
  1.5255714e-02
 -2.8584888e-02
 -7.6384023e-03
 -7.0305900e-03
 -2.1172346e-01
 -2.7885956e-03
 -2.9609373e-02
 -8.8706808e-03
  7.9033198e-03
  2.0505462e-03
  7.6107858e-03
  5.2887102e-04
  9.3401577e-03
  7.4046711e-03
  1.2695164e-02
 -9.0670604e-03
  4.6704686e-03
  2.7154526e-03
 -2.7329777e-03
  5.5847991e-02
 -1.0303227e-02
 -4.9059745e-03
  9.8116234e-02
 -2.2422258e-02
  1.0480367e-02
  4.8120706e-03
 -3.9369311e-02
  1.3916586e-02
  2.9619533e-01
 -1.1813348e-03
  1.9890253e-02
  1.9086404e-02
 -7.8899078e-02
  3.8708065e-02
  7.0396592e-03
  7.7140945e-01
 -1.6645282e-03
  5.1436245e-01
  5.9594738e-01
  3.6516380e-01
  3.7921464e-01
  6.8196595e-01
  4.7798321e-01
  2.0334300e-02
  1.1157351e+00
  1.3985150e-01
  3.1320330e-02
  9.5029533e-01
  1.8601263e-03
 -4.2496826e-03
  2.3721531e-02
 -1.5406925e-02
 -1.7949265e-03
 -1.9253140e-02
 -1.5720811e-02
 -6.5155216e-03
 -7.7447947e-04
 -6.6023860e-03
 -1.7059790e-03
 -1.3251697e-02
  1.1526287e-03
  5.7709908e-01
  6.0828444e-02
  6.4434144e-03
  5.1431507e-01
  2.8096199e-01
 -2.5949171e-01
  6.1012208e-01
  3.9237267e-01
 -4.7799140e-01
  8.1308824e-01
  2.3400134e-01
 -2.8569803e-01
  9.3173623e-01
  7.4953949e-01
  2.4265051e-03
  9.9446762e-01
 -6.2255263e-01
  1.1184378e+00
  2.3686205e-01
  5.9375280e-01
  3.2207620e-01
 -1.8330328e-01
  9.6824169e-03
 -9.3388493e-04
  1.7384965e-02
  4.3159779e-03
  5.7920916e-03
  2.5264762e-02
  3.2408531e-03
  1.6721508e-03
  4.5758844e-03
  7.0508862e-01
  2.4040899e-01
  5.5721110e-01
  1.1484197e+00
 -1.0447798e+00
  1.5548594e+00
 -9.7871619e-01
  5.5517751e-01
  1.0048532e+00
 -8.7648623e-02
 -6.8445109e-02
  2.8361037e-01
 -6.5282845e-01
 -5.3702164e-03
  7.4042600e-01
 -1.6749126e+00
  8.4973496e-01
  1.4903122e-01
 -3.9238543e-03
 -1.2101288e-02
  1.6237305e-02
  2.0104861e-03
 -2.0678915e-02
  2.2476087e-03
  9.0429112e-03
  9.5853088e-03
  7.3630884e-03
  1.7622936e+00
  4.7347117e-02
  1.4793147e+00
  3.2070321e-01
  1.1916468e+00
  5.8950967e-01
  1.8769413e-01
  1.5992401e+00
 -1.2095015e+00
 -4.6455845e-01
 -6.6364580e-03
 -3.7192795e-01
  1.3263172e-01
 -6.9536893e-03
 -2.4351731e-01
 -4.6163037e-02
  1.4786658e-01
 -1.3692831e+00
  2.0462117e+00
  3.2013452e-01
  1.1409917e+00
  9.8551643e-01
  4.1918421e-01
  1.6694505e-02
  1.8309838e+00
  5.4181504e-01
  1.3029553e-01
  1.5099017e-02
  1.5099017e-02
  1.5099017e-02
  1.5099017e-02
  1.5099017e-02
  1.5099017e-02
  1.5099017e-02
  1.5099017e-02
  1.5099017e-02
  1.5099017e-02
  4.6646702e-01
  4.6646702e-01
  4.6646702e-01
  4.6646702e-01
  4.6646702e-01
  4.6646702e-01
  4.6646702e-01
  4.6646702e-01
  2.4636032e-01
  2.4636032e-01
  2.4636032e-01
  2.4636032e-01
  2.4636032e-01
  2.4636032e-01
  2.4636032e-01
  2.4636032e-01
  9.4031662e-02
  9.4031662e-02
  9.4031662e-02
  9.4031662e-02
  9.4031662e-02
  9.4031662e-02
  9.4031662e-02
  9.4031662e-02
  7.2389558e-02
  7.2389558e-02
  7.2389558e-02
  7.2389558e-02
  7.2389558e-02
  7.2389558e-02
  7.2389558e-02
  7.2389558e-02
  3.9210331e-01
  3.9210331e-01
  3.9210331e-01
  3.9210331e-01
  3.9210331e-01
  3.9210331e-01
  3.9210331e-01
  3.9210331e-01
